tree
version=v4
num_class=1
num_tree_per_iteration=1
label_index=0
max_feature_idx=73
objective=binary sigmoid:1
feature_names=isfemale age min_bmi max_bmi avg_bmi min_weight_kg max_weight_kg avg_weight_kg min_pulse max_pulse avg_pulse min_sbp max_sbp avg_sbp min_dbp max_dbp avg_dbp min_temp_c max_temp_c avg_temp_c albumin_min albumin_max albumin_mean alkaline_phosphatase_min alkaline_phosphatase_max alkaline_phosphatase_mean ast_min ast_max ast_mean basophil_min basophil_max basophil_mean bilirubin_conjugated_min bilirubin_conjugated_max bilirubin_conjugated_mean bilirubin_total_min bilirubin_total_max bilirubin_total_mean calcium_min calcium_max calcium_mean chloride_min chloride_max chloride_mean glucose_serum_min glucose_serum_max glucose_serum_mean hemoglobin_min hemoglobin_max hemoglobin_mean lymphocyte_min lymphocyte_max lymphocyte_mean monocyte_min monocyte_max monocyte_mean neutrophil_min neutrophil_max neutrophil_mean platelet_count_min platelet_count_max platelet_count_mean potassium_min potassium_max potassium_mean sodium_min sodium_max sodium_mean total_protein_min total_protein_max total_protein_mean wbc_min wbc_max wbc_mean
feature_infos=[0:1] [18:119] [10.680315017700195:76.45599365234375] [10.680315017700195:91.367111206054688] [10.680315017700195:76.45599365234375] [30.199600219726562:109.99900054931641] [30.199600219726562:109.99900054931641] [30.199600219726562:109.99900054931641] [0:145] [45:290] [33.913043975830078:156.15383911132812] [0:199] [70:300] [65.230766296386719:208.29032897949219] [0:136] [33:200] [31.5:137.58064270019531] [32.111114501953125:40] [32.944446563720703:42.111114501953125] [32.672836303710938:40.203704833984375] [0.5:5.1999998092651367] [0.69999998807907104:5.1999998092651367] [0.69999998807907104:5.1999998092651367] [9:2500] [9:2500] [9:2500] [3:17989] [3:20066] [3:17989] [0:4.5] [0:8.1000003814697266] [0:4.5999999046325684] [0.10000000149011612:31.559999465942383] [0.10000000149011612:31.559999465942383] [0.10000000149011612:31.559999465942383] [0.10000000149011612:51.700000762939453] [0.10000000149011612:55.099998474121094] [0.10000000149011612:53.400001525878906] [2.7000000476837158:16.100000381469727] [5.4000000953674316:23.100000381469727] [5.0571432113647461:16.850000381469727] [63:139] [74:150] [71.333335876464844:144] [5:738] [25:1577] [25:869.5] [1.8999999761581421:19.799999237060547] [3.9000000953674316:20.600000381469727] [3.9000000953674316:19.799999237060547] [0:100] [0:100] [0:100] [0:55.200000762939453] [0:72.599998474121094] [0:63.900001525878906] [0:98.699996948242188] [0:98.900001525878906] [0:98.699996948242188] [0:1094] [2:1264] [1:1179] [1.5:7.5999999046325684] [2.4000000953674316:9.8000001907348633] [2.3999998569488525:7.5999999046325684] [100:169] [103:180] [101.45454406738281:174.19999694824219] [1.6000000238418579:14.600000381469727] [2.4000000953674316:14.600000381469727] [2.0999999046325684:14.600000381469727] [0:676.94000244140625] [0.0099999997764825821:725.94000244140625] [0.004999999888241291:680.27337646484375]
tree_sizes=3324 3347 3375 3365 3373 3384 3378 3394 3371 3377 3374 3388 3382 3394 3373 3387 3399 3386 3394 3367 3389 3394 3397 3373 3390 3381 3396 3392 3390 3374 3398 3389 3404 3372 3397 3401 3361 3405 3417 3402 3363 3388 3392 3407 3403 3403 3410 3397 3388 3372 3378 3384 3396 3388 3368 3372 3395 3394 3392 3393 3388 3382 3369 3360 3345 3394 3411 3381 3388 3399 3397 3397 3373 3385 3371 3368 3386 3400 3365 3385 3387 3356 3423 3376 3383 3369 3366 3391 3404 3381

Tree=0
num_leaves=31
num_cat=0
split_feature=8 20 27 28 14 45 36 45 63 20 66 37 17 53 11 67 19 3 51 20 31 9 16 27 59 71 60 12 73 10
split_gain=777.396 620.492 202.515 193.815 155.197 80.3178 77.1699 84.1349 66.5474 71.5159 64.2641 63.1382 59.7934 63.7727 59.7737 57.9291 55.1619 51.1634 48.4574 48.3302 46.409 45.2353 49.5166 43.5814 41.1725 40.6624 51.6851 40.2654 38.8095 38.4584
threshold=1.0000000180025095e-35 2.3500000238418584 159.50000000000003 47.166666030883796 28.500000000000004 144.50000000000003 14.84999990463257 219.50000000000003 5.5499999523162851 1.8499999642372134 147.50000000000003 24.675000190734867 35.583333969116218 6.5499999523162851 87.500000000000014 145.90000152587893 35.691640853881843 24.550230979919437 8.1500000953674334 1.2500000000000002 0.17083333432674411 117.50000000000001 69.820858001708999 1426.5000000000002 47.500000000000007 21.765000343322757 219.50000000000003 179.50000000000003 11.881667137145998 101.14550399780275
decision_type=8 8 8 10 8 10 8 10 10 10 10 10 10 8 10 8 10 10 10 10 8 10 10 10 8 10 10 8 10 10
left_child=18 2 5 10 -4 -2 7 21 15 -10 24 14 13 17 23 19 -12 -9 -1 29 -16 -5 -23 -6 28 -21 -27 -18 -3 -7
right_child=1 3 4 6 11 8 -8 12 9 -11 16 -13 -14 -15 20 -17 27 -19 -20 25 -22 22 -24 -25 -26 26 -28 -29 -30 -31
leaf_value=-1.2228370806933997 -2.5927886527664215 -2.6011878653356941 -1.4771271734038891 -2.6589202715153553 -2.2988159096730079 -2.4070683808456019 -2.1208322048988233 -1.406482931346793 -1.7954609899896083 -2.4419319805291924 -1.9083666635288714 -1.6212425275356763 -2.5125766712659243 -2.4558774216774801 -2.0440525866348418 -2.1960409725934853 -2.6572148040952741 -2.211832144913505 -1.8600703091648709 -2.5603459581577477 -2.564422969225602 -2.3387356611531755 -2.6008104545057931 -1.8814323485501363 -2.7055690193618078 -1.7823123241058347 -2.4802819646633329 -2.2811095085092794 -2.1142140214146048 -1.7017774814779005
leaf_weight=3.5389041677117339 93.624010983854532 8.1330625154077989 2.3592244088649741 84.621643528342247 11.113187905400997 2.048805963248014 3.6630061455070964 1.4900367259979277 3.0421576276421538 3.9113454893231392 1.4279502220451856 1.2416969910264004 16.514569763094187 3.4146663546562195 1.9867215640842886 6.332654606550931 10.926933553069826 1.6762909479439256 1.8004606477916238 53.082538902759552 12.479048144072294 10.243999633938072 24.337260875850916 3.2284121662378302 796.98315856978297 1.5521210767328728 3.3525818847119808 3.8492606468498716 2.0488000474870196 1.2416969984769819
leaf_count=57 1508 131 38 1363 179 33 59 24 49 63 23 20 266 55 32 102 176 27 29 855 201 165 392 52 12837 25 54 62 33 20
internal_value=-2.64161 -2.6471 -2.48701 -2.68023 -2.25812 -2.53112 -2.57403 -2.58569 -2.45368 -2.1591 -2.69906 -2.31943 -2.411 -2.15612 -2.34953 -2.48398 -2.50188 -1.83284 -1.43772 -2.51374 -2.49296 -2.61954 -2.52318 -2.20486 -2.70302 -2.53489 -2.25941 -2.55924 -2.5032 -2.14092
internal_weight=0 1169.93 200.596 969.331 32.4083 168.188 145.961 142.298 74.5639 6.9535 823.369 30.0491 23.0956 6.58099 28.8074 67.6104 16.2041 3.16633 5.33936 61.2777 14.4658 119.203 34.5813 14.3416 807.165 57.9872 4.9047 14.7762 10.1819 3.2905
internal_count=18930 18844 3231 15613 522 2709 2351 2292 1201 112 13262 484 372 106 464 1089 261 51 86 987 233 1920 557 231 13001 934 79 238 164 53
is_linear=0
shrinkage=1


Tree=1
num_leaves=31
num_cat=0
split_feature=20 26 63 66 8 28 18 8 45 32 24 66 17 66 71 51 11 57 65 54 72 70 15 17 58 42 73 7 5 32
split_gain=462.595 167.259 117.57 83.1147 79.7547 69.4555 63.2864 62.0266 46.8999 50.8435 46.192 39.9856 39.5089 35.7608 34.1296 33.3866 33.0271 30.0906 29.9957 29.6084 29.4706 33.292 29.4553 28.0974 27.5178 26.1394 25.9143 33.6692 25.4845 25.3573
threshold=2.3500000238418584 35.500000000000007 4.7500000000000009 144.50000000000003 1.0000000180025095e-35 420.75000000000006 36.527778625488288 35.500000000000007 250.50000000000003 1.1950000524520876 183.50000000000003 149.50000000000003 34.194444656372077 146.50000000000003 14.414999961853029 9.6500000953674334 78.500000000000014 90.450000762939467 139.50000000000003 4.8500001430511483 12.72499990463257 5.8999998569488534 79.500000000000014 35.972221374511726 87.100002288818374 100.50000000000001 21.300000190734867 88.499073028564467 46.66460037231446 2.0749999284744267
decision_type=8 10 10 10 8 8 8 10 10 10 10 10 10 10 10 8 10 8 8 8 10 10 10 10 8 8 10 8 10 8
left_child=2 4 6 7 -2 16 12 -3 9 -9 20 15 -1 19 29 -6 -4 25 -13 28 -5 -22 23 -15 -7 -10 -18 -28 -8 -14
right_child=1 3 5 10 11 24 13 8 17 -11 -12 18 14 22 -16 -17 26 -19 -20 -21 21 -23 -24 -25 -26 -27 27 -29 -30 -31
leaf_value=0.60524842896337994 0.35143754094781499 0.39312169564217758 0.30175542389707322 0.052667841888924372 -0.014070588163088912 0.56729901776541547 0.2858668541114438 -0.012584355540203224 0.56788834615450645 0.26311715153996112 0.64076315046369059 0.54550046928368634 0.4857851871123523 0.70357407960730045 0.38189096990652432 -0.070275896368513849 0.096247945982942409 0.025431315799595702 0.066217114328801174 0.01069656309451783 0.050192802804726391 0.45760453095401421 0.11780402601492444 0.13966415104910415 0.28434528239719142 0.19214965739593426 0.54654544804753857 0.082854348799051389 0.06379366372213606 0.079702699876320962
leaf_weight=2.3731715753674534 4.7997684367001048 4.4942320398986331 16.462557382881641 8.7043284215033108 128.37091359123588 7.3079285845160458 7.5806692019104984 155.16202459856868 2.359483242034913 6.9902792870998374 2.522323675453662 1.522877473384139 1.6810283064842222 1.9659638851881021 6.287388212978839 598.05874438211322 32.174152836203575 8.8879320323467237 9.1602391488850117 102.43016849458218 3.1145572625100595 5.6338642612099648 10.537599109113215 1.604876711964607 6.4887887611985215 8.5998491197824478 3.1846593767404547 3.0808222591876984 16.2334094196558 18.036302872002132
leaf_count=30 29 43 206 132 2171 66 104 2473 32 98 31 18 23 24 80 10147 455 123 134 1496 43 77 136 21 62 115 36 38 231 256
internal_value=0 -0.0327193 0.123361 0.0468879 -0.0548734 0.233643 0.0784602 0.0261233 0.0170608 -0.000699045 0.240753 -0.0575191 0.214661 0.0509218 0.179016 -0.0603436 0.183238 0.162159 0.134539 0.0340475 0.182942 0.31256 0.201916 0.450131 0.434222 0.273044 0.132481 0.318542 0.134486 0.114324
internal_weight=0 948.381 237.429 206.469 741.913 68.6989 168.731 186.494 182 162.152 19.9751 737.113 28.3779 140.353 26.0047 726.43 54.9022 19.8473 10.6831 126.244 17.4527 8.74842 14.1084 3.57084 13.7967 10.9593 38.4396 6.26548 23.8141 19.7173
internal_count=18930 15666 3264 3167 12499 863 2401 2884 2841 2571 283 12470 389 2012 359 12318 735 270 152 1831 252 120 181 45 128 147 529 74 335 279
is_linear=0
shrinkage=0.1


Tree=2
num_leaves=31
num_cat=0
split_feature=20 27 18 14 66 11 52 73 67 1 8 71 17 12 73 14 72 11 36 40 70 23 1 16 37 72 55 48 16 66
split_gain=359.833 116.264 84.8247 65.9089 64.2835 55.2485 52.7409 36.8173 36.326 37.2065 34.5058 33.5878 32.8839 32.2829 31.7866 36.1333 31.6397 31.132 29.418 30.8068 30.1352 29.2271 29.1497 28.892 26.1993 25.3758 26.3387 24.8043 24.3458 23.8947
threshold=2.7500000000000004 65.500000000000014 36.027778625488288 39.500000000000007 143.50000000000003 69.500000000000014 9.6250000000000018 10.66083335876465 148.36666107177737 59.500000000000007 1.0000000180025095e-35 11.545000076293947 36.027778625488288 149.50000000000003 11.134500503540041 53.500000000000007 29.265000343322757 85.500000000000014 0.45000000298023229 8.7000002861022967 7.3999998569488534 56.500000000000007 68.500000000000014 78.589572906494155 1.9761904478073122 30.489999771118168 4.2000000476837167 14.84999990463257 80.044467926025405 142.50000000000003
decision_type=8 8 10 10 10 8 8 10 8 2 10 8 10 8 10 10 10 10 10 8 10 10 2 10 10 10 8 8 10 8
left_child=1 6 5 12 10 -2 8 -6 17 -10 -4 -7 -3 -9 15 29 22 21 -15 -20 -21 -1 -12 -23 -24 26 -8 -19 -26 -5
right_child=2 3 4 14 7 11 25 13 9 -11 16 -13 -14 18 -16 -17 -18 27 19 20 -22 23 24 -25 28 -27 -28 -29 -30 -31
leaf_value=-0.040138658932195696 0.51499244951193013 0.3450574918109654 0.21405368855044374 0.079881764090424717 -0.022688007389234838 -0.007827872616874669 0.1534842506296816 -0.032363531149242508 0.68630582987626632 0.11474811172429591 -0.078402180828243184 0.21915439862185415 0.12218851199211506 0.061038387561842891 0.15964558463110506 -0.02961139604809726 0.15103794422295103 0.020568606934903921 0.50908264260928149 -0.028160256377995047 0.37635221505662392 0.15885556647602536 -0.039627726412548532 0.57719876356485533 0.073447746348378501 0.25099178650757964 -0.018191036002310278 0.40159184453756869 0.57486897672643023 0.29118840520222605
leaf_weight=7.3179627768695346 3.1506369933486011 20.952858947217468 4.5808208361268035 21.461086273193363 38.730236697942019 18.178179614245895 9.4972966723144037 9.1648015715181845 2.0010806843638411 2.6435134634375572 437.42679089307785 10.164565332233904 9.6784564480185491 9.4516198411583918 60.561535097658634 26.441469110548496 6.9395985454320899 61.93874628841877 4.3527632132172558 3.6936314031481752 3.6730901002883911 33.363519966602325 206.5910338498652 1.7368036583065976 5.5325614027678958 3.8723969161510459 151.41201209276915 1.7570032700896252 1.1737513020634649 7.1292238533496848
leaf_count=108 36 179 25 270 637 311 132 141 21 29 7687 136 103 148 715 369 106 911 58 51 45 438 3656 22 89 50 2339 24 20 74
internal_value=0 0.0721457 -0.0429578 0.144218 -0.049878 0.117735 0.0338981 0.041929 0.0872619 0.360998 -0.0594526 0.0735748 0.274638 0.124426 0.109658 0.0546471 -0.0613576 0.0752805 0.192299 0.29816 0.173532 0.141654 -0.0636227 0.179556 -0.0333132 -0.00197058 -0.0080583 0.0310789 0.161207 0.132573
internal_weight=0 421.765 762.804 146.225 731.311 31.4934 275.54 69.0661 110.759 4.64459 662.245 28.3427 30.6313 30.3359 115.593 55.0318 657.664 106.114 21.1711 11.7195 7.36672 42.4183 650.724 35.1003 213.297 164.782 160.909 63.6957 6.70631 28.5903
internal_count=18930 5784 13146 1710 12663 483 4074 1080 1553 50 11583 447 282 443 1428 713 11558 1503 302 154 96 568 11452 460 3765 2521 2471 935 109 344
is_linear=0
shrinkage=0.1


Tree=3
num_leaves=31
num_cat=0
split_feature=20 14 19 27 11 66 19 71 27 16 35 10 19 1 46 8 58 13 12 59 72 37 42 18 52 38 37 26 43 25
split_gain=284.433 83.7582 68.664 60.0542 50.4573 49.8877 40.9427 33.3258 30.4884 36.2561 33.7793 30.2828 29.7121 29.006 26.8444 25.7677 25.6134 25.2712 24.5803 24.151 24.0692 25.6238 22.2629 22.701 22.1502 22.0612 21.9478 21.8925 21.3625 20.5337
threshold=2.7500000000000004 37.500000000000007 35.711616516113288 43.500000000000007 67.500000000000014 143.50000000000003 36.204416275024421 17.445000648498539 112.50000000000001 62.678709030151374 1.5500000119209292 119.823299407959 36.340276718139656 57.500000000000007 111.54999923706056 1.0000000180025095e-35 82.700000762939467 93.541442871093764 170.50000000000003 81.500000000000014 24.57499980926514 28.514998435974125 115.50000000000001 35.527778625488288 4.1000001430511483 6.4500000476837167 0.90000000596046459 44.500000000000007 106.46428680419923 97.90000152587892
decision_type=8 10 10 10 8 10 10 10 10 10 10 10 8 2 8 10 10 10 8 10 10 8 10 8 8 10 8 10 10 8
left_child=1 6 4 7 -2 8 26 16 15 10 -10 13 -13 20 -7 -4 -3 -18 27 -9 21 -5 23 29 -25 -15 -1 -16 -27 -6
right_child=2 3 5 11 22 14 -8 19 9 -11 -12 12 -14 25 18 -17 17 -19 -20 -21 -22 -23 -24 24 -26 28 -28 -29 -30 -31
leaf_value=0.16471195457352977 0.39066340181778464 -0.034446316175118362 0.18142857203455079 -0.0087688030097253563 0.03057016706544366 -0.06080059152995803 0.099901190620717548 0.408501486266312 0.02335685671713315 -0.0063686071951971042 0.56219342315279053 0.46249940548708302 0.12704030623035922 0.33969833058069754 -0.036564400079238238 -0.064423455670378563 0.32085942999763861 0.031629180814954409 0.15645645227848778 0.080445926004489188 0.18423333303835196 0.3695013250247125 0.36133081417312612 0.3158929452144843 -0.018743621094717271 0.13620609521743282 0.35152377070444873 0.17745284885168167 0.042333319044291828 0.47714494330761198
leaf_weight=11.48021061345935 4.6034411415457717 124.13817784935236 4.2945050559937945 59.794003739953041 2.1127124018967143 21.576010327786207 34.661787532269955 2.4888049811124828 2.2906764596700695 25.60394212603569 2.364157110452652 3.9618337787687752 7.9154089055955419 3.9299343191087237 21.232257023453716 583.31258852779865 3.2291980497539035 46.835962772369385 20.468881472945213 22.822883024811745 8.2710870504379255 1.8460563719272602 2.0786280967295161 2.0991646274924269 34.27532584965229 59.850880231708288 13.908006872981785 6.1682356223464003 40.746129617094994 2.0084264650940895
leaf_count=111 41 1955 21 773 29 362 376 26 36 404 28 36 88 38 353 10891 38 657 269 287 77 16 20 30 566 714 104 72 488 24
internal_value=0 0.0607074 -0.040543 0.0436088 0.0761596 -0.0485536 0.170569 0.00548373 -0.0575858 0.0403042 0.297028 0.0844348 0.238938 0.0739149 0.0318075 -0.0626267 -0.0100951 0.0502845 0.0735484 0.112702 0.0240535 0.00256 0.0421531 0.0257698 0.000568189 0.107264 0.26705 0.0116139 0.0981836 0.248207
internal_weight=0 445.88 734.489 385.83 47.1777 687.311 60.05 199.515 617.866 30.2588 4.65483 186.315 11.8772 174.438 69.4454 587.607 174.203 50.0652 47.8694 25.3117 69.9111 61.6401 42.5743 40.4956 36.3745 104.527 25.3882 27.4005 100.597 4.12114
internal_count=18930 5784 13146 5193 710 12436 591 2963 11380 468 64 2230 124 2106 1056 10912 2650 695 694 313 866 789 669 649 596 1240 215 425 1202 53
is_linear=0
shrinkage=0.1


Tree=4
num_leaves=31
num_cat=0
split_feature=28 11 20 66 8 14 20 46 44 31 1 46 19 35 58 12 49 48 15 9 17 13 62 27 58 64 45 22 21 47
split_gain=235.074 78.5481 66.3486 43.8439 38.4356 35.038 33.5094 29.488 28.9807 28.0917 27.6479 31.7598 25.3739 24.5665 23.6766 22.7565 19.994 21.1043 19.7547 18.7257 25.0276 18.6189 19.3832 18.5659 18.5468 35.555 19.4393 19.0342 18.378 20.1338
threshold=30.10000038146973 83.500000000000014 2.5499999523162846 144.50000000000003 1.0000000180025095e-35 37.500000000000007 1.2500000000000002 183.09999847412112 57.500000000000007 0.28452381491661077 68.500000000000014 355.35000610351568 38.241899490356452 2.9500000476837163 80.200000762939467 165.50000000000003 8.7999997138977069 11.150000095367433 86.500000000000014 111.50000000000001 34.527776718139656 116.00893020629884 4.4500000476837167 128.50000000000003 91.424999237060561 4.6708333492279062 208.50000000000003 2.4366667270660405 3.1499999761581425 11.750000000000002
decision_type=10 10 8 10 8 10 10 10 10 8 2 10 10 10 8 10 8 10 10 8 8 10 10 8 8 8 10 10 8 10
left_child=2 5 9 7 -4 -2 -7 8 18 -1 -6 19 13 -10 -5 -14 -16 -18 -3 -12 -21 22 -8 -24 25 26 -9 -27 29 -23
right_child=1 3 4 14 10 6 21 24 12 -11 11 -13 15 -15 16 -17 17 -19 -20 20 -22 28 23 -25 -26 27 -28 -29 -30 -31
leaf_value=0.083079678828128389 0.18136942610093001 0.45221404945245303 0.19519377475628361 0.0079931779335217362 -0.072685446174521148 0.31553060837665797 0.024752774077936725 0.29366952614726655 -0.03106978957976941 -0.011058571319731198 -0.046374448729948933 0.49843751698990124 0.07181664092173605 0.066550822910746932 0.30451348972748132 0.5778559692608719 -0.017906417307115497 0.19401732429863952 0.025751826667229943 0.36381147702181665 0.010052281095087483 0.14868138456950244 0.069059872721003598 0.28815039485398886 0.00021614935294138717 0.52093958019076025 0.024978707875700782 0.19394105888775676 -0.014175957684676114 0.44298295853527903
leaf_weight=50.776318617165089 48.131497375667095 2.2722333073616019 6.1441145502030841 13.144915308803318 365.33494920283556 5.67489169538021 70.454584021121264 3.1456289365887704 179.77048046141863 84.37044907733798 154.19227312505245 1.1456595063209523 2.7528780549764624 30.093999322503805 7.9819414541125324 1.3122856542468069 7.3358788825571564 13.073373865336178 2.0809602849185467 2.0938246287405482 44.570682682096958 8.2442786172032303 11.486086614429952 5.8315964713692656 18.153418958187103 2.8137907497584811 18.69712320715189 4.8455227166414261 4.1363940536975869 3.2373581863939771
leaf_count=646 409 23 27 154 7210 45 868 41 2852 1209 2940 17 39 362 73 20 82 122 25 29 817 87 136 46 252 24 224 56 56 39
internal_value=0 0.0527998 -0.038722 0.0234021 -0.0535762 0.110301 0.0789379 0.00847858 -0.00708032 0.0243103 -0.0562704 -0.0265826 -0.012278 -0.0170713 0.118951 0.235172 0.170324 0.117844 0.248352 -0.0295772 0.0259254 0.0659518 0.0480511 0.142837 0.0797451 0.128681 0.0636735 0.31407 0.166553 0.231663
internal_weight=0 464.671 708.628 307.474 573.482 157.197 109.065 265.938 218.283 135.147 567.337 202.002 213.93 209.864 41.5361 4.06516 28.3912 20.4093 4.35319 200.857 46.6645 103.39 87.7723 17.3177 47.6555 29.5021 21.8428 7.65931 15.618 11.4816
internal_count=18930 6035 12895 4349 11040 1686 1277 3918 3321 1855 11013 3803 3273 3214 431 59 277 204 48 3786 846 1232 1050 182 597 345 265 80 182 126
is_linear=0
shrinkage=0.1


Tree=5
num_leaves=31
num_cat=0
split_feature=22 66 9 8 27 71 46 41 40 1 12 55 11 1 36 37 11 26 44 56 35 8 59 50 41 54 59 13 15 37
split_gain=190.769 59.6409 52.5759 40.2073 35.2404 31.8076 30.3065 29.4821 27.0691 25.8006 24.9627 24.2748 23.7943 22.1584 20.8532 20.7146 20.4285 19.9927 19.9652 20.5225 18.8172 18.5354 17.9129 17.2849 18.7518 18.614 16.5086 16.5099 16.3623 16.4541
threshold=2.8500000238418584 143.50000000000003 123.50000000000001 26.500000000000004 43.500000000000007 16.755000114440922 130.07142639160159 93.500000000000014 10.650000095367433 53.500000000000007 191.50000000000003 4.4833333492279062 69.500000000000014 68.500000000000014 18.44999980926514 0.59999999403953563 76.500000000000014 93.500000000000014 233.50000000000003 78.149997711181655 6.0499999523162851 74.500000000000014 157.50000000000003 6.8500001430511483 98.500000000000014 5.5499999523162851 53.500000000000007 103.80322647094728 119.50000000000001 0.64166668057441723
decision_type=8 10 10 8 8 10 8 10 10 2 8 8 10 2 10 10 10 10 10 10 10 10 8 8 10 10 8 8 8 10
left_child=2 3 4 -2 -1 13 16 -7 9 -6 -9 21 28 26 23 -8 22 18 -15 -20 -13 -11 -3 -14 -25 -26 27 -5 29 -4
right_child=1 6 12 5 8 7 15 10 -10 11 -12 20 14 17 -16 -17 -18 -19 19 -21 -22 -23 -24 24 25 -27 -28 -29 -30 -31
leaf_value=-0.0071678837298621151 0.15746820630327971 0.40981782793223953 -0.0066882297678551852 0.34047683366888287 -0.011898963126595913 0.37055999739097978 0.036315903386508051 -0.0064841491615902861 0.44331460985651949 0.21318190406611393 0.3670672454397218 0.035508207610566007 0.11861675715046763 -0.043275289216676609 0.40565388515979128 0.17444214313039852 -0.052693940378549964 0.11171713487336564 0.02529586025345314 0.45169409755413109 0.17201371679131619 0.041415384027420947 -0.016522525330299506 0.15534033492518334 0.060774390446153764 -0.056833412312165932 -0.075491662957621039 -0.0073687671047297544 0.29828558948396328 0.18155855227367251
leaf_weight=180.4874148145318 9.3451486974954587 1.9022942073643201 6.3411388993263307 1.7695274800062168 46.268057439476252 2.5052489750087252 23.58008012548089 31.358205053955317 1.7854449376463879 19.096934683620933 1.8971492797136296 85.486922029405832 41.938770014792681 174.26448716968298 1.8634044677019108 20.122869536280632 30.781451806426048 9.4645011276006681 3.8047563731670371 1.6048707254230974 11.451143551617859 9.3623440489172918 2.044812373816967 11.118800602853296 33.221456069499254 22.621096070855856 348.67823603376746 5.961221557110548 7.7826942913234225 17.34090568125248
leaf_count=2682 54 23 65 25 534 40 349 565 18 171 33 969 431 3416 13 200 517 130 72 25 94 90 31 134 416 314 7222 100 66 131
internal_value=0 -0.037429 0.0444003 -0.0483086 0.0237651 -0.0516167 0.0445028 0.0397475 0.0559529 0.0519241 0.0148262 0.0754729 0.0957514 -0.0576056 0.0739514 0.0999156 -0.0252296 -0.0299402 -0.0374021 0.151795 0.0516334 0.156675 0.188951 0.0682756 0.0367462 0.013133 -0.072287 0.0722512 0.172493 0.131153
internal_weight=0 669.085 496.167 590.653 353.938 581.308 78.4315 35.7606 173.451 171.665 33.2554 125.397 142.228 545.548 110.764 43.7029 34.7286 189.139 179.674 5.40963 96.9381 28.4593 3.94711 108.9 66.9614 55.8426 356.409 7.73075 31.4647 23.682
internal_count=18930 12802 6128 11682 4558 11628 1120 638 1876 1858 598 1324 1570 10990 1308 549 571 3643 3513 97 1063 261 54 1295 864 730 7347 125 262 196
is_linear=0
shrinkage=0.1


Tree=6
num_leaves=31
num_cat=0
split_feature=28 9 52 21 14 8 59 55 36 66 11 25 6 18 8 42 41 67 73 65 56 19 47 27 24 40 24 2 35 1
split_gain=160.844 61.8567 43.6995 35.4911 35.0073 27.5872 27.2355 25.942 24.482 23.8903 21.0834 20.064 20.3219 19.6878 19.2913 18.2893 17.861 22.0239 20.4497 19.5925 17.2909 22.3347 17.0816 17.0011 17.973 16.6616 16.2386 23.9622 26.4575 16.1912
threshold=26.583333015441898 117.50000000000001 9.9000000953674334 2.9500000476837163 40.500000000000007 1.0000000180025095e-35 50.500000000000007 4.2833335399627694 12.650000095367433 143.50000000000003 80.500000000000014 56.100000381469734 75.250949859619155 35.250000000000007 66.500000000000014 112.50000000000001 98.500000000000014 141.77500152587893 21.300000190734867 140.50000000000003 83.549999237060561 35.809522628784187 12.84999990463257 32.500000000000007 112.50000000000001 8.4366669654846209 167.50000000000003 26.485383987426761 1.0500000119209292 55.500000000000007
decision_type=10 10 8 10 10 8 8 8 8 8 8 8 8 8 8 10 10 10 10 10 10 10 8 10 10 10 10 10 10 2
left_child=2 3 9 7 -3 -4 -7 25 29 10 22 -11 -13 -8 -14 26 23 18 -18 -19 21 -21 -1 24 -6 -2 -5 -28 -29 -9
right_child=1 4 5 15 16 6 13 8 -10 11 -12 12 14 -15 -16 -17 17 19 -20 20 -22 -23 -24 -25 -26 -27 27 28 -30 -31
leaf_value=0.05648026076262528 0.05859662576648822 0.15662961788567853 0.17640306141114193 -0.052911034162901931 0.54957604454989994 0.10123432971652101 0.32566810850502909 -0.047302259598501373 0.14605208211425777 0.39722521687394008 -0.027233915843405638 -0.048991837720193332 0.32831804479511595 -0.060279911929468036 0.058386351826080034 0.089960177024667423 -0.0055269123947630974 0.33404392185751181 0.12720903556991542 0.28593601371460536 0.18887759915434515 -0.016572708451714043 0.42762232138273371 0.099405971100142806 0.080809881891932833 0.18717713746802372 -0.024525327219516529 -0.054508473495958415 0.45802192905844497 0.026915692252569942
leaf_weight=23.235679995268587 27.453172385692596 46.683173157274723 5.1932747662067404 110.268983758986 1.8176507316529744 10.843873672187327 1.3256242759525765 40.090166784822941 13.851705327630041 2.1591746322810677 99.107725869864225 7.7518511302769211 4.286249473690984 448.86592500284314 6.9254655204713353 11.863154686987398 76.099545270204544 3.4956652522087088 13.695545919239519 2.8641951791942182 10.229980815201996 16.504285253584385 1.3099918849766243 29.374993436038494 1.4870737381279466 15.923061307519673 9.8497059531509858 1.6430483460426319 2.6025387272238731 110.1745178848505
leaf_count=330 267 349 22 1975 27 157 14 581 106 27 1769 96 51 9379 87 139 1033 30 123 22 85 199 24 310 21 156 137 24 30 1360
internal_value=0 0.0368022 -0.0378868 0.0109825 0.080682 -0.0527895 -0.0553713 0.0370193 0.0188411 0.0101049 -0.00668443 0.108391 0.0755042 -0.0591435 0.161581 -0.0286751 0.0578916 0.0404183 0.014718 0.110152 0.0837094 0.028162 0.076288 0.123598 0.338639 0.105797 -0.0399918 0.0610766 0.259672 0.00711457
internal_weight=0 545.972 611.005 343.72 202.252 466.229 461.035 207.493 164.116 144.776 123.653 21.1227 18.9636 450.192 11.2117 136.227 155.569 122.889 89.7951 33.0941 29.5985 19.3685 24.5457 32.6797 3.30472 43.3762 124.364 14.0953 4.24559 150.265
internal_count=18930 6974 11956 4775 2199 9572 9550 2470 2047 2384 2123 261 234 9393 138 2305 1850 1492 1156 336 306 221 354 358 48 423 2166 191 54 1941
is_linear=0
shrinkage=0.1


Tree=7
num_leaves=31
num_cat=0
split_feature=28 9 20 19 45 50 14 36 11 60 71 66 16 72 55 2 9 65 66 19 18 12 8 1 71 45 60 27 43 25
split_gain=131.161 45.8519 38.5009 29.9355 29.4064 24.85 24.6922 23.9207 22.6494 21.5207 20.6422 17.4013 20.4705 15.6133 15.5568 15.5182 15.3404 17.0245 15.2373 14.7808 14.5026 14.2493 14.0268 13.3226 14.1214 15.4598 13.9742 14.5133 19.3068 17.997
threshold=26.583333015441898 117.50000000000001 2.3500000238418584 35.711616516113288 161.50000000000003 1.1500000357627871 40.500000000000007 4.4500000476837167 79.500000000000014 158.50000000000003 9.6050000190734881 143.50000000000003 57.483802795410163 36.810001373291023 5.0071427822113046 26.956539154052738 136.50000000000003 141.50000000000003 147.50000000000003 36.204416275024421 38.083333969116218 172.50000000000003 61.500000000000007 44.500000000000007 10.694999694824221 144.50000000000003 194.50000000000003 69.500000000000014 99.828571319580092 154.16666412353518
decision_type=10 10 8 10 10 10 10 10 10 8 8 8 10 10 10 10 10 8 8 8 10 10 10 2 8 10 10 10 10 10
left_child=2 4 13 8 7 18 22 -2 9 -4 -10 16 -13 -1 19 -12 -5 -18 -6 -7 -14 -22 -3 26 -25 -26 27 28 -8 -30
right_child=1 6 3 11 5 14 23 -9 10 -11 15 12 20 -15 -16 -17 17 -19 -20 -21 21 -23 -24 24 25 -27 -28 -29 29 -31
leaf_value=0.016798561251585988 -0.027429501111982914 0.22027862501281181 0.40691657311610369 -0.065905815645056043 -0.031801085875576028 0.20816560101471562 0.4354879804539995 0.074795736828535506 -0.089972009896554905 0.077524305850573572 0.043030972780941291 0.20500137215306161 -0.035436977369884319 0.23677856437738984 0.040998430661539603 0.37375899928611706 -0.0064427765218507006 0.33016686705644427 0.27038460891694122 0.077040764627248959 -0.017879634177029546 0.28122280971915514 0.099039869013265516 0.030568099579172333 0.033294580267086357 0.13632067731662509 -0.058270180631491086 -0.003978941047652766 -0.033864727611353201 0.38583332109025914
leaf_weight=85.582908280193806 179.67326720803976 12.772949088364838 2.8905968293547639 371.64302628487349 40.248379029333591 13.231710046529768 2.0049983002245453 26.232728235423565 12.381497573107483 6.3205492086708555 6.8760887458920461 4.2494250759482375 63.735970605164766 3.3528786897659293 59.801367551088333 1.7875510789453981 23.127616386860613 1.6069170348346222 1.7408071681857098 24.540670603513718 3.3929385840892783 3.0020268559455872 37.734471261501312 57.580774128437042 22.817810270935297 40.269719772040844 20.408185295760632 13.38186953216791 4.0429675243794918 1.3672196269035337
leaf_count=1093 2863 74 41 8436 569 99 23 239 251 75 106 63 1214 29 742 27 483 34 11 252 65 39 275 709 258 369 269 144 65 13
internal_value=0 0.0320926 -0.035542 -0.0463052 0.00961382 0.0450515 0.0686577 -0.0144059 0.0501132 0.180893 -0.00712707 -0.0525021 -0.00811906 0.0250918 0.0727325 0.111269 -0.0608306 0.0154256 -0.0192729 0.122974 -0.0210326 0.12253 0.1297 0.0496113 0.0663757 0.0990577 0.000517489 0.0582059 0.170428 0.072198
internal_weight=0 557.85 589.95 501.014 345.469 139.563 212.381 205.906 30.2563 9.21115 21.0451 470.758 74.3804 88.9358 97.5737 8.66364 396.378 24.7345 41.9892 37.7724 70.1309 6.39497 50.5074 161.874 120.668 63.0875 41.2052 20.7971 7.41519 5.41019
internal_count=18930 6974 11956 10834 4775 1673 2199 3102 500 116 384 10334 1381 1122 1093 133 8953 517 580 351 1318 104 349 1850 1336 627 514 245 101 78
is_linear=0
shrinkage=0.1


Tree=8
num_leaves=31
num_cat=0
split_feature=22 9 66 20 59 19 41 1 30 73 46 48 13 11 44 16 16 35 71 12 1 51 9 13 73 11 19 59 51 21
split_gain=111.982 41.6819 33.9271 32.1087 28.1377 26.4818 23.0484 22.8675 21.4199 22.0688 21.3595 29.095 21.1178 20.4229 19.6953 18.7363 24.9815 17.2693 19.0668 16.7537 16.3683 21.4532 15.8108 15.1355 19.008 21.1101 15.079 15.0587 14.9142 15.2885
threshold=2.8500000238418584 118.50000000000001 147.50000000000003 1.9499999880790713 215.50000000000003 35.166666030883796 99.500000000000014 68.500000000000014 0.25000000745058065 10.207499980926515 232.09999847412112 13.84999990463257 89.678157806396499 49.500000000000007 70.500000000000014 73.180652618408217 74.045551300048842 1.0500000119209292 16.914999961853031 198.50000000000003 67.500000000000014 14.250000000000002 102.50000000000001 121.53589630126955 8.2900004386901873 86.500000000000014 36.94658279418946 20.500000000000004 9.9499998092651385 3.7500000000000004
decision_type=8 8 8 10 8 8 10 2 8 10 10 8 8 10 10 8 8 10 8 8 2 10 10 8 10 10 8 10 8 10
left_child=3 5 6 4 14 22 23 17 15 -10 12 -12 -9 -8 -1 -5 -17 -7 -19 20 -18 -22 -2 24 25 -3 -21 -11 29 -14
right_child=1 2 -4 8 -6 7 13 10 9 27 11 -13 28 -15 -16 16 19 18 -20 26 21 -23 -24 -25 -26 -27 -28 -29 -30 -31
leaf_value=0.1990542845832961 0.024379800609148197 0.13060373478309226 0.14763155330804817 0.017850856352024928 0.010731833511792431 -0.075297174036737413 0.25685671199506821 0.30233094309606262 -0.033237214298776956 0.29523431198077249 0.047038610041117965 0.51394534849247719 0.0056235608863918624 -0.034299587639995813 0.07932434209358892 0.40431093558899162 0.012188540180848221 -0.028318315116588017 0.19520950584608918 0.11406481795512864 0.10324547875673291 0.51832991669329365 0.33064153206575581 0.005021131171665979 0.071733539137930499 0.57288084989586707 0.43145801561377584 0.023177978617243203 -0.047424236565021129 0.23569855863271647
leaf_weight=16.079097270965576 4.2145496308803549 2.4775066114962128 17.293816410005093 77.794671837240458 57.989490956068039 253.79184741526842 2.4757926762104026 1.905979998409747 121.15064808353782 2.0724518112838259 8.0464667044579947 1.6000061519443995 28.896374989300966 89.511921402066946 94.403858803212643 2.521017223596572 26.37453344091773 33.558375436812639 4.3056619539856902 4.1347776129841796 9.4438375495374185 1.4342424906790245 2.8092299699783325 14.470861721783875 9.5216679237782937 1.9121093302965162 2.3462002128362656 111.26934489607811 131.14252103120089 3.2089123949408522
leaf_count=110 56 40 185 873 612 5994 23 31 1797 14 128 27 534 1764 838 34 339 632 49 34 104 21 25 244 145 35 19 1333 2831 59
internal_value=0 -0.0317732 0.01666 0.0311328 0.0671414 -0.0458551 -0.00215696 -0.0487571 0.014213 -0.00356452 -0.020157 0.124482 -0.0286052 -0.0264633 0.0967492 0.0478182 0.0982195 -0.0658983 -0.00290013 0.0805749 0.0547589 0.157973 0.146872 0.0766209 0.151101 0.323259 0.228965 0.0281525 -0.032469 0.0286195
internal_weight=0 611.144 137.664 527.014 168.472 473.48 120.37 466.456 358.542 234.492 174.8 9.64647 165.154 91.9877 110.483 124.049 46.2546 291.656 37.864 43.7336 37.2526 10.8781 7.02378 28.3821 13.9113 4.38962 6.48098 113.342 163.248 32.1053
internal_count=18930 12802 2436 6128 1560 10366 2251 10285 4568 3144 3610 155 3455 1787 948 1424 551 6675 681 517 464 125 81 464 220 75 53 1347 3424 593
is_linear=0
shrinkage=0.1


Tree=9
num_leaves=31
num_cat=0
split_feature=20 28 66 19 8 64 65 48 20 46 1 73 32 51 18 14 12 10 61 38 36 56 7 20 6 18 72 4 68 32
split_gain=95.0959 38.1611 35.1515 29.6104 26.6047 25.5995 21.3371 19.6057 19.0865 17.9883 17.1804 16.3038 16.2951 22.4996 16.2478 15.5573 22.0071 19.1152 17.9405 16.8248 16.1248 15.0553 14.8503 14.7312 13.8484 16.8247 19.9123 13.7302 13.6486 13.6136
threshold=3.1499999761581425 27.166666984558109 143.50000000000003 35.368207931518562 38.500000000000007 4.7071430683135995 138.50000000000003 14.150000095367433 1.5500000119209292 172.08333587646487 78.500000000000014 12.461666584014894 0.87500000000000011 1.6500000357627871 36.194442749023445 51.500000000000007 147.50000000000003 94.548591613769545 246.08333587646487 10.34999990463257 5.2500000000000009 75.149997711181655 87.54614639282228 1.7500000000000002 69.999248504638686 37.138891220092781 15.605000019073488 23.980533599853519 6.1499998569488534 0.86500000953674328
decision_type=8 8 8 8 10 10 8 10 10 8 2 10 10 10 10 8 10 10 8 8 10 10 8 10 8 10 10 8 8 8
left_child=1 8 3 -2 -3 7 22 15 24 21 -5 -10 13 23 -8 16 20 -18 -19 -17 -6 -9 -4 -7 -1 26 -26 -15 -23 -12
right_child=2 4 6 10 5 12 14 9 11 -11 29 -13 -14 27 -16 19 17 18 -20 -21 -22 28 -24 -25 25 -27 -28 -29 -30 -31
leaf_value=-0.041198283928903776 0.15273888489006188 0.15670921800174747 0.064945699696556045 -0.063663762119217801 -0.0129888107524622 0.15430907683553599 0.13619979087861903 0.043308587329539315 -0.042449348389881215 -0.03636416844000892 0.34510795754497631 0.018758864137995643 0.20576839575164196 -0.0077692864390622902 -0.012434390363251316 -0.012404403503489179 0.038643860154774112 0.18735007761464431 -0.058832719313172979 0.23341797356870886 0.088968390964561855 0.1123014864048358 0.33647991563992102 -0.044661246471478983 0.42851603277329969 0.010785166346118457 0.075506006106612622 0.12518078500768301 0.3310339443901959 -0.0093480754901961206
leaf_weight=5.461929805576804 7.0045960769057265 18.003827314823866 5.1421150118112537 314.35363886505365 81.023150965571404 4.4933455400168922 8.2554823607206327 7.3387500084936681 132.14936697483063 6.6437749899923793 1.1068697869777677 64.885696172714233 9.2774590328335744 9.3782566376030427 67.393715720623732 159.08178706467152 38.932204641401768 20.616824842989448 3.4564664810895911 2.8338388763368121 19.184525471180677 5.4484278559684727 3.3110222071409234 21.648166697472334 3.327582158148287 4.7622097246348858 3.07401392608881 45.236179523169994 5.9879531785845765 51.418482393026352
leaf_count=61 91 109 57 7679 913 31 82 101 2494 67 21 929 62 88 1235 2060 423 173 36 26 141 52 37 268 40 50 27 378 61 1138
internal_value=0 0.0212946 -0.03779 -0.0509296 0.0375576 0.0326886 0.020623 0.0204725 -0.0136108 0.105052 -0.0548181 -0.0222928 0.0802522 0.0658325 0.00378583 0.01386 0.0356474 0.0819564 0.152003 -0.00810203 0.00653066 0.155094 0.171303 -0.0104611 0.0892813 0.153119 0.259002 0.102351 0.226827 -0.0018786
internal_weight=0 672.246 457.986 373.884 458.585 440.581 84.1023 350.548 213.661 25.4189 366.879 197.035 90.0334 80.7559 75.6492 325.129 163.213 63.0055 24.0733 161.916 100.208 18.7751 8.45314 26.1415 16.6257 11.1638 6.4016 54.6144 11.4364 52.5254
internal_count=18930 8590 10340 8929 4989 4880 1411 4053 3601 281 8838 3423 827 765 1317 3772 1686 632 209 2086 1054 214 94 299 178 117 67 466 113 1159
is_linear=0
shrinkage=0.1


Tree=10
num_leaves=31
num_cat=0
split_feature=28 51 72 14 9 17 36 1 20 41 64 54 3 69 1 69 42 2 18 59 44 26 60 24 9 71 9 38 8 35
split_gain=79.3352 33.2991 29.7513 33.496 23.5366 19.4126 20.5948 19.6964 17.8917 16.7707 16.031 15.1149 21.8049 15.1426 14.7337 14.4277 14.0044 13.8081 13.6553 13.2803 13.1225 12.8252 12.721 16.0133 13.3554 12.6362 12.3908 22.4711 14.1676 20.0269
threshold=26.583333015441898 9.9499998092651385 15.605000019073488 53.500000000000007 127.50000000000001 35.916666030883796 2.2500000000000004 80.500000000000014 1.3499999642372134 99.500000000000014 3.3690477609634404 5.5499999523162851 29.425014495849613 5.8500001430511483 58.500000000000007 7.6499998569488534 91.500000000000014 27.643815040588382 35.527778625488288 57.500000000000007 182.50000000000003 13.500000000000002 217.50000000000003 81.500000000000014 125.50000000000001 18.954999923706058 96.500000000000014 9.5500001907348651 72.500000000000014 4.8500001430511483
decision_type=10 8 10 8 8 10 10 2 10 10 10 8 10 10 2 8 8 10 8 8 10 8 10 8 10 10 10 8 10 10
left_child=1 5 3 8 14 6 7 10 -2 -9 -1 13 -13 -10 18 20 -7 -11 -3 21 -12 -16 -15 -24 -25 -6 27 -4 -28 -30
right_child=2 4 26 -5 25 16 -8 9 11 17 15 12 -14 22 19 -17 -18 -19 -20 -21 -22 -23 23 24 -26 -27 28 -29 29 -31
leaf_value=0.24815278867295898 0.15879126364268284 0.24404326539706156 -0.026351953807350378 -0.025265773356379351 0.0055235641136138032 0.32215366610051971 0.42350170827811057 0.47490949108569885 -0.0033202143006371178 0.026064233897584846 0.023270127771509191 -0.0046555983773675386 0.099684044492546448 0.065705066372890933 0.36777565478356727 -0.068223247154245367 -0.027846306565421371 0.39140952633122561 -0.082936626512821354 -0.041970779003705362 0.20693586178539147 0.028435185834506677 0.32688677698409963 -0.005019279045983583 0.29530271701267158 0.21589972141124411 0.10309607422894851 0.29965191966453725 0.022964818178671818 0.14156364983862271
leaf_weight=3.0154907666146746 10.926856361329554 1.289668597280978 29.173894222825769 174.91965756565332 51.095859721302986 1.1620545610785473 1.4741188548505295 1.696300271898507 15.161289837211369 4.2090434171259403 30.085973098874092 125.61470194160938 23.82811663672328 17.813718598335985 1.429847016930579 15.845768939703701 70.534091200679541 1.3716023191809652 132.1352910399437 215.8193096332252 4.4677944518625727 5.0381687618792057 5.3898706100881073 4.443098060786725 2.2209270969033241 3.0240843296051017 62.910797752439976 2.2795655243098727 85.187366329133511 17.095401518046856
leaf_count=37 72 10 331 2761 994 21 17 22 144 58 422 1602 299 178 14 342 1272 17 3469 5094 50 77 62 52 13 40 528 20 801 111
internal_value=0 -0.0300157 0.0232218 0.00689321 -0.0441595 0.0132868 0.0541831 0.0452128 0.0342802 0.199555 0.0241862 0.0272842 0.011981 0.0780729 -0.053507 0.0107858 -0.0221735 0.115858 -0.0797761 -0.0377394 0.0470181 0.103451 0.119389 0.198726 0.0950694 0.0172788 0.0548015 -0.00272507 0.0657547 0.0427873
internal_weight=0 543.694 576.965 380.318 409.832 133.862 62.1661 60.692 205.399 7.27695 53.415 194.472 149.443 45.0289 355.712 50.3995 71.6961 5.58065 133.425 222.287 34.5538 6.46802 29.8676 12.0539 6.66403 54.1199 196.647 31.4535 165.194 102.283
internal_count=18930 11956 6974 5183 9698 2258 965 948 2422 97 851 2350 1901 449 8664 814 1293 75 3479 5185 472 91 305 127 65 1034 1791 351 1440 912
is_linear=0
shrinkage=0.1


Tree=11
num_leaves=31
num_cat=0
split_feature=20 66 11 73 19 63 18 47 19 26 53 51 24 1 71 70 39 40 4 46 16 11 40 59 22 11 25 62 12 10
split_gain=68.0476 29.9609 27.9677 24.9372 22.9624 21.8248 21.1446 19.4503 18.1498 17.8079 22.82 16.7886 16.6442 16.5073 18.8095 16.2865 15.9514 15.5645 14.5998 14.57 13.9482 13.6067 17.1547 14.6131 14.0947 13.407 12.6543 12.4474 12.373 12.3363
threshold=3.1499999761581425 143.50000000000003 83.500000000000014 15.34333372116089 35.166666030883796 4.7500000000000009 36.638889312744148 6.8500001430511483 36.222223281860359 30.500000000000004 5.7500000000000009 18.150000572204593 679.50000000000011 82.500000000000014 5.1649999618530282 5.8550000190734872 7.9500000476837167 9.0083332061767596 27.582668304443363 114.58333206176759 47.516666412353523 139.50000000000003 9.2999997138977069 81.500000000000014 3.7928571701049809 80.500000000000014 450.00000000000006 3.8500000238418584 211.50000000000003 106.06929397583009
decision_type=8 8 10 10 8 10 8 8 10 10 8 8 10 2 8 10 10 8 10 10 8 8 10 10 10 10 10 10 10 10
left_child=2 4 5 9 -2 6 7 -1 29 -4 15 13 28 21 -15 17 -9 -11 26 25 -7 23 -23 24 -6 -3 -12 -16 -8 -5
right_child=1 19 3 8 11 20 12 16 -10 10 18 -13 -14 14 27 -17 -18 -19 -20 -21 -22 22 -24 -25 -26 -27 -28 -29 -30 -31
leaf_value=0.24554181631476713 0.16256035414513403 0.095914359663028248 -0.039706541266912788 0.075584839537790049 0.041893383906246126 0.295240103775334 -0.0099521450377335115 0.1612375968966053 0.013629850729239588 -0.032493620212409875 -0.041325348866961958 -0.065934768541502778 0.24728835033291974 0.46896089940214908 -0.10610072521033909 0.1077031490690102 0.013571570055546392 0.2528181177416432 0.048967108373388649 0.062311055340020821 0.074709158696309161 0.03085898750895413 0.52526046763489487 -0.046188465922653688 0.45203491108350591 -0.048394868291425058 0.15812503738202521 0.13505001558843147 0.24857217205055041 0.2386797162192684
leaf_weight=6.1768510807305566 5.1700145006179801 7.9294510371983042 139.17804557830095 31.107216782867908 3.9654822200536719 2.9619564898312083 116.42423584312201 10.055729191750286 73.247594937682152 19.524587020277981 91.086004067212343 223.20306172966957 2.6559511721134177 1.2188829146325559 3.2734905369579792 32.080110058188438 26.844227973371744 2.1196106076240531 27.054190125316381 41.321932304650545 90.40976769477129 2.7275726236402984 0.94496042281389225 99.33566078171134 1.0623698793351648 34.224508043378592 3.2961377613246432 6.1838752515614033 1.8811866380274285 5.4502749517559996
leaf_count=44 51 106 2718 279 76 20 1312 83 794 222 1290 6128 19 27 67 344 300 17 344 520 714 52 18 2379 16 785 34 115 16 40
internal_value=0 -0.0336751 0.0171073 0.00132636 -0.0466118 0.0431103 0.0211419 0.0813049 0.0423519 -0.0130047 0.00821182 -0.0497746 -0.00028335 -0.0193903 0.0992316 0.0624779 0.0538125 -0.00455312 -0.0157959 0.0201144 0.0817049 -0.0311126 0.158071 -0.03777 0.128555 -0.0212493 -0.0343599 0.0515802 -0.00584132 0.0999003
internal_weight=0 430.561 681.554 424.144 347.085 257.41 164.038 43.0768 109.805 314.339 175.161 341.915 120.961 118.712 10.6762 53.7243 36.9 21.6442 121.436 83.4759 93.3717 108.036 3.67253 104.364 5.02785 42.154 94.3821 9.45737 118.305 36.5575
internal_count=18930 10340 8590 6082 8929 2508 1774 427 1113 4969 2251 8878 1347 2750 209 583 383 239 1668 1411 734 2541 70 2471 92 891 1324 182 1328 319
is_linear=0
shrinkage=0.1


Tree=12
num_leaves=31
num_cat=0
split_feature=9 20 1 1 42 12 48 46 63 66 48 63 41 59 2 14 63 40 56 72 66 11 43 70 41 18 45 68 26 19
split_gain=57.1847 41.0595 28.8983 26.4521 26.4122 23.089 22.9136 21.8753 21.6548 20.0333 21.1454 17.2709 30.6738 17.0941 16.6148 20.4849 19.1124 16.517 15.5358 20.3094 15.5263 15.0164 14.8025 14.169 14.1139 13.8616 13.4049 12.9742 12.7337 12.5406
threshold=117.50000000000001 2.3500000238418584 44.500000000000007 60.500000000000007 98.500000000000014 171.50000000000003 15.34999990463257 158.06250000000003 4.6499998569488534 133.50000000000003 15.650000095367433 4.4500000476837167 99.500000000000014 158.50000000000003 32.987497329711921 35.500000000000007 3.4500000476837163 8.9535717964172381 85.350002288818374 16.134999275207523 139.50000000000003 73.500000000000014 104.22499847412111 5.055000066757203 98.500000000000014 36.527778625488288 144.50000000000003 6.1499998569488534 107.50000000000001 35.731481552124031
decision_type=10 8 2 2 10 8 10 10 10 10 10 8 10 8 10 8 8 10 10 8 10 10 10 8 8 8 10 10 8 8
left_child=1 6 13 29 18 8 25 14 23 11 27 12 -9 -2 24 -16 -17 20 19 -4 -7 -21 -22 -6 -5 -1 28 -11 -27 -3
right_child=2 3 4 7 5 17 -8 9 -10 10 -12 -13 -14 -15 15 16 -18 -19 -20 21 22 -23 -24 -25 -26 26 -28 -29 -30 -31
leaf_value=0.064803870103317271 0.032553878974685382 0.032386809425580927 0.095184502163975532 0.030611213329930317 0.060206517658985305 0.040316533728417092 0.31291559539464675 0.11978015532291791 0.06287056667710407 -0.032577922119217013 0.31156067025778178 0.018295408359075199 0.66837193729506139 -0.055520406950080363 0.46027301169607365 0.43926728573038426 0.0038338213196481181 0.018063362285924388 0.0059360298405144044 0.12785825917244528 0.3565513804568316 0.37477472155119756 0.14178038622413924 -0.026581221591455009 -0.047106364266468109 -0.049737824637413136 0.031177442181639287 0.048621117413884508 0.063480569502244899 -0.066329812909840496
leaf_weight=46.05208140052855 37.539097610861063 13.752166120335458 16.270841978490356 26.523344378918409 23.538975901901722 13.184021683409808 2.6546183079481116 2.9978300370275948 64.84559109993279 44.411152072250843 2.2906637191772452 3.844891671091319 1.544243276119232 53.362474650144577 1.2201241254806543 1.0845809541642637 14.280990406870842 21.383226446807384 8.0452718921005708 4.1328530870378 3.7894624695181873 6.0959062352776527 20.953801844269037 93.664003204554319 196.38115487247705 56.984867371618748 74.450930040329695 35.333985038101673 12.031311038881539 200.33710619807243
leaf_count=388 417 222 215 566 228 157 18 47 620 845 30 63 32 949 17 24 317 312 73 27 38 68 188 1407 4495 739 722 563 99 5044
internal_value=0 -0.0185784 0.0297514 -0.0326151 0.0458625 0.0341572 0.0211562 -0.0148516 0.0165032 0.027055 0.0120049 0.174265 0.306294 -0.0191489 -0.030674 0.0658858 0.034569 0.0883446 0.127646 0.164597 0.127969 0.27501 0.174673 -0.00915082 -0.0378588 0.0170695 0.00174703 0.00340027 -0.0300009 -0.0599887
internal_weight=0 736.176 366.806 544.002 275.904 241.359 192.174 329.913 182.049 90.4228 82.0358 8.38696 4.54207 90.9016 239.49 16.5857 15.3656 59.3105 34.5449 26.4996 37.9273 10.2288 24.7433 117.203 222.904 189.519 143.467 79.7451 69.0162 214.089
internal_count=18930 14231 4699 12265 3333 2950 1966 6999 2255 1580 1438 142 79 1366 5419 358 341 695 383 310 383 95 226 1635 5061 1948 1560 1408 838 5266
is_linear=0
shrinkage=0.1


Tree=13
num_leaves=31
num_cat=0
split_feature=20 8 66 64 19 9 1 47 43 66 70 19 1 18 31 50 67 57 35 72 59 16 62 39 4 54 55 65 11 71
split_gain=50.3253 25.4898 24.8619 21.9958 18.6546 16.7319 15.8718 17.4428 17.2195 17.2886 14.8823 25.8515 14.2875 13.8815 13.708 13.6871 13.3984 13.0669 13.0111 13.2453 12.8403 13.4202 13.3879 13.0844 13.4997 14.1318 12.7336 12.5603 13.6295 12.7095
threshold=3.1499999761581425 38.500000000000007 143.50000000000003 4.7071430683135995 35.368207931518562 123.50000000000001 57.500000000000007 13.550000190734865 105.36666870117189 143.50000000000003 7.7749998569488534 36.635362625122077 78.500000000000014 37.194444656372077 0.20833332836627963 7.1499998569488534 148.36666107177737 83.850002288818374 3.3500000238418584 7.3250000476837167 39.500000000000007 70.172618865966811 3.6499999761581425 8.9499998092651385 32.139307022094734 10.650000095367433 8.0583333969116229 141.50000000000003 80.500000000000014 23.60000038146973
decision_type=8 10 8 10 10 10 2 10 8 10 10 8 2 8 8 10 10 8 10 10 8 10 10 10 10 10 10 8 10 10
left_child=1 26 4 5 -2 6 16 8 10 -10 20 -12 18 15 -9 17 -3 -7 -6 -20 -8 -22 -23 24 25 -24 -1 -4 -29 -30
right_child=2 3 27 -5 12 13 7 14 9 -11 11 -13 -14 -15 -16 -17 -18 -19 19 -21 21 22 23 -25 -26 -27 -28 28 29 -31
leaf_value=0.15245610287817948 0.086332103439390934 -0.045965325644062041 0.086269212953555593 0.046961682630431885 -0.059510393212906965 0.26552866898483218 0.17034253313850142 0.2345729185606342 -0.054031484700673406 0.02685469100616969 0.011240782225862788 0.5356376581155845 0.0019892808052980855 0.0039918716255135196 0.029103229078050092 -0.0012313767409756161 0.12776401457186692 0.078803062456859863 0.31446564124512133 -0.021967578891714978 -0.012921449981304685 -0.021488337435298425 0.087684910220287834 0.017468852318584371 0.42517302109450639 0.41685615307682167 -0.043440582099436936 0.089810225864874416 -0.034628146143926057 0.31127189687950269
leaf_weight=18.816716909408573 10.823396258056162 118.78125235065818 20.600157443434 132.31795099005103 259.69093880057335 4.1452412027865639 5.3354155141860238 5.6127512548118803 82.733225677162409 38.82556763663888 2.401096429675817 1.5449757687747476 49.726696103811264 92.836274527013302 7.7033921368420133 21.299515740945935 4.6115833744406691 39.078965172171593 1.8636090662330378 3.1451365817338228 72.531019551679492 12.038863470777867 9.5450113769620675 9.0339130014181119 1.8404097668826569 1.5106426160782565 4.0285572726279488 12.454941768199204 48.881914064288139 1.0858455002307881
leaf_count=112 131 1885 239 1375 7579 33 48 56 1326 421 32 23 1155 993 120 242 34 375 25 39 954 180 148 152 20 21 40 151 1010 11
internal_value=0 0.0140543 -0.0302812 0.0104795 -0.0427488 0.00139566 -0.0101134 0.00433943 -0.00190902 -0.0281966 0.0256903 0.216554 -0.0471921 0.0287531 0.115709 0.0643793 -0.0394725 0.0967102 -0.0564313 0.103209 0.0189558 0.0113716 0.0632428 0.109757 0.174407 0.132663 0.117911 0.0185617 -0.00378253 -0.0271114
internal_weight=0 686.572 408.273 663.727 325.25 531.409 374.049 250.656 237.34 121.559 115.781 3.94607 314.426 157.36 13.3161 64.5237 123.393 43.2242 264.7 5.00875 111.835 106.5 33.9688 21.93 12.8961 11.0557 22.8453 83.0229 62.4227 49.9678
internal_count=18930 8590 10340 8438 8929 7063 5420 3501 3325 1747 1578 55 8798 1643 176 650 1919 408 7643 64 1523 1475 521 341 189 169 152 1411 1172 1021
is_linear=0
shrinkage=0.1


Tree=14
num_leaves=31
num_cat=0
split_feature=27 73 14 59 66 27 21 1 18 30 69 6 1 20 66 8 10 16 32 31 18 35 71 1 9 42 48 9 45 10
split_gain=44.4827 25.2558 22.4121 18.6668 16.6404 16.5254 15.5949 15.365 15.2657 13.8069 15.3672 16.2062 15.4977 14.6649 13.5801 12.6338 13.2944 12.4389 12.1036 11.5691 11.0469 11.0452 11.0073 10.8736 13.6741 16.4007 10.7063 10.565 10.3738 10.1905
threshold=17.500000000000004 11.420000553131105 53.500000000000007 53.500000000000007 142.50000000000003 91.500000000000014 1.5500000119209292 50.500000000000007 35.527778625488288 0.15000000223517421 6.1499998569488534 87.904048919677749 69.500000000000014 1.3499999642372134 143.50000000000003 100.50000000000001 124.65476226806642 47.516666412353523 0.34499999880790716 0.083333335816860213 37.638889312744148 1.5500000119209292 13.015000343322756 40.500000000000007 115.50000000000001 117.50000000000001 8.2500000000000018 99.500000000000014 247.50000000000003 110.89736938476564
decision_type=10 10 8 8 10 10 8 2 10 8 10 8 2 8 10 10 8 8 8 8 8 10 8 2 10 8 10 10 10 10
left_child=3 2 5 20 7 9 26 21 27 10 -2 -12 -13 -11 -7 -9 22 -10 -6 28 -1 -3 -17 -19 -25 -26 -5 -8 -4 -27
right_child=1 4 19 6 18 14 8 15 17 13 11 12 -14 -15 -16 16 -18 23 -20 -21 -22 -23 -24 24 25 29 -28 -29 -30 -31
leaf_value=0.17507288013453537 -0.0091042068977283796 -0.051418426855556837 0.021578222081517183 0.25834434469342499 0.19673685253291343 0.034944243817074408 -0.042362779497068882 0.02477770571203677 0.21533513696874254 0.15948406522751221 0.04415641775281328 0.1632382625826459 0.54005409023959738 -0.020112222153771425 0.15029450567283745 0.36503920151476682 -0.040002615452367787 -0.092874667604147962 0.056239807998191907 -0.038255544182453742 -0.038438637946585773 0.036396598407399221 0.1209326087561427 -0.050970481616227969 -0.015866086600637559 0.080257085671930073 -0.0031705644885840264 0.21247580985810646 0.27538454400160112 0.3638616864457011
leaf_weight=6.702371679246423 11.176816377788784 46.220317702740431 8.2865044921636564 2.9202800970524541 6.588990218937397 47.814597886055708 2.7545640133321276 185.83957334235311 1.8361489921808232 4.7117109932005397 5.6041087266057703 3.1362933628261098 1.6740453429520128 129.72009927779436 12.976002514362333 2.6565363295376256 3.3135817945003518 42.087716620415449 88.349829092621803 173.34456710703671 3.7955268416553745 20.7545415610075 6.06354520097375 196.72946888953447 54.694400219246745 5.6412669010460368 3.3743865005671978 3.9735940098762512 1.9988557659089554 1.6339450515806673
leaf_count=79 141 710 127 28 43 411 31 2113 34 34 80 39 17 2207 82 24 25 1286 756 3439 57 177 51 5550 1209 80 36 28 20 16
internal_value=0 0.0108417 -0.00643496 -0.033306 0.0300707 0.0153371 -0.037669 0.0171946 -0.0408397 -0.00189573 0.072332 0.15973 0.294374 -0.0138175 0.0595662 0.0312076 0.130506 -0.044152 0.0659907 -0.0321414 0.0978776 -0.0242058 0.195299 -0.045736 -0.038067 0.00289651 0.118154 0.108143 0.0709029 0.143952
internal_weight=0 760.231 400.444 326.144 359.787 216.814 315.646 264.848 309.351 156.023 21.5913 10.4144 4.81034 134.432 60.7906 197.873 12.0337 302.623 94.9388 183.63 10.4979 66.9749 8.72008 300.787 258.699 61.9696 6.29467 6.72816 10.2854 7.27521
internal_count=18930 10496 6597 8434 3899 3011 8298 3100 8234 2518 277 136 56 2241 493 2213 100 8175 799 3586 136 887 75 8141 6855 1305 64 59 147 96
is_linear=0
shrinkage=0.1


Tree=15
num_leaves=31
num_cat=0
split_feature=24 73 9 26 1 8 42 12 69 46 20 8 11 43 18 21 61 32 46 61 1 8 5 2 14 1 66 58 42 71
split_gain=38.9547 25.6007 23.7505 19.7424 18.4921 18.4279 17.9936 21.1381 21.7279 17.1906 17.6963 17.0354 15.6294 15.6074 15.0021 14.9636 13.9187 18.2531 13.1178 13.5708 12.948 13.4555 12.7604 12.7243 12.6618 12.5968 12.5064 12.4633 14.6726 16.7646
threshold=71.500000000000014 10.207499980926515 118.50000000000001 96.500000000000014 68.500000000000014 50.500000000000007 102.50000000000001 198.50000000000003 5.7500000000000009 310.25000000000006 2.1499999761581425 52.500000000000007 99.500000000000014 98.083332061767592 35.805555343627937 0.94999998807907116 40.083333969116218 0.9350000023841859 138.87500000000003 168.12500000000003 40.500000000000007 96.500000000000014 47.113901138305671 29.846599578857425 46.500000000000007 78.500000000000014 134.50000000000003 75.224998474121108 98.500000000000014 3.9550000429153447
decision_type=10 10 10 10 2 10 10 10 10 10 8 10 8 10 8 8 8 10 10 10 2 10 8 10 10 2 8 10 10 10
left_child=2 3 4 14 -1 -3 9 -8 -9 10 -6 -4 -5 20 -2 -7 17 23 19 25 -13 26 -20 -16 -15 -17 -22 -18 -29 -30
right_child=1 5 11 12 6 15 7 8 -10 -11 -12 13 -14 24 16 18 27 -19 22 -21 21 -23 -24 -25 -26 -27 -28 28 29 -31
leaf_value=-0.059102030803007057 0.14573471766075838 0.10604365092309301 0.1351993245823418 0.078655497234029384 0.36044760731324765 0.29335853625927949 -0.041751354382265765 0.020355980124794178 0.4943545795389116 0.46063841392953941 0.023245351063443796 -0.076724615671295876 -0.039072256586036108 0.042634531174466979 -0.042388713829905708 0.055029112749760814 -0.051856843420870269 0.31743549126435106 0.20381304116818968 -0.02002524316017109 -0.073632925996290607 0.36917398903411969 0.037454256048440895 0.25016610612787299 -0.036824812196966504 -0.09365987891472162 0.18520017098367764 0.10896251185093862 0.12460002114344396 -0.038299861914211794
leaf_weight=190.78773834742606 5.1376832500100127 29.978770786896348 10.414600232616065 38.532717254012823 1.6386198997497547 2.0524907596409312 94.701920598745346 2.7646308522671452 1.4873781297355888 1.0022662021219719 30.990737702697515 3.142667304724454 15.942323535680769 28.660357236862183 7.6966135352849943 54.787069203332067 129.83840145170689 2.505077999085187 4.745195558294653 101.90739155560732 2.8664139118045542 2.286927878856658 162.75901932828128 1.8426095247268675 66.785131748765707 6.3590499199926844 5.3529296219348916 10.575886283069847 7.1769929174333802 52.75949870236218
leaf_count=5317 57 256 100 325 16 12 2132 49 27 11 686 66 213 375 93 505 2903 22 37 1462 50 35 1645 20 1304 63 80 148 82 839
internal_value=0 0.0135557 -0.0250891 -0.00963394 -0.0391671 0.0309521 -0.0104812 -0.0319579 0.186164 0.0527096 0.0401794 0.0130038 0.044202 0.00133853 -0.0231157 0.024184 -0.0272 0.0772074 0.0225126 0.00232179 0.10136 0.154629 0.042167 0.0141216 -0.0129648 0.0395658 0.0949347 -0.0334766 0.000367979 -0.0187937
internal_weight=0 634.597 442.882 272.008 323.373 362.589 132.586 98.9539 4.25201 33.6316 32.6294 119.509 54.475 109.094 217.533 332.61 212.395 12.0443 330.558 163.054 13.6489 10.5063 167.504 9.53922 95.4455 61.1461 8.21934 200.351 70.5124 59.9365
internal_count=18930 8682 10248 4702 8238 3980 2921 2208 76 713 702 2010 538 1910 4164 3724 4107 135 3712 2030 231 165 1682 113 1679 568 130 3972 1069 921
is_linear=0
shrinkage=0.1


Tree=16
num_leaves=31
num_cat=0
split_feature=27 8 45 9 24 43 59 32 11 73 15 49 17 38 52 54 67 10 15 1 66 24 59 54 41 3 13 37 32 15
split_gain=33.2139 21.1022 17.9516 16.5492 16.0451 17.6705 16.4687 20.3646 14.7955 17.0635 15.1126 14.1354 15.5279 13.4678 13.3086 12.9603 12.9333 13.0996 12.7137 11.8677 13.9289 13.0529 14.9178 10.798 10.5654 12.6222 19.7041 10.7593 10.4678 10.4109
threshold=17.500000000000004 38.500000000000007 129.50000000000003 88.500000000000014 262.50000000000006 103.35416793823244 35.500000000000007 8.1750001907348651 80.500000000000014 16.767499923706058 63.500000000000007 8.0999999046325701 35.805555343627937 5.6499998569488534 0.92500001192092907 28.450000762939457 142.53571319580081 71.76568984985353 158.50000000000003 58.500000000000007 149.50000000000003 183.50000000000003 158.50000000000003 9.7500000000000018 100.50000000000001 27.250667572021488 121.53589630126955 0.97083336114883434 6.4249999523162851 184.50000000000003
decision_type=10 10 10 8 10 8 8 8 10 10 8 10 10 8 8 10 8 10 8 2 10 10 8 10 8 10 8 8 8 10
left_child=8 23 4 -4 5 18 7 -7 10 13 -1 12 -11 -10 -5 19 17 -6 -3 20 21 -16 -23 -2 27 -26 28 -21 -27 -15
right_child=1 2 3 14 16 6 -8 -9 9 11 -12 -13 -14 29 15 -17 -18 -19 -20 24 -22 22 -24 -25 25 26 -28 -29 -30 -31
leaf_value=0.33379239934503868 0.12084996346634691 0.0042371077543509961 -0.030877732742556386 -0.082498510848393436 0.24357736572570904 0.3748694381556969 -0.052832145193179962 -0.0034660294539598452 0.33610515860274054 0.41410112697933044 0.0077102192320140641 -0.0005663843343532202 0.05328981311302762 -0.052213269456144733 -0.019719726159543122 0.28885879446973073 0.22804338696379831 0.0055461812045579 0.2204266692792563 0.10739755016470182 0.11602418172377467 0.13294913728129051 -0.025363169350334933 -0.06398421755986955 0.011854962922102488 0.16790701634186736 0.13510858463677131 0.028740571378855113 -0.030956989450602657 0.34247282040874039
leaf_weight=1.458601465448736 23.327109074220065 88.167753336951137 61.271728871390224 11.223818005993961 2.5681381225586 1.9925584718585012 138.46450242772698 4.9748922996222964 0.90224860422313113 1.8604465741664196 55.572921689599752 22.266475692391396 3.3234956655651331 222.65796414017677 108.70858436636627 1.8944502808153618 3.7506728321313849 23.182968273758888 2.8068166710436335 39.331998506560922 10.248786594718693 13.224624596536161 10.823696356266735 3.6560455150902262 135.5499815326184 3.1415653973817825 23.786619482561946 31.173668330535293 16.811546979472045 0.67032933235168357
leaf_count=22 162 1394 975 169 23 15 2749 58 21 24 1066 469 50 6765 1528 14 27 235 38 421 60 112 117 36 1611 19 286 268 179 17
internal_value=0 0.00895626 0.00575959 0.0175652 -0.0149825 -0.0236601 -0.0452835 0.104731 -0.0299393 -0.0403605 0.0160499 0.0340581 0.18278 -0.0494709 0.0248775 0.0279309 0.0545538 0.0292848 0.0109072 0.0266724 0.00369973 -0.00497168 0.0616957 0.0958061 0.0398241 0.0269272 0.0736363 0.0726198 0.000353629 -0.0510286
internal_weight=0 760.083 733.099 467.191 265.908 236.407 145.432 6.96745 308.712 251.681 57.0315 27.4504 5.18394 224.231 405.919 394.696 29.5018 25.7511 90.9746 392.801 143.006 132.757 24.0483 26.9832 249.795 179.29 43.7397 70.5057 19.9531 223.328
internal_count=18930 10496 10298 5759 4539 4254 2822 73 8434 7346 1088 543 74 6803 4784 4615 285 258 1432 4601 1817 1757 229 198 2784 2095 484 689 198 6782
is_linear=0
shrinkage=0.1


Tree=17
num_leaves=31
num_cat=0
split_feature=9 24 66 1 8 1 42 12 41 63 38 33 66 11 40 44 6 59 8 65 58 53 72 63 1 13 73 48 30 16
split_gain=28.7648 22.7508 16.978 16.0801 19.1859 15.8925 14.7407 16.5963 12.6815 12.4038 11.937 11.925 11.7831 11.8867 19.2951 11.3535 17.087 11.323 10.9955 10.9268 11.5905 16.1992 10.8892 12.889 10.6979 10.7669 25.4571 10.6512 15.4141 14.0913
threshold=117.50000000000001 49.500000000000007 143.50000000000003 55.500000000000007 99.500000000000014 44.500000000000007 97.500000000000014 171.50000000000003 99.500000000000014 4.5499999523162851 7.4500000476837167 1.2849999666213991 133.50000000000003 139.50000000000003 9.3071427345275897 66.500000000000014 80.849151611328139 161.50000000000003 82.500000000000014 121.50000000000001 85.841667175292983 7.8500001430511483 3.2050000429153447 4.4500000476837167 68.500000000000014 98.80322647094728 7.0920002460479745 13.84999990463257 0.45000000298023229 79.595455169677749
decision_type=10 10 10 2 10 2 10 8 10 10 10 10 8 8 10 8 10 8 10 8 10 8 8 10 2 10 10 10 8 8
left_child=1 24 3 22 12 17 19 9 -4 -8 -10 -11 -5 15 -15 16 -14 -2 -9 -7 21 -21 23 -3 -1 26 -26 -17 29 -29
right_child=5 2 8 4 -6 6 7 18 10 11 -12 -13 13 14 -16 27 -18 -19 -20 20 -22 -23 -24 -25 25 -27 -28 28 -30 -31
leaf_value=-0.065600698712950212 0.022039200071923934 0.001042018303485047 0.18381846540855371 0.049684730373515035 0.39405357632313243 -0.12255527694902862 -0.012579879420615628 0.095853890729870439 0.11871967009138945 0.030511647078172655 0.010862691693526867 0.2165928678978408 0.030181456480594965 0.034898054727580737 0.45589753878744665 -0.024152030969671036 0.37935399559772542 -0.05062510625584371 0.007431278274908389 0.29420757804642034 -0.0032037838784495297 0.09768982776502598 -0.049157742618639838 0.40568608630257741 0.31130986709887543 -0.027991747293786791 -0.080319729476998558 0.036355942486042417 -0.040357469828080694 0.22952022440611725
leaf_weight=104.25954743102193 39.375906940549612 2.5657411161810155 5.5034207738935939 39.451238779351115 1.2328117359429587 2.1267382279038456 112.78361077792943 43.707269189879298 12.058771783486007 76.397041965276003 68.836441354826093 3.6065130308270446 7.1456831749528629 5.1016126554459325 1.3839621264487503 215.54317983239889 1.7434033341705797 47.090842638164759 20.73522237688303 5.5913718417286935 6.6930164135992518 16.79126314073801 111.49564167112112 1.1355776619166134 3.1500596199184647 71.557298600673676 3.5084739588201046 10.823501940816646 13.408009346574543 5.8004688229411832
leaf_count=3654 432 40 50 462 8 20 1579 473 104 728 791 20 96 81 20 3855 21 934 239 36 54 184 2405 17 41 1893 73 177 339 104
internal_value=0 -0.0143799 -0.00341133 -0.0117738 0.000364144 0.0200695 0.0313426 0.0234691 0.0369334 0.00878347 0.0269406 0.0389001 -0.00125151 -0.00895222 0.124735 -0.0123595 0.0986641 -0.0175347 0.0674027 0.0962514 0.112256 0.146782 -0.0435559 0.125188 -0.0446289 -0.016674 0.104955 -0.0163783 0.039415 0.103755
internal_weight=0 685.705 503.229 416.831 301.634 374.899 288.432 257.23 86.3986 192.787 80.8952 80.0036 300.401 260.95 6.48557 254.464 8.88909 86.4667 64.4425 31.2024 29.0757 22.3826 115.197 3.70132 182.475 78.2158 6.65853 245.575 30.032 16.624
internal_count=18930 14231 8570 7625 5163 4699 3333 3039 945 2327 895 748 5155 4693 101 4592 117 1366 712 294 274 220 2462 57 5661 2007 114 4475 620 281
is_linear=0
shrinkage=0.1


Tree=18
num_leaves=31
num_cat=0
split_feature=11 73 59 22 18 24 63 11 42 19 54 55 69 8 39 14 61 66 52 48 25 6 12 45 42 13 41 11 59 17
split_gain=25.6164 30.7839 20.7963 15.8378 15.0041 13.8097 14.6568 13.8432 13.6538 13.4183 11.533 13.9095 12.7636 11.7479 16.6168 11.3332 13.6191 11.2503 12.8843 11.1975 10.6907 17.5558 10.0614 12.2849 10.0429 14.62 22.396 11.7347 20.2595 11.1012
threshold=88.500000000000014 14.190000057220461 53.500000000000007 2.9499999284744267 38.80555725097657 50.500000000000007 4.5499999523162851 42.500000000000007 117.50000000000001 35.880952835083015 6.2500000000000009 22.150000572204593 5.7500000000000009 59.500000000000007 8.7500000000000018 62.500000000000007 264.75000000000006 152.50000000000003 10.024999618530275 11.449999809265138 450.00000000000006 87.425800323486342 171.50000000000003 169.50000000000003 98.500000000000014 126.2390480041504 97.500000000000014 150.50000000000003 240.50000000000003 37.750000000000007
decision_type=10 10 10 8 10 8 8 8 10 10 8 10 10 10 10 8 10 10 10 10 10 8 8 10 8 10 10 10 10 10
left_child=2 3 4 8 -1 -4 7 -7 10 15 12 20 -2 14 -14 -3 -17 18 -10 -16 -12 -22 -9 -24 25 26 -5 29 -29 -26
right_child=1 9 5 24 -6 6 -8 22 17 -11 11 -13 13 -15 19 16 -18 -19 -20 -21 21 -23 23 -25 27 -27 -28 28 -30 -31
leaf_value=0.087817580275812324 -0.048484393899097616 0.049522820418532371 -0.064885359104540727 0.046563477571656478 -0.085101065407746562 0.20538442672853591 0.036796468657821511 -0.018024394829657751 0.28437705649154116 0.011051758139497415 -0.036457272192803605 0.31754018639458637 0.026187975225039073 0.030492992689376358 0.15406503609982877 0.31654264818588984 0.0054221619452680626 -0.076439535723313523 -0.00046114419979699023 0.50566866962162649 -0.066244610729128905 0.34753219984380168 -0.016475763613052804 0.10915932268526321 -0.054069846837301372 -0.045126700736676136 0.46457399284538525 -0.063100523601047398 0.46332383880772449 0.36698846316158035
leaf_weight=53.713943105190992 15.906932916492222 15.345549097284676 24.380715498700738 7.8354165554046649 5.5350362211465827 3.0848228335380545 147.95817202888429 163.93463591486216 4.2478435896337015 141.5009603947401 128.06965514272451 1.1526247039437283 3.8664917405694714 30.122908169403672 1.8722257502377035 4.0866830553859463 2.14573610201478 2.3389190398156643 2.5361964479088783 1.7546493262052534 2.1930904872715464 1.9258163832128046 16.182117950171236 14.995293941348789 236.56726704724133 14.597379231825469 1.5324009358882902 1.8580467179417604 1.2053011599928138 0.62782321311533351
leaf_count=465 209 137 373 189 56 21 1610 2655 34 2081 2217 13 43 372 24 35 22 22 29 17 29 18 250 129 7359 411 31 50 17 12
internal_value=0 -0.0150801 0.0166534 -0.0283094 0.0716635 0.00785728 0.0129808 -0.00479818 -0.00676961 0.0222532 -0.0126016 -0.0283413 0.0266103 0.0583659 0.170414 0.0957087 0.209428 0.112686 0.177891 0.324168 -0.0313572 0.127219 -0.00812128 0.0439505 -0.0442864 0.0174431 0.114942 -0.0504438 0.144026 -0.0529554
internal_weight=0 623.29 429.785 460.211 59.249 370.536 346.155 198.197 195.987 163.079 186.864 133.341 53.5232 37.6163 7.49337 21.578 6.23242 9.12296 6.78404 3.62688 132.189 4.11891 195.112 31.1774 264.224 23.9652 9.36782 240.258 3.06335 237.195
internal_count=18930 13371 5559 11096 521 5038 4665 3055 3027 2275 2942 2277 665 456 84 194 57 85 63 41 2264 47 3034 379 8069 631 220 7438 67 7371
is_linear=0
shrinkage=0.1


Tree=19
num_leaves=31
num_cat=0
split_feature=9 19 1 71 23 35 14 6 9 17 48 6 44 2 4 46 46 25 1 11 38 9 70 26 40 32 42 3 9 42
split_gain=23.6844 21.6875 18.5768 14.4978 14.1634 13.1283 12.7528 11.7749 12.769 11.7552 18.1868 11.1713 10.7887 11.2068 10.7616 13.574 13.0547 10.0879 11.8381 9.91454 12.1062 23.8377 9.77882 9.72783 9.50487 9.47595 9.3638 9.10674 9.08129 11.6653
threshold=96.500000000000014 36.270833969116218 68.500000000000014 18.414999961853031 117.50000000000001 12.84999990463257 39.500000000000007 64.831550598144545 167.50000000000003 37.250000000000007 14.550000190734865 84.572299957275405 207.50000000000003 22.382942199707035 31.868304252624515 126.08333206176759 150.0909118652344 63.083333969116218 68.500000000000014 96.500000000000014 8.7500000000000018 115.50000000000001 4.7916665077209482 50.500000000000007 7.1499998569488534 0.34499999880790716 102.50000000000001 21.168950080871586 125.50000000000001 100.50000000000001
decision_type=10 10 2 8 10 10 10 8 8 8 10 10 10 8 8 10 10 8 2 8 10 10 10 10 8 8 8 8 10 10
left_child=4 3 5 6 12 9 -2 25 27 28 -11 -8 -1 -14 15 26 -17 -16 19 20 23 -22 -6 -19 -24 -4 -13 -9 -3 -30
right_child=1 2 7 -5 22 -7 11 8 -10 10 -12 14 13 -15 17 16 -18 18 -20 -21 21 -23 24 -25 -26 -27 -28 -29 29 -31
leaf_value=-0.041839167579240381 0.073765121167228401 -0.038260578346568597 0.24744493913324722 0.082501656676410393 0.14903192033832066 0.087965971650242891 -0.0051244069601376601 0.2542134517037975 0.22692933767271498 0.015146588826726074 0.2985819303505774 0.15494205484821913 0.36411236516942114 0.022929929119342704 -0.11314376137023779 0.44620393553496573 0.14043733565742242 -0.07028870290242728 -0.065848007031959421 -0.032908768037823263 0.75981921296841026 0.068314401257143831 0.24185383140240871 0.20121901888079644 -0.0019921497260871283 -0.032902131258495115 -0.11392261233930019 0.031407020371833447 0.055055596969130177 -0.020208334403675737
leaf_weight=227.92892976664007 36.38613853789866 197.4785268381238 1.2474754489958284 46.205500721931458 5.0573297236114731 11.476740360260008 128.32656319625676 1.8668638318777073 3.5924470424652091 14.054479416459801 2.6985231786966315 2.4689792618155462 1.0380606800317735 13.267260279506445 4.6433189194649485 1.9613855425268409 4.8468122221529484 2.0884469412267217 5.4971891809254876 3.2289348226040611 0.9248074255883697 1.0814681611955164 1.6418139077723015 3.5846863575279713 60.604157200083137 35.982957761734724 2.7250144332647324 105.67628616839647 26.629128839820623 90.851763308048248
leaf_count=5904 314 4428 12 395 38 71 2019 24 33 203 24 28 16 241 71 28 50 43 75 72 26 17 18 23 895 564 61 1629 297 1311
internal_value=0 0.00769533 -0.00440194 0.0320692 -0.0252768 -0.017184 0.0202862 0.0251645 0.04147 -0.020822 0.0608015 0.00822815 -0.0365521 0.0476877 0.0600718 0.135639 0.228526 0.0169832 0.0538135 0.114116 0.175935 0.387069 0.0153046 0.101269 0.00443959 -0.0235086 0.013883 0.0352748 -0.0251636 -0.00314843
internal_weight=0 735.524 491.555 243.969 309.538 343.189 197.764 148.366 111.136 331.712 16.753 161.378 242.234 14.3053 33.051 12.0022 6.8082 21.0489 16.4055 10.9083 7.67941 2.00628 67.3033 5.67313 62.246 37.2304 5.19399 107.543 314.959 117.481
internal_count=18930 11818 8596 3222 7112 6334 2827 2262 1686 6263 227 2513 6161 257 494 167 78 327 256 181 109 43 951 66 913 576 89 1653 6036 1608
is_linear=0
shrinkage=0.1


Tree=20
num_leaves=31
num_cat=0
split_feature=66 41 37 1 54 57 9 17 12 16 33 13 64 32 5 26 15 13 1 59 18 49 5 1 44 12 26 2 49 44
split_gain=21.8997 22.4214 17.3081 16.9441 17.1823 16.874 14.3069 14.3332 12.9817 12.4811 11.9252 11.8117 14.3221 10.8526 10.7768 10.0936 9.773 11.9534 9.7162 14.8365 11.4904 10.6241 10.6161 9.70792 9.66692 9.55399 10.3838 9.69878 9.53871 12.8243
threshold=143.50000000000003 104.50000000000001 0.61000001430511486 50.500000000000007 22.44999980926514 76.250000000000014 91.500000000000014 37.472223281860359 198.50000000000003 86.766197204589858 0.37500000000000006 96.819805145263686 4.7999999523162851 0.36500000953674322 90.708850860595717 103.50000000000001 169.50000000000003 126.2390480041504 77.500000000000014 91.500000000000014 37.805555343627937 9.1549997329711932 82.249202728271499 81.500000000000014 246.50000000000003 114.50000000000001 88.500000000000014 18.727096557617191 9.1549997329711932 139.50000000000003
decision_type=10 10 10 2 10 8 10 10 10 10 8 8 10 8 8 10 10 10 2 10 10 10 8 2 10 8 8 8 10 10
left_child=1 3 18 4 16 15 24 10 11 -10 -8 -4 -13 -7 -9 -2 17 -1 -3 22 -21 -22 -20 -23 25 26 -5 -27 -12 -30
right_child=5 2 8 6 -6 13 7 14 9 -11 28 12 -14 -15 -16 -17 -18 -19 19 20 21 23 -24 -25 -26 27 -28 -29 29 -31
leaf_value=-0.012240657173035727 -0.069229868470917 -0.059783887848276367 0.068483255656051262 -0.036872301808864485 0.29207496829417207 0.15250640154070791 -0.082162697286328495 0.047147604537606795 0.23848110607706174 -0.10837608189916037 0.050423453117651229 -0.034111815104333205 0.064485431728084339 0.035928761653661177 0.3573332369444846 0.089415028501448376 0.23206732178894654 -0.076676566830228735 0.0085550067709215267 -0.04689557806476008 -0.11058274063866508 0.45244233259113548 0.35968147906213227 0.078128939961145116 0.11869380339649321 0.12073180805936928 0.24496635503904313 -0.044670054540618842 -0.006433018348722429 0.049387858826282161
leaf_weight=86.810517080128193 23.284706566482786 153.74632828310132 17.258658183738589 2.6413576491177073 1.6693987548351277 8.4449739791452867 10.53847713023424 2.2361558470875016 4.0191365480422965 1.3983596786856649 103.52703570760787 102.86907768249512 17.195213496685028 146.76746496930718 2.2441415786743164 4.8449290841817847 1.3995022475719441 43.074799368157983 1.6167980283498757 26.541863653808836 1.2361971456557501 1.226765211671591 1.8421595171093939 1.592083867639303 4.7226089369505635 3.719239240512251 2.5881292000412941 75.745039936155081 121.53438008762896 62.230374041944742
leaf_count=1480 379 4526 181 45 16 53 173 23 49 30 1347 1955 173 1549 19 30 18 1175 31 663 25 19 19 33 75 61 28 1784 2058 913
internal_value=0 -0.00872943 -0.0291292 0.00412217 -0.0267241 0.0293566 0.0145915 0.0249851 -0.00288175 0.148951 0.0223144 -0.00887165 -0.019991 0.0422716 0.202517 -0.0419055 -0.0307779 -0.03361 -0.0490788 -0.000750161 -0.0229425 0.13384 0.195557 0.24103 -0.0205482 -0.0283125 0.102613 -0.0369286 0.0261469 0.0124702
internal_weight=0 855.224 330.543 524.681 132.954 183.342 391.727 302.311 142.74 5.4175 297.83 137.323 120.064 155.212 4.4803 28.1296 131.285 129.885 187.802 34.0559 30.5969 4.05505 3.45896 2.81885 89.4164 84.6938 5.22949 79.4643 287.292 183.765
internal_count=18930 16919 7704 9215 2689 2011 6526 4533 2388 79 4491 2309 2128 1602 42 409 2673 2655 5316 790 740 77 50 52 1993 1918 73 1845 4318 2971
is_linear=0
shrinkage=0.1


Tree=21
num_leaves=31
num_cat=0
split_feature=8 24 14 16 31 44 44 23 66 58 69 65 73 14 19 67 14 42 15 18 12 16 66 48 14 61 66 19 6 50
split_gain=20.2162 18.8204 14.9336 14.6185 13.4911 15.881 13.0829 13.7404 12.3156 12.2603 18.5211 13.9106 13.0076 11.7547 11.0385 10.9101 10.8369 10.0281 10.6775 10.4538 10.9643 13.4519 10.8967 10.4631 9.9419 9.73184 9.33865 10.4467 11.3978 9.3304
threshold=15.500000000000002 71.500000000000014 49.500000000000007 65.462913513183608 0.23666667938232425 68.500000000000014 119.50000000000001 211.50000000000003 139.50000000000003 82.058334350585952 6.6499998569488534 135.50000000000003 10.482499599456789 27.500000000000004 36.333333969116218 143.07142639160159 52.500000000000007 98.500000000000014 73.500000000000014 37.805555343627937 157.50000000000003 86.282855987548842 141.50000000000003 12.650000095367433 49.500000000000007 103.12500000000001 135.50000000000003 36.84558296203614 101.04899978637697 4.3500001430511483
decision_type=8 10 8 10 8 8 10 10 10 8 10 10 10 10 8 10 8 8 8 8 8 8 10 10 10 8 10 10 10 10
left_child=-1 2 3 13 -3 29 7 -7 26 -10 14 -12 -13 -2 -11 -9 24 18 -4 -19 21 -21 -22 -24 -14 -5 27 28 -8 -6
right_child=1 4 17 25 5 6 8 15 9 10 11 12 16 -15 -16 -17 -18 19 -20 20 22 -23 23 -25 -26 -27 -28 -29 -30 -31
leaf_value=0.098913247305070312 0.15122545586496872 0.027113663140927342 0.35182072486625759 0.15573856863906038 0.12004945904939286 -0.036705514966275367 0.033315365965734603 0.01118244691565354 -0.021624401161646087 0.084638442235842881 0.33429778254359971 -0.03939528315664103 0.14921449147748048 -0.027277937629294847 -0.030612388037315277 0.18077401869369833 0.10148335081199311 -0.052049445370053793 0.016537714215026117 -0.065023245512207506 -0.0029372079614231358 0.26504116802904765 0.049463811553030937 0.28012464289823175 0.48695058573865685 0.029535174037399272 -0.043065143164338064 -0.071348499735149881 0.2802046527785349 0.0055812764217898249
leaf_weight=19.498742379248142 3.8518746588379136 216.10738617554307 1.0040268581360603 7.0501285251229993 15.617504181340339 178.08896018750966 30.095608623698354 27.282029284164313 21.986144507303834 15.122187316417692 3.1794480998069075 4.504111152142289 1.851386114954946 87.284864772111177 18.449029941111803 4.4059476703405371 9.215052954852581 185.36520118825138 17.596190460026264 21.200280934572223 12.668468819931151 1.311139192432164 4.7172001078724843 3.3726411238312721 1.6469390094280241 45.828702481463552 48.643737256526947 9.3730918280780298 1.9937705062329758 13.088612392544745
leaf_count=103 42 2355 14 82 141 3330 349 323 351 136 27 110 23 1877 224 30 100 5765 465 523 303 32 69 42 18 990 810 128 22 146
internal_value=0 -0.00388634 -0.0210631 0.00453483 0.00694169 -0.00383419 -0.00930993 -0.0259098 0.01166 0.0413217 0.0669654 0.142122 0.106634 -0.0197335 0.0213025 0.0347627 0.158369 -0.035974 0.0346361 -0.0417184 0.00253931 -0.0457992 0.0549602 0.145626 0.308214 0.0463614 -0.0133431 0.0215268 0.048655 0.0678575
internal_weight=0 1011.9 391.251 144.016 620.651 404.544 375.837 209.777 166.061 75.9543 53.9682 20.3969 17.2175 91.1367 33.5712 31.688 12.7134 247.235 18.6002 228.635 43.2697 22.5114 20.7583 8.08984 3.49833 52.8788 90.1062 41.4625 32.0894 28.7061
internal_count=18930 18827 10204 2991 8623 6268 5981 3683 2298 989 638 278 251 1919 360 353 141 7213 479 6734 969 555 414 111 41 1072 1309 499 371 287
is_linear=0
shrinkage=0.1


Tree=22
num_leaves=31
num_cat=0
split_feature=59 46 8 41 71 8 71 26 14 67 19 17 64 45 12 44 49 8 63 37 60 1 61 67 17 11 17 27 44 15
split_gain=16.6579 20.2013 19.0703 14.5637 17.8186 14.4041 13.1607 12.9725 10.7664 13.7767 10.7307 11.4412 10.5854 11.5018 10.5308 10.4839 13.4825 10.4111 10.1922 10.7047 10.0154 9.42419 10.623 9.4331 9.16602 9.17608 9.10934 9.07108 10.763 9.76005
threshold=81.500000000000014 160.08333587646487 48.500000000000007 99.500000000000014 0.99000000953674328 98.500000000000014 11.545000076293947 93.500000000000014 26.500000000000004 139.84523773193362 36.650793075561531 35.972221374511726 4.5916666984558114 174.50000000000003 201.50000000000003 66.500000000000014 8.0099997520446795 104.50000000000001 4.4500000476837167 1.4166667461395266 93.500000000000014 59.500000000000007 207.08333587646487 126.22499847412111 37.805555343627937 160.50000000000003 36.194442749023445 22.500000000000004 108.50000000000001 107.50000000000001
decision_type=8 10 10 10 8 10 10 10 8 10 8 10 10 8 10 10 8 10 10 10 10 2 8 8 10 10 8 8 10 8
left_child=20 3 12 5 -5 21 7 8 9 -6 11 17 13 -3 -8 16 -10 -7 -9 -20 26 22 -2 -23 25 -17 27 29 -29 -1
right_child=1 2 -4 4 6 10 14 18 15 -11 -12 -13 -14 -15 -16 24 -18 -19 19 -21 -22 23 -24 -25 -26 -27 -28 28 -30 -31
leaf_value=0.072156066061731389 0.011400588207504839 0.40789936304047897 0.0079242620277300193 0.37885562167017589 -0.077576024399188717 0.25110103339227496 -0.0098398380875493203 -0.028460665782137969 0.23991625066696867 0.29338903254206766 0.020412920478203405 0.36600435630686495 -0.0075030810192595462 0.12190155999034734 0.1181857748990881 -0.056747994737644962 -0.019719723414585669 -0.044438428586970696 0.010515187687002081 0.19225723092646266 0.077063579652207281 -0.096173788074507591 -0.077718156812041625 0.029596438979024926 0.22522872664831742 0.31210018630458786 -0.029432260546892387 0.056588011399497921 -0.022272749438376573 0.31335376395718983
leaf_weight=8.8833970222622121 26.51315064355731 1.5702751427888877 250.8564579859376 1.0828161686658848 1.9284820184111584 2.3332081399857971 156.12740123458207 17.95755873806775 2.7138304300606224 2.0818058401346207 7.6607517339289197 2.4494076482951641 5.7750646546483031 13.455700237303972 6.70066931284964 240.18247187696397 7.6042962726205596 2.4369083847850561 7.6961425766348821 5.5984217524528503 33.779294226318598 6.4543466139584771 26.992954961955547 78.410381082445383 1.1669437643140543 0.67636848613619704 32.762481927871704 37.091657103970647 32.445240939036012 2.0682679787278184
leaf_count=106 486 17 3892 10 32 22 2661 272 38 26 84 22 60 133 81 7131 156 21 85 41 313 123 726 1282 15 10 409 320 328 28
internal_value=0 -0.00709868 0.0155538 -0.017274 -0.0263148 0.00936243 -0.0272888 -0.0401502 -0.0475656 0.114998 0.102851 0.190327 0.107565 0.151789 -0.00457135 -0.0501491 0.0485686 0.100119 0.0206763 0.0870479 0.0292747 -0.000691245 -0.0335584 0.020031 -0.0543576 -0.0557122 0.0150207 0.0331151 0.0197923 0.117707
internal_weight=0 876.426 271.657 604.768 451.517 153.251 450.434 287.606 256.354 4.01029 14.8803 7.21952 20.801 15.026 162.828 252.344 10.3181 4.77012 31.2521 13.2946 147.03 138.371 53.5061 84.8647 242.026 240.859 113.251 80.4886 69.5369 10.9517
internal_count=18930 17426 4102 13324 10558 2766 10548 7806 7408 58 149 65 210 150 2742 7350 194 43 398 126 1504 2617 1212 1405 7156 7141 1191 782 648 134
is_linear=0
shrinkage=0.1


Tree=23
num_leaves=31
num_cat=0
split_feature=18 71 37 66 47 17 6 69 21 63 1 46 42 19 42 8 56 19 14 14 54 8 11 59 38 18 41 26 46 20
split_gain=15.5713 17.5655 16.7508 13.8433 13.491 11.8535 18.5842 10.198 10.0826 11.516 9.85686 13.5978 9.84732 9.4116 12.1389 8.82952 9.04296 10.8973 14.5164 9.46007 8.51029 8.43241 8.42624 8.33901 10.3596 8.3325 8.17341 7.88061 7.69628 7.62117
threshold=36.638889312744148 18.414999961853031 0.43333333730697637 142.50000000000003 6.7500000000000009 37.250000000000007 87.904048919677749 7.0499999523162851 3.6499999761581425 3.7500000000000004 52.500000000000007 65.250000000000014 117.50000000000001 36.073360443115241 98.500000000000014 10.500000000000002 89.049999237060561 35.75396919250489 67.500000000000014 29.500000000000004 28.450000762939457 86.500000000000014 42.500000000000007 78.500000000000014 8.9499998092651385 36.027778625488288 103.50000000000001 55.500000000000007 146.92857360839847 3.1499999761581425
decision_type=10 10 10 10 8 10 8 8 8 8 2 8 10 10 8 8 10 8 10 8 10 8 10 8 8 10 8 10 10 8
left_child=1 4 10 5 7 20 -7 -1 13 -10 -2 -12 15 -3 -15 -6 19 26 -19 -17 29 -8 -5 24 27 -14 -18 -24 -29 -4
right_child=2 8 3 22 12 6 21 -9 9 -11 11 -13 25 14 -16 16 17 18 -20 -21 -22 -23 23 -25 -26 -27 -28 28 -30 -31
leaf_value=0.12497263488447603 -0.060406012669059754 0.027947627066099941 -0.0055053599403489155 0.1808153372897621 0.12614810094752374 -0.054625656384037484 0.23840716357857974 -0.094308589533929565 0.45601886609035414 0.10300218800843425 0.3265639374611794 -0.019528551046360774 0.19677749091652777 0.32419442997302422 0.077938984960491953 0.10210472970743119 0.057023795923867165 -0.028823000831671844 0.31272189523299637 -0.01707809837049714 0.15802452565071889 0.037120416096219286 -0.011767040833550849 0.01299545668363522 0.25051623146491026 0.017335512582301305 0.29208581418126467 0.17786479341423905 0.00052319177971000966 -0.04254203042279843
leaf_weight=14.874272464774551 74.716599244624376 21.492610264569525 283.0135238096118 3.697271028533577 5.1908284118399015 6.2721372414380285 6.0053055249154559 2.4735426530241957 1.4749219715595239 2.4743068255484104 1.1422493942081917 184.81850318983197 4.6368922367691976 2.7503175437450382 7.3544684126973161 6.9184915944933882 3.010734740644696 11.407471882179378 1.3967795688658942 178.17656648345292 2.9415609426796427 3.1850742548704156 9.5182616841048056 86.208593357354403 3.1052334979176512 5.8558269217610359 2.9080049358308315 6.7542170286178571 3.8375372253358364 69.130747003480792
leaf_count=124 2465 130 3680 20 29 76 59 44 16 40 24 4817 22 17 57 60 25 149 24 3632 20 38 84 1012 21 58 22 42 29 2094
internal_value=0 0.0186489 -0.00929452 0.00171853 0.00881123 -0.00762895 0.0780804 0.0937064 0.084198 0.234844 -0.0297285 -0.0174027 0.00210173 0.0653695 0.144965 -0.00264399 -0.00592406 0.0603043 0.00843517 -0.0126233 -0.0113612 0.168648 0.0323379 0.0273211 0.0805184 0.0966337 0.172515 0.0542686 0.113612 -0.0127762
internal_weight=0 272.396 744.347 483.669 236.849 370.548 15.4625 17.3478 35.5466 3.94923 260.677 185.961 219.502 31.5974 10.1048 209.009 203.818 18.723 12.8043 185.095 355.086 9.19038 113.121 109.424 23.2152 10.4927 5.91874 20.11 10.5918 352.144
internal_count=18930 4449 14481 7175 4189 5967 173 168 260 56 7306 4841 4021 204 74 3941 3912 220 173 3692 5794 97 1208 1188 176 80 47 155 71 5774
is_linear=0
shrinkage=0.1


Tree=24
num_leaves=31
num_cat=0
split_feature=9 1 8 66 53 26 38 29 20 59 9 56 58 19 16 44 36 49 71 58 42 47 50 17 43 5 18 39 66 9
split_gain=14.8222 16.6612 16.5843 16.0502 11.6624 10.9811 10.8378 10.6644 10.158 10.6345 9.85786 9.67635 10.023 9.39944 11.8422 8.98471 11.1048 8.93118 8.58291 8.09791 9.12636 11.279 10.6151 10.8904 10.608 9.80418 9.60516 9.57241 10.4677 8.59879
threshold=92.500000000000014 52.500000000000007 48.500000000000007 149.50000000000003 8.0500001907348651 39.500000000000007 10.550000190734865 0.15000000223517421 1.9499999880790713 425.50000000000006 123.50000000000001 83.750000000000014 84.012500762939467 37.133333206176765 72.155048370361342 216.50000000000003 0.35000000894069677 9.5999999046325701 1.9650000333786013 70.812500000000014 102.50000000000001 13.050000190734865 1.8499999642372134 34.416666030883796 117.77500152587892 108.92600250244142 36.749998092651374 9.5500001907348651 140.50000000000003 190.50000000000003
decision_type=10 2 8 10 10 10 10 8 8 8 10 8 8 8 10 10 8 10 8 8 10 10 8 8 10 10 10 10 10 8
left_child=5 3 4 6 7 15 10 -3 9 -4 -2 12 13 14 17 -1 -17 -12 -16 -10 -21 24 -23 -24 25 29 -26 28 -25 -22
right_child=1 2 8 -5 -6 -7 -8 -9 19 -11 11 -13 -14 -15 18 16 -18 -19 -20 20 21 22 23 27 26 -27 -28 -29 -30 -31
leaf_value=-0.045158151392919746 -0.04565300343065945 -0.032883239932475147 0.043543675900136219 0.094475387654621185 -0.063335746939129509 0.0088135069475312033 0.25737757185400528 0.13271268694996546 -0.039736165826886521 -0.089878398927657255 0.050958692952930873 -0.030225286901979821 0.25194035037011825 -0.052936804199227284 0.35959026773454134 0.3644611891094709 0.017610605023160471 0.22128210197218665 -0.028278337960787703 0.030474907869961446 -0.02014199818281014 0.37688345419405644 0.24389357439348647 -0.012083602198123466 0.26954853174450077 0.252996237527431 0.027290877300255523 -0.066071867090084155 0.10640700469036078 0.20393707887965623
leaf_weight=145.65601222123951 118.79935174714774 4.6362058203667429 107.01382296346128 11.889985699206589 4.7353795990347853 68.587644379585981 1.3507365146651853 24.129241015762091 41.223200997337699 6.3271451294422141 6.874261552467944 50.796279668807983 2.0420924071222535 10.987946996465324 0.59873129613697251 1.0505887232720823 7.6033667232841262 5.5757661703974009 12.104852778837085 114.69391515105963 209.24698431044817 0.93619551323354144 2.3834087029099456 14.001933960244061 2.393097670748829 1.3404429852962483 5.1774739343672991 9.1064727716147882 15.946744225919245 1.7266466375440348
leaf_count=4557 3196 37 806 88 68 881 24 234 969 62 68 789 20 166 3 17 153 57 213 1781 3855 7 20 336 18 19 55 202 215 14
internal_value=0 0.00473678 0.0138425 -0.0185412 0.0820841 -0.0244788 -0.0249668 0.106023 0.00954135 0.0360955 -0.0268022 -0.00163408 0.0364012 0.0242227 0.0579286 -0.0392765 0.0597182 0.127238 -0.00999774 0.00234421 0.00694608 -0.00334379 0.0438965 0.0363736 -0.0124476 -0.0165952 0.10387 0.0237093 0.051009 -0.0183081
internal_weight=0 786.038 565.018 221.02 33.5008 222.898 209.13 28.7654 531.517 113.341 207.779 88.9799 38.1837 36.1416 25.1536 154.31 8.65396 12.45 12.7036 418.177 376.953 262.259 42.3748 41.4386 219.885 212.314 7.57057 39.0552 29.9487 210.974
internal_count=18930 13322 8698 4624 339 5608 4536 271 8359 868 4512 1316 527 507 341 4727 170 125 216 7491 6522 4741 780 773 3961 3888 73 753 551 3869
is_linear=0
shrinkage=0.1


Tree=25
num_leaves=31
num_cat=0
split_feature=73 55 11 16 8 44 17 2 57 56 48 4 54 37 66 46 52 41 72 71 64 41 13 9 14 36 59 44 15 13
split_gain=12.4071 14.2172 12.8086 12.0191 9.74899 9.74858 9.67818 11.286 9.17658 10.9974 9.0786 9.9486 9.09244 8.55852 8.7081 10.3572 9.70228 9.68837 8.65951 8.36125 9.24853 8.26589 11.0871 11.7033 11.704 10.6349 9.05787 8.71136 8.97365 12.6096
threshold=11.420000553131105 5.1000001430511483 81.500000000000014 47.516666412353523 30.500000000000004 393.50000000000006 36.083333969116218 25.458870887756351 93.750000000000014 93.149997711181655 11.050000190734865 26.093732833862308 9.1500000953674334 39.225000381469734 139.50000000000003 81.099998474121108 10.516666889190676 106.50000000000001 50.734998703002937 11.855000019073488 4.6333334445953378 98.500000000000014 129.72902679443362 135.50000000000003 62.500000000000007 1.9499999880790713 165.50000000000003 119.50000000000001 137.50000000000003 137.6820983886719
decision_type=10 8 8 10 8 10 8 10 10 8 8 8 10 10 8 8 10 8 8 8 10 8 8 8 10 10 10 10 10 10
left_child=1 8 3 -3 -2 21 7 -5 9 -1 11 -9 -12 14 15 19 18 -17 -16 -6 -21 22 23 25 -25 -4 -23 -28 -29 -30
right_child=4 2 5 6 13 -7 -8 10 -10 -11 12 -13 -14 -15 16 17 -18 -19 -20 20 -22 26 -24 24 -26 -27 27 28 29 -31
leaf_value=0.029843075936456839 0.10557425541460071 0.20560569442200505 0.047182550176081195 0.0023875351958661528 0.26812236311832538 0.24030316455876927 -0.036224496243619918 0.2680214179336684 -0.063998960949988498 0.30760222346932869 0.12194151235684572 0.0046009628160237764 0.3979166615545322 0.24942919594563989 0.027372396759363333 -0.0033561539487187335 -0.031955608381621377 -0.068202875447092998 0.19846863510011037 -0.020712140070589444 0.18014553909778799 -0.019782400217141498 -0.051819035347597721 0.070059086319457509 0.3722432755113565 -0.076949736721805703 -0.076474548090289252 -0.03484982232168634 0.46474974198043811 0.019031873634828139
leaf_weight=81.514914765022695 10.51490259170532 3.0494554825127116 24.02673146314919 52.60206232406199 2.0388976968824837 1.3366117496043433 38.282586798071861 1.6636163443326957 10.626612298190592 1.4508241415023793 5.1032132469117633 10.374684592708945 1.558387955650687 1.465601548552512 184.9302766956389 194.15819150023162 29.08541258610785 26.14167383313179 3.0061818622052661 6.8533657267689705 3.4446534924209118 135.56729634106159 23.818530909717083 4.1737873628735533 1.8497443068772552 9.6834217812865955 82.712660464458168 47.117340681143105 0.86164719890803043 2.4100459599867463
leaf_count=1179 65 24 524 746 24 16 675 15 198 18 74 140 24 7 2359 2755 468 534 21 79 25 3455 635 39 23 121 3130 1468 16 73
internal_value=0 -0.0119416 -0.0193745 0.00978237 0.0103881 -0.02922 0.00433311 0.0261088 0.0234938 0.0347003 0.0928358 0.041004 0.186502 0.00816946 0.00738311 -0.00605793 0.0217912 -0.0110511 0.0301092 0.0831055 0.0464741 -0.0303044 0.00212768 0.0344663 0.162856 0.0115249 -0.037976 -0.0565066 -0.0237296 0.136418
internal_weight=0 539.784 446.192 112.634 461.639 333.558 109.585 71.302 93.5924 82.9657 18.6999 12.0383 6.6616 451.124 449.659 232.637 217.022 220.3 187.936 12.3369 10.298 332.221 63.5522 39.7337 6.02353 33.7102 268.669 133.102 50.389 3.27169
internal_count=18930 12593 11198 1698 6337 9500 1674 999 1395 1197 253 155 98 6272 6265 3417 2848 3289 2380 128 104 9484 1342 707 62 645 8142 4687 1557 89
is_linear=0
shrinkage=0.1


Tree=26
num_leaves=31
num_cat=0
split_feature=1 59 24 14 72 15 21 8 9 67 50 38 50 41 64 12 42 64 42 37 13 66 70 15 18 73 44 49 40 2
split_gain=12.1168 15.5298 13.5373 12.6285 12.2439 11.1881 11.151 10.6475 10.6506 10.446 9.65991 9.53312 9.11669 9.0579 10.7411 13.8116 9.7706 8.81763 9.97763 9.59656 8.4974 9.30565 8.48005 19.7541 8.42619 8.91539 8.28772 12.1653 8.21675 7.85507
threshold=55.500000000000007 161.50000000000003 201.50000000000003 79.500000000000014 9.3949999809265154 169.50000000000003 0.94999998807907116 37.500000000000007 92.500000000000014 144.22499847412112 11.250000000000002 5.6499998569488534 7.9500000476837167 104.50000000000001 4.7071430683135995 198.50000000000003 110.50000000000001 4.8250000476837167 106.50000000000001 0.80833333730697643 116.00893020629884 151.50000000000003 7.0125000476837167 93.500000000000014 36.916666030883796 15.219999790191652 246.50000000000003 12.012499809265138 9.6416668891906756 20.393303871154789
decision_type=2 8 10 10 10 10 8 8 8 10 8 8 10 10 10 10 10 10 10 10 10 10 10 10 8 10 10 8 10 8
left_child=1 2 9 7 -5 6 -3 -2 26 12 20 -10 -1 16 15 -15 -13 18 -16 -19 -8 -22 28 -24 -6 -26 -9 -28 -14 -4
right_child=3 5 29 4 24 -7 10 8 11 -11 -12 13 22 14 17 -17 -18 19 -20 -21 21 -23 23 -25 25 -27 27 -29 -30 -31
leaf_value=-0.042369465681426924 0.069463123011324887 0.31581362213559494 -0.10560810722980041 -0.041717934097331537 0.28047553432550237 0.1819393447929758 0.019859006727632179 -0.02537192948048347 0.17364606826887485 0.080326318008574246 -0.063969456456612658 0.016744203299125741 -0.0096115708194959935 -0.024741732184125377 0.35012137021314099 0.088780928159218883 0.14302014142612965 -0.030402609865243853 0.07555647190238679 0.083236141196733782 -0.061089029169587264 0.18332732537203278 0.42486865838598348 -0.0063077630500824409 -0.06766993728467062 0.23021508371519347 -0.029779490143929416 0.24766101417238018 0.24239861139899729 0.093972831277542926
leaf_weight=59.716550409793854 23.867087130434811 0.86920489370822807 2.1697267778217819 3.7146683959290376 4.00767876114696 2.2730394583195439 34.905656547285616 155.8887609122321 3.4793174276128402 11.914186272770165 95.648583698086441 270.08824433479458 26.524137558415536 171.30741270445287 1.7022017613053311 11.432386396452783 6.2696939650923005 17.956255977973345 5.9497389569878578 12.678177680820225 33.596832690760493 1.6334420144557942 1.6613377314060915 2.948000879958272 2.0885513722896585 1.9360853843390939 3.647994637489318 2.7885974030941725 1.3601356111466874 21.642356982454658
leaf_count=1097 222 5 24 110 50 34 494 3973 32 96 3446 3846 464 3203 22 151 60 260 74 84 712 10 31 80 47 16 62 30 21 174
internal_value=0 -0.0185161 0.0077658 0.00559935 0.108408 -0.0384207 -0.0414262 0.00384156 0.00147995 -0.00778996 -0.0432992 0.00869438 -0.0191752 0.0075405 -0.00754924 -0.0176396 0.019609 0.0406119 0.136634 0.0166272 -0.01511 -0.0497567 0.0234511 0.149101 0.177837 0.0756302 -0.0207805 0.0904192 0.00268095 0.0757873
internal_weight=0 296.863 127.936 698.803 11.747 168.927 166.654 687.056 663.189 104.124 165.785 500.863 92.2102 497.384 221.026 182.74 276.358 38.2864 7.65194 30.6344 70.1359 35.2303 32.4936 4.60934 8.03232 4.02464 162.325 6.43659 27.8843 23.8121
internal_count=18930 6688 1987 12242 223 4701 4667 12019 11797 1789 4662 7732 1693 7700 3794 3354 3906 440 96 344 1216 722 596 111 113 63 4065 92 485 198
is_linear=0
shrinkage=0.1


Tree=27
num_leaves=31
num_cat=0
split_feature=18 1 47 61 49 14 9 72 47 13 69 21 62 2 62 54 72 73 33 41 66 6 1 53 44 42 64 26 48 38
split_gain=11.0308 12.9503 12.3644 15.8855 12.1653 13.6266 10.6704 10.6468 10.0745 10.2903 9.93649 9.43507 9.17168 8.89251 12.1239 9.04748 9.70608 8.9324 8.45832 9.2558 9.10087 9.44798 9.04129 8.4444 8.37574 8.06721 7.87287 9.09666 10.3359 13.3977
threshold=36.638889312744148 68.500000000000014 14.949999809265138 264.75000000000006 8.4928574562072772 39.500000000000007 123.50000000000001 17.654999732971195 13.050000190734865 106.88117599487306 4.9500000476837167 2.9500000476837163 3.5499999523162846 29.252914428710941 3.1499999761581425 7.4500000476837167 36.810001373291023 17.615000724792484 1.6449999809265139 99.500000000000014 139.50000000000003 60.149351119995124 88.500000000000014 9.4499998092651385 119.50000000000001 93.500000000000014 3.966666698455811 22.500000000000004 12.84999990463257 8.3499999046325701
decision_type=10 2 10 10 8 8 10 10 10 10 8 8 10 10 8 8 10 10 8 10 10 8 2 10 10 10 8 10 8 10
left_child=4 6 13 -4 10 23 7 11 -9 -10 -1 -2 -11 15 -15 17 -17 -3 20 24 21 -7 -21 -6 -20 -26 -16 -28 29 -29
right_child=1 2 3 -5 5 18 -8 8 9 12 -12 -13 -14 14 26 16 -18 -19 19 22 -22 -23 -24 -25 25 -27 27 28 -30 -31
leaf_value=0.13368326796924784 -0.018850509535852197 0.045129317477849151 0.060692969030107097 0.4465695080762177 0.04800475805685378 0.19782477549113234 0.0036384755014239401 -0.009088131888091348 0.28984462484499995 0.26962339655026019 0.034365680190281321 -0.057845570084665843 -0.0080544030510601074 0.24397871893299269 -0.031009308858877916 -0.021060160744042281 0.16587333366706963 -0.038791304852890666 -0.0098271902781729408 -0.033804432655066018 0.13774085019312937 -0.095128116542574942 0.097801759627032289 0.21677368700969604 -0.11680807445477832 0.10115669588899186 -0.0074652605580873962 0.048570188826302513 -0.082165164858211168 0.23757704490720144
leaf_weight=12.604108901694415 127.07674339041114 56.695497894659638 4.4173061531037083 1.4065604526549575 25.664430993609134 1.4485814440995444 151.81057120300829 50.341871041804552 2.2415034379810077 1.4769374579191206 50.17276917770505 121.25096028111875 6.1121454294770956 2.9202360846102229 13.105913417413829 134.57193914987147 2.8361366987228385 16.33825609087944 26.700208824127913 111.89293121173978 8.0226421970874053 4.5866006128489971 5.475532852113246 3.351931056007742 1.8969589862972522 16.194139571860433 11.29697003029287 7.8587031848728675 2.4646558463573447 7.173981174826622
leaf_count=91 2013 779 86 14 269 10 2018 688 20 19 632 5007 104 29 232 2856 20 145 457 2489 73 72 87 38 30 201 272 65 35 79
internal_value=0 -0.0079749 0.00981555 0.153889 0.0157841 0.00400099 -0.0180656 -0.028746 0.00899351 0.101589 0.0543063 -0.0378906 0.0459854 0.00652849 0.0469718 -0.00208523 -0.0172018 0.0263556 -0.00645501 -0.0129057 0.0679548 -0.0248127 -0.0276647 0.0675007 0.0257679 0.0783018 0.0332414 0.0624855 0.107649 0.138769
internal_weight=0 721.397 261.086 5.82387 268.011 205.234 460.311 308.5 60.1725 9.83059 62.7769 248.328 7.58908 255.262 44.8205 210.442 137.408 73.0338 176.218 162.16 14.0578 6.03518 117.368 29.0164 44.7913 18.0911 41.9002 28.7943 17.4973 15.0327
internal_count=18930 14481 4612 100 4449 3726 9869 7851 831 143 723 7020 123 4512 712 3800 2876 924 3419 3264 155 82 2576 307 688 231 683 451 179 144
is_linear=0
shrinkage=0.1


Tree=28
num_leaves=31
num_cat=0
split_feature=9 1 18 71 42 37 42 22 72 2 16 21 17 14 61 29 24 18 48 40 31 19 43 8 39 59 16 12 73 27
split_gain=9.87566 9.49936 9.12725 9.37252 11.1045 9.10579 8.85558 13.5809 16.1229 9.20081 8.69105 13.0829 12.7514 9.89787 8.66811 8.63489 7.70802 8.02343 10.5949 11.9211 7.51897 7.18035 9.09348 7.17915 10.0869 7.92243 7.17181 11.3575 9.9051 9.30246
threshold=96.500000000000014 61.500000000000007 36.638889312744148 18.414999961853031 120.50000000000001 0.43333333730697637 101.50000000000001 1.9000000357627871 12.784999847412111 31.611225128173832 70.281024932861342 2.8500000238418584 36.361112594604499 50.500000000000007 175.09999847412112 0.35000000894069677 71.500000000000014 37.750000000000007 9.6500000953674334 8.5999999046325701 0.17083333432674411 36.166666030883796 95.708332061767592 64.500000000000014 9.1500000953674334 103.50000000000001 85.81101226806642 154.50000000000003 9.9525003433227557 55.500000000000007
decision_type=10 2 10 8 10 10 8 8 10 10 10 8 10 8 8 8 10 10 10 10 8 8 8 10 8 8 10 8 10 10
left_child=1 -1 3 4 -2 -4 7 8 -3 16 11 -11 13 14 -13 -16 17 -8 19 -19 -18 23 -23 -5 25 -25 27 -7 -29 -30
right_child=2 6 5 21 -6 26 9 -9 -10 10 -12 12 -14 -15 15 -17 20 18 -20 -21 -22 22 -24 24 -26 -27 -28 28 29 -31
