tree
version=v4
num_class=1
num_tree_per_iteration=1
label_index=0
max_feature_idx=73
objective=binary sigmoid:1
feature_names=isfemale age min_bmi max_bmi avg_bmi min_weight_kg max_weight_kg avg_weight_kg min_pulse max_pulse avg_pulse min_sbp max_sbp avg_sbp min_dbp max_dbp avg_dbp min_temp_c max_temp_c avg_temp_c albumin_min albumin_max albumin_mean alkaline_phosphatase_min alkaline_phosphatase_max alkaline_phosphatase_mean ast_min ast_max ast_mean basophil_min basophil_max basophil_mean bilirubin_conjugated_min bilirubin_conjugated_max bilirubin_conjugated_mean bilirubin_total_min bilirubin_total_max bilirubin_total_mean calcium_min calcium_max calcium_mean chloride_min chloride_max chloride_mean glucose_serum_min glucose_serum_max glucose_serum_mean hemoglobin_min hemoglobin_max hemoglobin_mean lymphocyte_min lymphocyte_max lymphocyte_mean monocyte_min monocyte_max monocyte_mean neutrophil_min neutrophil_max neutrophil_mean platelet_count_min platelet_count_max platelet_count_mean potassium_min potassium_max potassium_mean sodium_min sodium_max sodium_mean total_protein_min total_protein_max total_protein_mean wbc_min wbc_max wbc_mean
feature_infos=[0:1] [18:123] [0.36294308304786682:3031.082763671875] [9.3761024475097656:3031.082763671875] [9.3761024475097656:3031.082763671875] [0.90009701251983643:344.68499755859375] [17.499900817871094:606.6939697265625] [17.499900817871094:440.78549194335938] [0:145] [36:407] [31.159999847412109:160.13792419433594] [0:206] [58:312] [58:208.29032897949219] [0:136] [33:243] [31.5:137.58064270019531] [9.5:105.69999694824219] [34.5:117] [34.5:105.75] [0.40000000596046448:5.1999998092651367] [0.40000000596046448:5.1999998092651367] [0.40000000596046448:5.1999998092651367] [10:2822] [10:2822] [10:2822] [3:17989] [3:20066] [3:17989] [0:3.2999999523162842] [0:8.1000003814697266] [0:4.5999999046325684] [0.10000000149011612:42.619998931884766] [0.10000000149011612:42.619998931884766] [0.10000000149011612:42.619998931884766] [0.10000000149011612:72.300003051757812] [0.10000000149011612:72.300003051757812] [0.10000000149011612:72.300003051757812] [2.7000000476837158:16.100000381469727] [5.3000001907348633:23.100000381469727] [5.0571432113647461:16.850000381469727] [63:139] [74:150] [69.222221374511719:144] [5:738] [11:2028] [11:869.5] [1.8999999761581421:19.799999237060547] [2.7000000476837158:20.600000381469727] [2.7000000476837158:19.799999237060547] [0:100] [0:100] [0:100] [0:91.300003051757812] [0:92] [0:91.650001525878906] [0:98.300003051757812] [0:98.900001525878906] [0:98.300003051757812] [0:1758] [2:1758] [1:1758] [1.7999999523162842:7.5999999046325684] [1.8999999761581421:10] [1.8999999761581421:8.2333335876464844] [100:169] [103:180] [101.45454406738281:174.19999694824219] [1.6000000238418579:11.600000381469727] [2.4000000953674316:14.399999618530273] [2.4000000953674316:12.049999237060547] [0:676.94000244140625] [0.0099999997764825821:815.96002197265625] [0.0066666663624346256:680.27337646484375]
tree_sizes=3316 3356 3356 3372 3381 3371 3375 3392 3397 3382 3390 3397 3383 3398 3398 3404 3384 3395 3380 3395 3380 3390 3389 3389 3414 3410 3395 3376 3387 3419 3385 3388 3397 3380 3391 3397 3425 3395 3406 3427 3403 3394 3397 3408 3384 3381 3372 3408 3398 3383 3378 3391 3403 3383 3398 3389 3382 3388 3393 3383 3375 3378 3397 3365 3388 3393 3387 3385 3395 3385 3386 3391 3384 3400 3390 3390 3367 3378 3360 3378 3396 3399 3385 3371 3401 3374 3395 3385 3388 3386

Tree=0
num_leaves=31
num_cat=0
split_feature=20 8 27 14 27 64 11 73 66 19 8 67 55 14 64 36 45 45 66 38 19 8 57 20 11 12 59 36 57 11
split_gain=752.784 414.797 309.792 217.423 200.89 99.4933 85.4372 81.0477 65.2493 77.9643 65.0592 63.9891 59.7164 58.8095 55.3855 49.3919 47.38 46.3647 43.8443 53.5515 40.5816 39.1763 38.2802 37.7328 37.4472 48.9371 57.6307 37.2405 36.5473 36.3387
threshold=2.3500000238418584 1.0000000180025095e-35 127.50000000000001 28.500000000000004 46.500000000000007 5.180000066757203 84.500000000000014 20.431250572204593 149.50000000000003 96.386608123779311 46.500000000000007 146.08333587646487 4.9874999523162851 35.500000000000007 4.4708333015441903 15.550000190734865 284.50000000000006 222.50000000000003 145.50000000000003 7.3500001430511483 97.450000762939467 94.500000000000014 85.149997711181655 1.3499999642372134 113.50000000000001 168.50000000000003 124.50000000000001 2.9500000476837163 90.549999237060561 69.500000000000014
decision_type=8 8 8 8 10 8 10 10 10 10 10 8 8 10 8 8 10 8 8 10 10 8 8 8 8 10 10 10 10 10
left_child=2 20 7 -4 8 10 13 12 29 -10 -5 15 -1 -6 28 16 -8 21 24 -20 -2 -15 -16 -14 25 -12 -27 -7 -9 -3
right_child=1 4 3 5 6 27 11 14 9 -11 18 -13 23 17 22 -17 -18 -19 19 -21 -22 -23 -24 -25 -26 26 -28 -29 -30 -31
leaf_value=-2.4167996271571659 -1.2006505206391276 -2.5828329441632913 -1.4199009821973023 -1.620718504760799 -2.1672953675022524 -2.0336330247153453 -2.6400950499950735 -2.5089411547735136 -1.6998285064350602 -2.5343087965396323 -2.4047252003133157 -2.2090974817723579 -2.3437951432202127 -2.5731381363680992 -1.6734586112572614 -2.1157926387572363 -2.3926381221494619 -2.1857883701856164 -1.5588066736388597 -2.3138708423000782 -1.9371576943293776 -2.1896356524617269 -2.230993898250123 -2.5878830954570842 -2.7282553036217627 -1.5056498783848629 -2.4268847906515276 -1.4097592943084103 -2.1576275131943459 -2.6878658775425683
leaf_weight=32.107346668839455 1.8329320102930062 34.382604636251926 3.2865714356303206 1.2640664428472508 6.9523693919181815 2.591336414217948 106.62401646375656 12.767072349786764 1.2640667781233776 9.7965157032012922 22.563588552176959 4.0450128689408293 6.7626803070306769 25.786958687007431 1.706489823758601 1.9593031406402577 8.3428389951586706 4.4242328852415076 1.4536765962839115 2.6545397192239761 1.26406654715538 2.9705563336610785 4.4242329671978951 99.734853282570839 3.0337597429752341 1.3904731869697564 1.327269874513149 1.5168798565864561 3.8554029464721671 784.8588988929987
leaf_count=508 29 544 52 20 110 41 1687 202 20 155 357 64 107 408 27 31 132 70 23 42 20 47 70 1578 48 22 21 24 61 12418
internal_value=-2.62098 -2.65676 -2.44521 -2.20005 -2.66037 -2.26788 -2.55818 -2.50763 -2.6802 -2.43894 -2.32454 -2.60013 -2.53634 -2.43175 -2.33271 -2.61365 -2.62214 -2.48716 -2.35198 -2.04669 -1.50126 -2.53352 -2.0758 -2.57238 -2.39628 -2.35644 -1.95556 -1.80328 -2.42746 -2.68346
internal_weight=0 994.504 202.44 41.0822 991.407 37.7956 161.105 161.358 830.302 11.0606 33.6874 120.971 138.605 40.1341 22.7532 116.926 114.967 33.1817 32.4233 4.10822 3.097 28.7575 6.13072 106.498 28.3151 25.2813 2.71774 4.10822 16.6225 819.242
internal_count=18938 15735 3203 650 15686 598 2549 2553 13137 175 533 1914 2193 635 360 1850 1819 525 513 65 49 455 97 1685 448 400 43 65 263 12962
is_linear=0
shrinkage=1


Tree=1
num_leaves=31
num_cat=0
split_feature=20 28 8 11 26 58 71 72 14 36 19 11 53 19 72 42 66 13 49 20 19 1 44 15 12 17 12 38 38 27
split_gain=538.613 172.513 118.136 103.964 98.1586 67.4826 65.5743 53.9765 43.404 39.2702 38.2885 37.3379 36.4252 38.4182 36.1123 35.3392 33.6768 33.0023 31.8506 37.0027 30.6486 30.0627 29.5963 29.1132 28.1913 27.7066 27.3811 28.1386 25.5349 24.3751
threshold=2.6499999761581425 55.166666030883796 17.500000000000004 81.500000000000014 30.500000000000004 82.916667938232436 16.304999351501468 22.159999847412113 39.500000000000007 14.750000000000002 96.243652343750014 66.500000000000014 5.7500000000000009 97.996002197265639 34.940000534057624 117.50000000000001 147.50000000000003 116.10263061523439 12.610000133514406 1.5500000119209292 97.16794586181642 66.500000000000014 163.50000000000003 93.500000000000014 212.50000000000003 95.950000762939467 190.50000000000003 7.5499999523162851 9.1500000953674334 3050.0000000000005
decision_type=8 8 10 10 10 10 10 10 8 8 10 10 8 10 10 8 8 10 10 10 10 2 8 8 8 10 8 8 8 10
left_child=1 5 -2 8 10 14 9 12 25 15 11 -4 13 -5 -1 21 26 28 19 -7 -9 -6 -23 -20 -21 -3 27 -8 29 -10
right_child=2 3 4 7 6 18 16 20 17 -11 -12 -13 -14 -15 -16 -17 -18 -19 23 24 -22 22 -24 -25 -26 -27 -28 -29 -30 -31
leaf_value=0.0019155701516024135 0.35498685269684116 0.53716928501942596 0.44152069445401276 0.31312501490749284 -0.048161054816448862 0.29373335527153926 0.53835174236806149 0.48796234498367402 0.14630619126095989 0.40360102219770772 -0.071645857717625536 0.012301296582015434 0.038489732703332308 0.04217590819274851 0.3703532721305941 0.33595464795281765 0.62960702179172534 0.54098525773738915 0.10699053669010411 0.061590873494613889 0.18905775410586381 0.013253443544468863 0.2204883664101514 0.51376395145238607 0.47294433383564116 0.30177641356545504 0.53025443170077879 0.066303237981635038 0.58543021028213049 0.54101087198107545
leaf_weight=145.09604083374143 7.338747587054967 9.9172517396509665 2.1822838485240963 12.030669268220665 104.66837509348989 8.9338204711675626 1.3900692127645058 5.3232567794620982 24.532988160848628 2.332172527909278 624.74248375371099 28.42902123183012 48.748435087502003 9.2618977054953557 2.7099665254354468 2.9088829047977915 1.6205839365720738 3.0610247477889052 3.2351962849497786 53.556859381496906 9.6473255269229394 53.073994737118483 7.9198333173990241 3.8572923950850964 1.7195277176797379 10.085399478673933 1.7223540470004071 13.790898345410824 1.5800201296806324 1.6711759492754925
leaf_count=2235 61 88 32 152 1654 117 19 59 311 27 10414 465 684 128 37 35 19 36 45 777 117 844 121 56 24 107 25 212 21 16
internal_value=0 0.102111 -0.0444987 0.190643 -0.0479691 0.0472162 0.0154337 0.122989 0.303753 -0.00393658 -0.0662954 0.0429004 0.0861502 0.195267 0.00867073 -0.00957485 0.194146 0.229352 0.127118 0.104906 0.295343 -0.015642 0.0401622 0.328217 0.0743872 0.418483 0.152397 0.109527 0.195019 0.171479
internal_weight=0 354.968 852.12 135.859 844.781 219.109 189.427 85.0116 50.8479 170.903 655.354 30.6113 70.041 21.2926 147.806 168.571 18.5239 30.8452 71.3027 64.2102 14.9706 165.662 60.9938 7.09249 55.2764 20.0027 16.9033 15.181 27.7842 26.2042
internal_count=18938 5010 13928 1719 13867 3291 2956 1140 579 2681 10911 497 964 280 2272 2654 275 384 1019 918 176 2619 965 101 801 195 256 231 348 327
is_linear=0
shrinkage=0.1


Tree=2
num_leaves=31
num_cat=0
split_feature=20 28 28 8 72 11 52 11 18 7 73 1 20 11 56 11 66 46 66 63 9 22 46 1 46 52 56 25 35 73
split_gain=411.661 104.069 89.4235 56.8117 49.943 48.4254 44.707 38.4376 35.3259 34.7936 33.9118 33.7071 29.9164 29.6167 36.2073 28.7147 28.4328 28.0078 27.3578 31.5033 27.3397 27.2647 26.5455 25.9057 39.2967 25.2817 24.5956 23.9725 23.4747 23.1796
threshold=2.6499999761581425 55.166666030883796 30.10000038146973 1.0000000180025095e-35 17.974999427795414 81.500000000000014 9.2000002861022967 65.500000000000014 96.250000000000014 93.023925781250014 14.870000362396242 70.500000000000014 1.7500000000000002 75.500000000000014 71.850002288818374 79.500000000000014 147.50000000000003 166.05555725097659 143.50000000000003 4.8500001430511483 166.50000000000003 1.3874999880790713 150.0909118652344 68.500000000000014 328.25000000000006 5.8166668415069589 85.850002288818374 43.250000000000007 22.35000038146973 33.239999771118171
decision_type=8 10 10 8 10 10 8 8 10 10 10 2 10 10 8 8 8 10 10 10 8 10 10 2 10 10 8 10 8 10
left_child=1 6 3 -2 7 20 18 -4 15 16 -7 26 13 14 -8 -5 -6 -16 21 -20 27 25 28 -10 -25 -1 -11 -3 -12 -14
right_child=2 5 4 8 9 10 12 -9 23 11 22 -13 29 -15 17 -17 -18 -19 19 -21 -22 -23 -24 24 -26 -27 -28 -29 -30 -31
leaf_value=0.4951372539520647 0.28242171120592674 -0.05782766369683745 0.21543663015351494 0.45243421053321253 0.025892961742224038 0.055118699787004226 0.6582460235388341 -0.01432964150973132 -0.08180343968072902 0.42295467937190079 0.078994073716123658 0.76880746803698163 -0.024207145869594788 0.031822226463101351 -0.0054413624617835436 0.033590094978661535 0.39843706888715091 0.48491463071563407 0.15002652734261193 0.52945167130722071 0.55894477898194905 0.054733111154512626 0.29274460240028061 -0.041527902669837254 0.51083053080744356 0.03379091111914833 0.036446767085526792 0.21728615152433151 0.46335926352043755 0.34086737500942843
leaf_weight=2.7956959903240195 4.7764170095324507 3.3544547222554675 7.6061130799353114 2.1323028951883289 17.729896895587451 59.202407259494066 1.8240006044507051 170.27130579575896 394.22552964091301 3.1748869344592086 19.19956719130278 1.3629067689180372 109.1633206307888 17.104204975068569 3.82041185349226 7.0439744889736184 2.3162745162844649 1.6757305264472959 12.689219415187834 2.6442978382110587 2.2244065999984732 74.950138967484236 12.999474883079527 204.82081428915262 1.2961453497409809 2.0653319507837296 3.4199047759175301 56.76614598929882 1.7323217168450344 1.7673341333866108
leaf_count=28 26 31 92 27 247 767 24 2692 6984 37 211 17 1701 242 51 107 18 21 163 28 21 1010 133 3611 23 23 47 519 18 19
internal_value=0 0.0832392 -0.0419988 -0.0611146 0.0150376 0.146463 0.040593 -0.00450474 -0.0638066 0.139169 0.100802 0.316083 0.00366907 0.103861 0.272186 0.130917 0.0689393 0.144064 0.0931218 0.215459 0.214674 0.069618 0.180507 -0.066783 -0.0380545 0.299122 0.222521 0.201936 0.110804 -0.0183908
internal_weight=0 385.978 820.176 614.295 205.881 155.479 230.5 177.877 609.519 28.0039 93.1338 7.9577 135.355 24.4243 7.32014 9.17628 20.0462 5.49614 95.1447 15.3335 62.345 79.8112 33.9314 600.342 206.117 4.86103 6.59479 60.1206 20.9319 110.931
internal_count=18938 5010 13928 10778 3150 1700 3310 2784 10752 366 1129 101 2058 338 96 134 265 72 1252 191 571 1061 362 10618 3634 51 84 550 229 1720
is_linear=0
shrinkage=0.1


Tree=3
num_leaves=31
num_cat=0
split_feature=20 26 63 8 20 8 46 37 59 46 65 71 66 12 8 19 11 18 7 24 19 30 4 69 71 27 1 18 56 10
split_gain=321.513 78.2953 73.6988 47.0864 46.3263 42.8536 37.4085 41.9594 32.2112 33.3387 38.7406 33.4922 30.1416 31.1775 32.0171 28.0721 26.0037 25.2258 24.6855 24.5937 25.1272 24.1046 24.3365 23.7101 23.5262 23.4449 22.5874 31.0161 23.3653 22.3356
threshold=2.6499999761581425 30.500000000000004 4.7500000000000009 33.500000000000007 1.8499999642372134 12.000000000000002 183.09999847412112 12.09999990463257 41.500000000000007 159.09999847412112 143.50000000000003 21.564999580383304 145.50000000000003 172.50000000000003 52.500000000000007 100.93333435058595 65.500000000000014 97.750000000000014 111.69900131225587 49.500000000000007 94.617141723632827 0.15000000223517421 38.522233963012702 6.4500000476837167 11.244999885559084 27.500000000000004 78.500000000000014 96.850002288818374 76.450000762939467 104.43105316162111
decision_type=8 10 10 10 10 10 10 8 8 10 8 10 10 8 10 10 10 10 8 10 10 8 8 10 10 8 2 10 10 10
left_child=2 3 5 -2 25 -1 7 15 24 29 11 21 26 -14 -15 16 -3 -8 -12 -6 -21 22 23 -11 -7 -4 -5 28 -28 -10
right_child=1 6 4 12 19 8 17 -9 9 10 18 -13 13 14 -16 -17 -18 -19 -20 20 -22 -23 -24 -25 -26 -27 27 -29 -30 -31
leaf_value=0.40916512488035334 0.15527101903549217 0.14221733245174575 0.050284953890864327 -0.07409307014659651 -0.095365231547517207 0.10201331696554182 0.28477381713404715 0.30571893535484634 -0.011412166241624619 0.15543799096522246 0.18138654545860922 0.27176267811098831 -0.033044864341461672 0.63278345681789727 0.11560310928279614 0.41309119261502847 -0.026923363706528283 0.067816045802320965 0.57076360285386929 0.39555178185550166 0.09562486208406526 0.0042928733165379747 -0.0043434443512340905 0.60378815399343178 0.36175379721928647 0.25453787962439861 0.090647548329549146 -0.030167592933129924 0.62326815714079475 0.071406824872103064
leaf_weight=3.1322286762297145 10.198498889803885 9.6769215762615186 6.7311723232269278 482.34972209483385 6.5244391337037078 17.237422425299886 6.7681569755077353 4.2514925859868518 151.7052279189229 2.9877588227391216 5.4159104116260997 6.680169664323329 14.855095632374288 1.4798622280359257 6.262725330889225 1.5346532016992558 149.73465542495251 25.742202501744032 2.3280593678355217 2.9000255838036528 75.87686787545681 44.367650683969259 3.7952930741012105 1.9488712996244428 4.3715392984449855 34.03280958533287 2.5159369669854637 73.686235494911671 1.2244998067617414 41.464433543384075
leaf_count=20 101 100 75 9065 84 211 80 37 2050 34 58 64 256 22 105 23 2392 341 22 25 897 580 50 21 39 277 39 1351 16 503
internal_value=0 -0.0395628 0.0694397 -0.0577438 0.133119 0.0413149 0.0149296 -0.00436702 0.0372334 0.0275083 0.0879937 0.0607316 -0.0614741 0.0517548 0.214453 -0.0125581 -0.0166558 0.112983 0.298444 0.0912134 0.106666 0.0341829 0.186057 0.332437 0.154559 0.220811 -0.066045 -0.0159077 0.265011 0.00636517
internal_weight=0 790.281 411.5 592.573 126.065 285.435 197.708 165.198 282.302 260.693 67.5237 59.7797 582.374 22.5977 7.74259 160.946 159.412 32.5104 7.74397 85.3013 78.7769 53.0996 8.73192 4.93663 21.609 40.764 559.776 77.4267 3.74044 193.17
internal_count=18938 13928 5010 10955 1358 3652 2973 2552 3632 3382 829 749 10854 383 127 2515 2492 421 80 1006 922 685 105 55 250 352 10471 1406 55 2553
is_linear=0
shrinkage=0.1


Tree=4
num_leaves=31
num_cat=0
split_feature=20 27 66 8 14 27 65 44 37 11 1 44 46 8 12 49 51 67 72 14 44 47 16 45 46 49 11 17 7 7
split_gain=256.538 69.6562 65.0672 49.6132 45.9942 38.8505 34.2707 42.2107 30.8093 33.4084 30.4682 30.1555 28.4527 26.9115 26.3078 30.0448 38.9857 25.7858 25.1497 24.5068 24.1611 23.2072 21.268 21.3878 20.6569 27.1567 20.5816 20.0871 19.6886 19.2171
threshold=2.7500000000000004 33.500000000000007 143.50000000000003 1.0000000180025095e-35 53.500000000000007 113.50000000000001 141.50000000000003 115.50000000000001 0.59999999403953563 117.50000000000001 68.500000000000014 157.50000000000003 138.09999847412112 33.500000000000007 116.50000000000001 11.799999713897707 6.5499999523162851 139.92857360839847 15.664999961853029 35.500000000000007 70.500000000000014 14.750000000000002 69.622844696044936 248.50000000000003 113.58333206176759 14.100000858306887 87.500000000000014 99.450000762939467 83.461151123046889 78.004150390625014
decision_type=8 8 10 8 10 10 10 10 10 10 2 8 10 10 8 10 8 10 10 10 10 10 8 8 10 8 8 10 10 8
left_child=1 12 3 -2 13 10 7 -4 28 -10 -5 -12 -1 -3 -13 -16 -17 -14 -6 -8 -15 27 26 -24 -20 -26 -7 -22 -9 -19
right_child=2 4 6 5 18 22 19 8 9 -11 11 14 17 20 15 16 -18 29 24 -21 21 -23 23 -25 25 -27 -28 -29 -30 -31
leaf_value=-0.026607192250301805 0.20985834246143575 0.28338874087774163 0.0024626801248526526 -0.075376419503891456 -0.002652030465662843 0.27114977058899514 0.30380664457545659 -0.048409256145633815 0.31345262978587013 0.87547709965087339 -0.047184512824000331 0.48116381235609484 0.011453722058823137 0.20739819012980881 -0.02658400927077792 0.54837163488434981 0.081604924237037038 0.020926720233869073 -0.015748256786167487 -0.012055513158077789 0.083717449461036555 0.43223683890631848 -0.042150144927907363 0.23763826874730531 0.11314229688050839 0.49680702538674359 0.0060622052129930644 0.37213316571767363 0.3523955628425588 0.20321369955069191
leaf_weight=108.49405333772302 7.2614219971001139 9.1216833032667619 9.8912879861891287 395.33957355469465 69.52331031113863 6.7902524434030029 2.5926600247621527 3.2935150042176229 5.3388534411787987 1.3189499117434023 167.63283851370215 1.3544981628656376 48.382094487547874 21.068674720823765 27.381445564329624 2.1345451027154896 11.066222578287125 9.1119948998093623 12.286650713533161 46.721424303948879 145.79822789877653 1.9904393479228009 21.215468294918541 3.1360300257802001 29.422927703708414 1.9683246389031399 5.1504305712878713 2.4554600082337847 1.9519778154790399 15.831387996673582
leaf_count=1596 36 52 164 7690 914 83 31 56 64 20 3103 20 667 162 487 35 189 119 131 773 1518 18 331 36 291 21 76 25 31 199
internal_value=0 0.0545557 -0.0401056 -0.0500634 0.0846747 -0.053007 0.0507026 0.155129 0.281991 0.424793 -0.0590362 -0.0282115 0.00591395 0.116023 0.0476291 0.0331592 0.15708 0.054033 0.034708 0.00455076 0.107111 0.0930483 0.0474869 -0.00611849 0.0941749 0.137199 0.156808 0.0884944 0.10074 0.136623
internal_weight=0 475.455 719.571 648.463 293.636 641.201 71.1087 21.7946 11.9033 6.6578 604.909 209.57 181.82 180.434 41.9367 40.5822 13.2008 73.3255 113.201 49.3141 171.313 150.244 36.2922 24.3515 43.6779 31.3913 11.9407 148.254 5.24549 24.9434
internal_count=18938 5713 13225 12086 3132 12050 1139 335 171 84 11524 3834 2581 1775 731 711 224 985 1357 804 1723 1561 526 367 443 312 159 1543 87 318
is_linear=0
shrinkage=0.1


Tree=5
num_leaves=31
num_cat=0
split_feature=28 11 18 73 20 45 55 63 59 60 22 1 35 45 72 71 35 1 16 40 9 14 1 35 6 19 44 8 5 16
split_gain=211.301 78.6315 53.7105 48.9567 43.1052 38.6424 34.8296 32.5532 38.3116 29.0803 25.6083 25.0985 26.2215 23.9675 21.7249 20.6865 19.829 19.4398 18.3929 25.0549 18.3467 18.3164 24.5533 18.0359 17.6461 23.2843 17.5235 26.6781 23.2782 16.826
threshold=27.166666984558109 83.500000000000014 95.950000762939467 14.440000057220461 2.3500000238418584 155.50000000000003 5.7549998760223398 4.6499998569488534 80.500000000000014 34.500000000000007 2.3291666507720952 68.500000000000014 0.75000000000000011 365.50000000000006 8.6849999427795428 27.614999771118168 1.0500000119209292 43.500000000000007 80.350383758544936 8.7309517860412615 110.50000000000001 64.500000000000014 59.500000000000007 24.900000572204593 101.24900054931642 96.50217437744142 165.50000000000003 69.500000000000014 90.099048614501967 75.946655273437514
decision_type=10 10 10 10 8 10 8 10 8 8 8 2 10 8 10 10 10 2 10 10 10 10 2 8 10 8 8 10 8 10
left_child=2 7 -1 6 15 23 10 8 -2 -6 -3 -11 13 -13 -14 -4 20 -7 -10 -20 -9 24 -23 -5 25 -19 -12 28 -28 -8
right_child=1 3 4 5 9 17 29 16 18 11 26 12 14 -15 -16 -17 -18 21 19 -21 -22 22 -24 -25 -26 -27 27 -29 -30 -31
leaf_value=0.18677644499384441 0.17180312772010353 0.16746004010287163 0.0084411257430039213 -0.0035823526658512505 0.23287773210933033 -0.024481651466024268 -0.0029471212870375036 0.024258193951084753 0.016374682298490612 -0.073801736866000625 -0.011950853801449876 -0.055671658615534095 -0.039638420290982274 0.081885765716765369 0.13095867942203537 0.22437436686134707 0.20359517288909959 0.29735427140581344 0.34832685053715146 -0.10931785555329106 0.1501716150952912 0.10767075778128853 0.43035916705759397 0.2399862340858584 0.24032179827617381 0.040088543588827991 0.11426473982938963 -0.012850810234539503 0.64483072402200203 -0.062704792131068804
leaf_weight=10.156860034912823 23.770252492278814 15.876347608864306 83.27559232711792 48.218514781445265 3.4748334139585486 6.7203676030039778 106.62507022917271 18.553594138473272 80.912384413182735 341.96344906836748 34.263586651533842 156.15143375098705 13.258705403655769 13.784573435783384 17.082089554518461 4.6862479448318473 32.296122748404741 4.1997152678668526 3.807341866195201 1.7443839088082311 30.753518242388964 4.3825126327574235 5.1044213697314262 3.2447302266955367 9.6458513773977739 21.673740647733212 1.7247634083032601 4.1030394621193409 1.5885675027966497 84.428679905831814
leaf_count=104 213 157 1079 575 59 76 1604 183 924 7147 536 2990 251 219 297 42 244 35 31 27 241 45 48 21 84 224 22 53 21 1386
internal_value=0 0.043307 -0.0413612 0.0152228 -0.0450179 0.0731255 -0.00881073 0.0948091 0.0593665 -0.0554891 0.0593833 -0.057337 -0.0292243 -0.0445135 0.056409 0.0199452 0.142687 0.134164 0.028456 0.204532 0.102792 0.157853 0.281292 0.0117745 0.124884 0.0818473 0.0182157 0.157585 0.368643 -0.0293547
internal_weight=0 543.638 643.834 351.8 633.677 103.19 248.61 191.838 110.234 545.715 57.5563 542.24 200.277 169.936 30.3408 87.9618 81.6032 51.7266 86.4641 5.55173 49.3071 45.0062 9.48693 51.4632 35.5193 25.8735 41.68 7.41637 3.31333 191.054
internal_count=18938 6750 12188 4887 12084 1108 3779 1863 1195 10963 789 10904 3757 3209 548 1121 668 512 982 58 424 436 93 596 343 259 632 96 43 2990
is_linear=0
shrinkage=0.1


Tree=6
num_leaves=31
num_cat=0
split_feature=20 66 9 8 36 19 44 55 19 1 35 65 50 1 65 51 10 18 11 72 31 42 22 18 8 10 22 2 58 11
split_gain=174.408 53.084 48.4383 38.0117 34.3808 33.3141 31.0327 29.6491 26.9699 26.6091 26.0931 24.8328 23.0295 24.0957 22.9027 22.2215 22.1021 22.2308 21.6368 20.2593 19.9289 19.5515 25.5492 25.3756 19.1636 19.0416 18.8542 23.984 18.7308 18.658
threshold=2.8500000238418584 143.50000000000003 113.50000000000001 36.500000000000007 3.4500000476837163 96.243652343750014 105.50000000000001 4.7999999523162851 101.19772720336915 68.500000000000014 5.2500000000000009 141.50000000000003 6.8500001430511483 53.500000000000007 141.50000000000003 1.3499999642372134 105.26377105712892 100.95000076293947 90.500000000000014 13.47499990463257 0.070833336561918273 98.500000000000014 1.7416666150093081 99.049999237060561 63.500000000000007 98.968181610107436 3.7928571701049809 26.558146476745609 78.850002288818374 71.500000000000014
decision_type=8 10 10 10 10 10 8 8 10 2 10 10 10 2 8 10 10 10 8 10 8 10 10 10 10 10 10 10 8 10
left_child=2 3 7 -2 8 -4 -3 15 9 -5 20 24 13 14 28 -1 19 -18 25 -11 29 22 -15 -24 -8 -6 -21 -28 -7 -9
right_child=1 6 5 4 18 12 11 10 -10 16 -12 -13 -14 21 -16 -17 17 -19 -20 26 -22 -23 23 -25 -26 -27 27 -29 -30 -31
leaf_value=-0.087307901665627047 0.10209051147094468 -0.048078747222926398 0.17784211980409467 -0.074510482587008486 0.13920186833811243 0.22938966011032702 0.29495413255867253 0.42897173519608139 0.32612897948887543 -0.052577386048878627 0.10107638141414815 0.033333517951046318 0.013597050707417863 -0.033055834430341782 0.20191183861250073 0.089790141905131571 0.065734836449702475 0.54952080469630471 -0.040489950850854682 0.0082267094953004574 -0.021549050284339982 0.098295217634630061 0.54027197756970391 0.12489251403899522 0.086830913968870715 0.53595013123485147 0.04343224088729955 0.60147316586018773 -0.01589776773980996 0.052817219383197479
leaf_weight=8.014035761356352 16.270857680588961 23.558317001909018 26.376433182507753 342.78000122308731 4.2604280859231922 3.3623207733035079 8.4224472641944903 1.7990195490419854 1.8359497934579838 146.01765207946301 20.94641687721014 26.99937354400754 74.23874993994832 2.1870489418506605 6.5798352025449267 61.123256165534258 8.6809499487280828 1.0665302798151959 4.4067949093878278 33.504374984651804 203.80548837780952 84.689248643815517 3.5026766732335091 2.5351884067058563 9.3198362961411458 1.6893608085811136 1.9761999361217015 1.2620145753026006 42.017308823764324 4.9385632835328579
leaf_count=105 158 418 192 7457 44 26 96 14 29 2854 187 436 875 19 66 626 155 19 71 587 2836 868 38 31 118 20 32 17 473 71
internal_value=0 -0.0384462 0.0387096 -0.0485334 -0.0530099 0.0716668 0.0448143 0.0117971 -0.0564896 -0.057802 -0.0053655 0.0937263 0.0588855 0.0820931 0.027557 0.0692619 -0.0280507 0.118669 0.127459 -0.0358759 -0.0159551 0.112591 0.259787 0.365862 0.185629 0.251853 0.0304967 0.260915 0.00227636 0.153255
internal_weight=0 632.051 546.116 563.751 547.48 245.489 68.3 300.627 537.124 535.288 231.489 44.7417 219.112 144.874 51.9595 69.1373 192.508 9.74748 10.3566 182.76 210.543 92.9142 8.22491 6.03787 17.7423 5.94979 36.7426 3.23821 45.3796 6.73758
internal_count=18938 12511 6427 11443 11285 2588 1068 3839 11150 11121 3108 650 2396 1521 565 731 3664 174 135 3490 2921 956 88 69 214 64 636 49 499 85
is_linear=0
shrinkage=0.1


Tree=7
num_leaves=31
num_cat=0
split_feature=28 9 19 14 51 73 11 59 44 65 66 14 46 72 66 46 22 36 60 52 8 11 19 73 5 55 1 10 43 43
split_gain=151.003 53.7022 46.7891 38.3175 30.9884 28.8871 27.97 27.8515 24.8527 23.8914 21.6174 21.4495 20.5471 19.4771 18.2951 19.8617 18.2669 18.8845 17.7966 19.9352 17.3792 17.3128 17.8606 17.2672 15.8356 16.2075 15.5837 22.9377 23.3729 15.476
threshold=26.10000038146973 117.50000000000001 96.28397369384767 53.500000000000007 10.150000095367433 13.56750011444092 79.500000000000014 45.500000000000007 177.50000000000003 133.50000000000003 142.50000000000003 38.500000000000007 328.25000000000006 16.204999923706058 149.50000000000003 343.25000000000006 2.3500000238418584 2.5499999523162846 172.50000000000003 13.200000286102297 64.500000000000014 89.500000000000014 98.704170227050795 15.672499656677248 98.798950195312514 3.6999999284744267 68.500000000000014 105.75304794311525 113.70833206176759 99.099998474121108
decision_type=10 10 10 10 8 10 10 8 10 10 10 10 10 10 10 8 8 10 8 10 10 10 10 8 10 8 2 10 8 10
left_child=2 3 5 9 12 6 18 21 13 24 -11 20 16 -5 15 29 -4 -18 19 -1 -3 22 -6 -7 25 -2 -9 -28 -29 -13
right_child=1 11 4 8 7 23 -8 26 -10 10 -12 14 -14 -15 -16 -17 17 -19 -20 -21 -22 -23 -24 -25 -26 -27 27 28 -30 -31
leaf_value=0.4483260818298323 0.22349957878935164 0.22522517817170487 0.053047242624265023 -0.060611044660455263 0.38176177840376624 0.41026378282322817 -0.049988291919257383 -0.077601989826286355 0.085882044002415545 -0.0037650767369712397 0.081720888493269528 0.11230545052058838 0.24594664257814666 0.026748141026092489 0.19120310770410376 0.33514074263794491 -0.038101112077354359 0.40421602399729822 0.043984447528360372 0.00081304433712468664 0.091378600485600869 -0.03350340905501939 -0.040308529158753277 0.12166805958089906 0.21879380690602798 0.044744900036259055 -0.047362129438908253 0.043976934936554558 0.46967188137329963 0.030882916736423346
leaf_weight=3.0086004957556733 6.0093595571815959 14.266390316188334 34.235586039721966 110.15894239023328 3.2000588141381723 3.1579393297433827 20.534487061202526 260.01615587994456 17.493779413402081 108.88816471770406 40.614750098437071 28.144424986094236 3.2495311349630347 33.217429485172033 9.5524406135082227 2.3897937834262839 86.241451736539602 0.97616947814822097 6.8194669373333463 1.4876179061830042 30.314241394400597 4.0305597223341465 1.4600340314209459 6.035591498017312 9.1761045828461629 32.526797626167536 146.29117313027382 7.9190974496304962 1.5407179184257991 136.85097313299775
leaf_count=38 47 84 368 1876 40 36 372 5963 210 1425 407 322 35 362 67 19 1769 16 72 15 217 69 21 66 77 346 2892 132 20 1555
internal_value=0 0.0335178 -0.0383415 0.00957685 -0.0460389 0.0646491 0.0195764 -0.0589146 -0.0266422 0.0391211 0.0194585 0.0722185 -0.00221324 -0.0403717 0.0565991 0.0489174 -0.00885286 -0.0331505 0.145815 0.300262 0.134211 0.118262 0.249525 0.220799 0.100732 0.07262 -0.0626181 -0.0376034 0.11331 0.0447717
internal_weight=0 579.604 590.204 358.085 549.161 41.0437 31.8502 424.458 160.87 197.215 149.503 221.518 124.703 143.376 176.938 167.385 121.453 87.2176 11.3157 4.49622 44.5806 8.69065 4.66009 9.19353 47.7123 38.5362 415.767 155.751 9.45982 164.995
internal_count=18938 7014 11924 4750 11325 599 497 9137 2448 2302 1832 2264 2188 2238 1963 1896 2153 1785 125 53 301 130 61 102 470 393 9007 3044 152 1877
is_linear=0
shrinkage=0.1


Tree=8
num_leaves=31
num_cat=0
split_feature=28 11 19 71 51 59 14 73 11 46 55 64 17 26 44 19 1 10 42 12 23 53 46 22 36 35 42 6 8 29
split_gain=124.417 43.8713 38.122 31.0171 27.6821 22.3622 20.2379 19.478 21.4241 19.2087 18.6536 18.25 16.6007 16.7284 15.0716 15.9311 14.8949 17.8822 27.1437 15.4724 19.0685 14.2631 14.0807 14.7249 17.6858 14.0305 16.5422 13.8797 13.2949 13.9777
threshold=26.10000038146973 83.500000000000014 96.28397369384767 11.555000305175783 10.150000095367433 45.500000000000007 36.500000000000007 13.56750011444092 79.500000000000014 146.16666412353518 5.7549998760223398 4.3464283943176278 94.350002288818374 34.500000000000007 63.500000000000007 100.93333435058595 68.500000000000014 105.75304794311525 116.50000000000001 202.50000000000003 80.500000000000014 3.3500000238418584 328.25000000000006 2.3500000238418584 3.0499999523162846 4.5499999523162851 113.50000000000001 126.00350189208986 50.500000000000007 0.15000000223517421
decision_type=10 10 10 10 8 8 10 8 10 10 8 10 8 10 10 10 2 10 8 10 8 10 10 8 10 10 10 10 10 8
left_child=2 6 7 10 22 -6 -2 8 -1 14 12 25 -3 -14 -5 -16 -7 19 -19 -18 -21 -15 23 -4 -25 26 -8 -23 -11 -30
right_child=1 3 4 9 5 16 11 -9 -10 28 -12 -13 13 21 15 -17 17 18 -20 20 -22 27 -24 24 -26 -27 -28 -29 29 -31
leaf_value=0.12656818866082736 0.11263362108056528 0.24658664592298343 0.045744826668581318 0.19275315762281967 0.09535205270033377 -0.075206179835590775 -0.014061969123152315 0.15091332444268896 -0.055118222385571305 0.22059386452096705 -0.031246896616533543 0.088323686641669022 -0.064797770315610695 -0.015887831301991423 -0.0079204875870941688 0.30947648776500514 -0.05167663126439645 0.02613955948652329 0.49162032775621872 0.38092118486113069 -0.0037253048092188894 0.087619184684890411 0.18715497323101957 -0.035849589822875644 0.38725468166735311 0.12449965325657651 0.11451171966358423 0.39712767090047268 0.14946994540112302 0.041305200918193424
leaf_weight=9.8963763229548949 63.398308329284191 3.4814061447978011 35.64909241348505 4.2586375400423995 9.5072985403239709 242.38844700157642 71.44385901838541 14.096703078597782 18.856686681509018 6.3377269245684138 169.46675509959459 60.624478340148926 15.872601877897976 15.418625663965939 70.755966082215309 1.6175515577197064 134.12307826057076 8.9343259111046756 1.457057677209378 1.8303304724395264 4.3563028313219547 20.318226080387834 3.8071634620428076 83.746072549372911 0.9997304417192926 10.923564091324804 11.636476926505564 1.5601407773792733 15.99361904338002 47.221514500677586
leaf_count=105 426 32 368 36 130 5963 786 138 356 45 2774 516 256 186 870 13 2788 140 12 28 76 252 35 1774 11 87 96 16 149 474
internal_value=0 0.0294291 -0.0360818 0.00856744 -0.0434598 -0.0561921 0.0650526 0.0546234 0.00741554 0.0444653 -0.0146405 0.0455442 0.0350361 0.0211844 0.00993106 -0.00082665 -0.0598573 -0.0351702 0.0914083 -0.0445446 0.110073 0.0577761 -0.00218854 -0.00817602 -0.0308583 0.0179551 0.00394644 0.10969 0.0825146 0.0686712
internal_weight=0 590.329 569.649 372.303 526.799 402.597 218.027 42.8498 28.7531 146.185 226.118 154.628 56.651 53.1696 76.6322 72.3735 393.09 150.701 10.3914 140.31 6.18663 37.297 124.202 120.395 84.7458 94.0039 83.0803 21.8784 69.5529 63.2151
internal_count=18938 7014 11924 5103 11325 9137 1911 599 461 1587 3516 1485 742 710 919 883 9007 3044 152 2892 104 454 2188 2153 1785 969 882 268 668 623
is_linear=0
shrinkage=0.1


Tree=9
num_leaves=31
num_cat=0
split_feature=22 11 67 19 71 66 43 71 1 61 32 23 22 1 56 47 10 8 9 66 15 8 19 71 19 9 12 62 12 18
split_gain=105.207 47.5816 31.5239 29.9415 26.7229 26.9018 26.1116 24.8397 23.9513 21.4437 20.2137 20.1545 18.179 17.7387 21.9612 17.6467 17.3622 17.6409 16.8515 16.6235 16.411 16.3836 17.1869 15.8861 15.8315 15.4596 15.3687 15.6008 18.5531 22.3607
threshold=2.8000000715255742 85.500000000000014 142.07142639160159 96.355842590332045 11.614999771118166 141.50000000000003 105.63333129882814 17.365000724792484 60.500000000000007 54.071428298950202 0.41499999165534979 356.50000000000006 2.169047594070435 83.500000000000014 85.549999237060561 8.0500001907348651 71.146110534667983 61.500000000000007 111.50000000000001 141.50000000000003 63.500000000000007 102.50000000000001 98.22052383422853 4.8350000381469735 101.19772720336915 105.50000000000001 145.50000000000003 3.3500000238418584 179.50000000000003 99.250000000000014
decision_type=8 10 8 10 10 8 10 10 2 8 10 10 10 2 10 10 10 10 10 10 8 8 10 10 10 10 10 8 10 10
left_child=3 2 7 10 24 21 8 9 25 15 12 19 -1 -11 -15 -2 -10 -18 20 -8 -4 -6 -23 -20 -3 -5 -7 28 29 -28
right_child=1 4 18 6 5 26 11 -9 16 13 -12 -13 -14 14 -16 -17 17 -19 23 -21 -22 22 -24 -25 -26 -27 27 -29 -30 -31
leaf_value=0.13031529938140937 0.014009188779630911 -0.061483923123231282 0.41087867507990761 -0.038679368578333165 -0.044664943473394336 -0.058614542600807062 -0.040794752143336985 0.141978188356715 -0.029915248046346404 -0.040334574850129562 0.24499137431618112 0.14464258350824058 0.019867015929619338 0.039891299515669131 0.49002358685492836 0.38391187479618927 0.18657640217075611 0.069763983071393046 0.44138441372092174 0.017724329790249224 0.0040612765856017858 0.43500829182032136 -0.10980205013748233 0.1432214537196406 0.30111773255182983 0.035561196460340984 0.13747648006516389 0.057547551631557274 0.020113162007272489 0.58830356093764291
leaf_weight=28.540635790675879 2.8932695351541033 349.14141786843538 1.0692071653902537 42.180857352912426 80.980847600847483 7.8307098336517802 100.48124367743731 10.539883509278296 14.982933074235914 95.734967689961195 7.6803846545517436 8.5167650543153268 31.185411509126425 6.0149873048067084 1.3221000283956525 2.3269628249108791 14.771913748234509 103.58933888748288 2.0643736459314814 93.913460124284029 13.66096979752183 1.4626529067754739 0.95848671346902836 13.296311665326355 1.2082667350769032 83.719856336712837 2.2868962399661568 21.869148805737495 2.6647889092564583 2.1201471202075481
leaf_count=199 31 8217 9 548 1720 142 1276 140 216 1819 44 77 305 109 15 23 144 1147 25 990 189 25 17 150 15 897 31 365 27 26
internal_value=0 -0.0306838 0.01858 0.0300212 -0.046276 -0.00558507 0.0209402 -0.00457207 0.0419693 -0.0188355 0.092283 -0.00592705 0.0726457 -0.0288499 0.121002 0.178896 0.0715043 0.0843426 0.11001 -0.0125238 0.0335906 -0.0370013 0.219327 0.183293 -0.0602334 0.0106882 0.0656702 0.0992986 0.228411 0.354361
internal_weight=0 619.446 148.923 529.563 470.523 120.174 462.156 118.832 259.245 108.292 67.4064 202.911 59.726 103.072 7.33709 5.22023 133.344 118.361 30.0909 194.395 14.7302 83.402 2.42114 15.3607 350.35 125.901 36.7717 28.941 7.07183 4.40704
internal_count=18938 13095 2510 5843 10585 2353 5295 2137 2952 1997 548 2343 504 1943 124 54 1507 1291 373 2266 198 1762 42 175 8232 1445 591 449 84 57
is_linear=0
shrinkage=0.1


Tree=10
num_leaves=31
num_cat=0
split_feature=28 9 19 71 72 14 1 35 66 8 37 13 65 14 71 9 63 1 2 10 62 60 12 19 12 8 44 53 17 11
split_gain=92.5706 32.125 28.455 24.7577 23.7363 22.0909 20.3117 20.0611 25.2389 19.2198 17.1795 17.7502 20.0797 16.354 15.9572 14.5926 23.8931 30.2055 14.5811 14.3078 14.0798 14.0111 13.9888 13.7707 13.6384 29.937 13.631 13.1775 13.1238 13.0747
threshold=26.10000038146973 117.50000000000001 96.28397369384767 15.984999656677248 22.159999847412113 54.500000000000007 68.500000000000014 0.75000000000000011 140.50000000000003 33.500000000000007 4.2000000476837167 136.31790161132815 132.50000000000003 60.500000000000007 8.2750000953674334 118.50000000000001 6.7500000000000009 46.500000000000007 32.715724945068366 95.270980834960952 4.2500000000000009 34.500000000000007 206.50000000000003 96.355842590332045 171.50000000000003 81.500000000000014 142.50000000000003 3.6499999761581425 97.149997711181655 65.500000000000014
decision_type=10 10 10 10 10 8 2 10 10 10 8 8 10 8 10 8 8 2 10 10 10 8 8 10 8 10 10 8 10 8
left_child=2 3 29 5 6 10 15 9 -9 -8 11 12 27 14 -10 -4 21 -18 -6 -11 -20 -17 -5 -3 -21 -26 -7 -2 -12 -1
right_child=1 23 4 22 18 26 7 8 13 19 28 -13 -14 -15 -16 16 17 -19 20 24 -22 -23 -24 -25 25 -27 -28 -29 -30 -31
leaf_value=0.18772593129104945 0.22642824504462628 0.11347315231854252 -0.074775915754847405 0.05151087599897633 0.015838843238147989 -0.057560200917735338 0.18508911499869718 -0.026271063624262282 0.085354188347195478 -0.054479097295993519 0.13647157321961897 0.09747726878461406 -0.025739727968698695 -0.045694350942106263 0.33058342255202838 0.19344919623086659 -0.10401237460838152 0.57955010867260803 0.066137852238558503 -0.0078676261034285409 0.423181303961355 -0.042994887746052035 0.27598840161826832 0.043324802469738383 0.59260684624386128 0.030720458043269394 0.020563052192905582 0.038395805605531484 -0.052139603765503577 0.023487380517839065
leaf_weight=5.5389834940433493 4.7209305800497559 32.390962995588779 215.76071912795305 61.956456411629915 27.685266654938459 94.025486100465059 3.8844856396317473 17.413399212062362 5.0564649589359725 120.69559526070952 17.936967570334676 17.980035196989775 111.32359965890646 3.1393916308879861 5.5834868028759956 2.6128413528203955 1.1660614944994443 1.4506652802228925 2.7827232070267192 19.756771910935644 1.8313404768705366 61.408678438514471 2.9063155762851229 205.72385304793715 1.2872215174138535 3.6005299985408783 29.291703335940838 17.703657977283001 4.6443351469933978 38.803791362792253
leaf_count=36 35 219 5683 527 405 1679 35 332 93 2679 138 251 1466 54 73 31 33 32 38 337 18 1394 18 2045 25 63 404 187 45 563
internal_value=0 0.0243319 -0.0327407 0.00558741 -0.0396139 -0.00661286 -0.0453982 -0.0191885 0.0537458 -0.0344342 0.0163022 0.00419107 -0.00834958 0.154866 0.214042 -0.0621428 -0.0212394 0.274942 0.0432682 -0.0403013 0.20785 -0.0333451 0.0615691 0.0528671 0.0291337 0.178697 -0.0390035 0.0779813 0.0976796 0.0440029
internal_weight=0 600.604 539.458 362.489 495.116 297.627 462.816 180.417 31.1927 149.225 174.31 151.728 133.748 13.7793 10.64 282.399 66.6382 2.61673 32.2993 145.34 4.61406 64.0215 64.8628 238.115 24.6445 4.88775 123.317 22.4246 22.5813 44.3428
internal_count=18938 7014 11924 4750 11325 4205 10864 3691 552 3139 2122 1939 1688 220 166 7173 1490 65 461 3104 56 1425 545 2264 425 88 2083 222 183 599
is_linear=0
shrinkage=0.1


Tree=11
num_leaves=31
num_cat=0
split_feature=20 27 66 45 42 59 12 18 11 51 17 10 65 73 49 46 10 62 16 72 3 9 9 26 69 18 1 10 11 5
split_gain=79.2767 37.7917 36.4735 25.0509 21.3301 21.4137 20.4777 19.2703 18.9217 17.0835 16.9827 20.2625 15.9692 19.0644 15.8214 15.688 15.4226 15.8644 15.0561 14.4528 14.1463 14.4424 13.9049 13.3472 17.5523 13.0654 13.2014 13.6223 13.0562 13.596
threshold=3.1499999761581425 109.50000000000001 142.50000000000003 194.50000000000003 102.50000000000001 66.500000000000014 189.50000000000003 95.950000762939467 67.500000000000014 9.9499998092651385 98.250000000000014 91.803848266601577 144.50000000000003 22.430000305175785 13.900000095367433 319.00000000000006 102.13055419921876 3.2500000000000004 71.224746704101577 22.845000267028812 31.006994247436527 72.500000000000014 119.50000000000001 29.500000000000004 7.6499998569488534 100.75000000000001 67.500000000000014 104.43105316162111 81.500000000000014 72.299251556396499
decision_type=8 10 8 10 8 8 10 8 8 8 10 8 10 10 10 10 10 10 8 10 8 10 10 10 8 8 2 10 8 8
left_child=1 3 7 4 10 -6 8 -2 -4 15 22 -12 13 23 -7 20 19 -18 -8 -10 21 -9 28 -5 -25 -11 -27 -28 29 -1
right_child=2 -3 6 12 5 14 18 9 16 25 11 -13 -14 -15 -16 -17 17 -19 -20 -21 -22 -23 -24 24 -26 26 27 -29 -30 -31
leaf_value=-0.045190706565429978 0.21169124671825151 0.057627827153351241 0.18550084860819002 -0.01889928408426797 0.054759472060598349 -0.039900193643461479 0.28830794410134919 0.42426950486820802 -0.040949064030625267 -0.071106278155047373 0.36259068121229743 0.054056214758182654 0.15348281454506352 0.1308537754773039 0.078770215446575156 0.25896114088749028 0.23204307959316869 -0.003049856728799729 0.062648445864043084 0.20607514825465617 -0.059278794449461103 0.022570812299893345 0.072172651116196224 0.036266912792191609 0.27036255476538645 -0.048016784893735495 0.048589238539519387 0.38804410870953288 -0.034701278110954213 0.12999707636406208
leaf_weight=7.1818529181182411 2.7490176204591981 180.71690380573273 5.070004876703023 55.121287930756807 30.665277872234583 226.59981373697519 4.1191135719418499 0.92573934234679001 65.78175681643188 249.92163768596947 3.1612717751413557 6.515758903697134 11.606329787522553 16.52609471976757 11.820718687027691 2.1234192922711363 4.7866886947303993 7.1700043752789497 10.477199718356133 2.4569691456854335 35.462202027440071 26.98069291561842 30.758072424679995 49.352237898856401 3.425231121480464 10.387208472937347 4.5421156212687483 1.5981464646756647 51.109790375456214 11.561522368341683
leaf_count=90 23 1429 51 830 331 3513 39 16 1417 6665 44 77 87 112 177 23 62 116 180 31 807 563 351 486 31 271 99 20 869 128
internal_value=0 0.0182791 -0.0361558 0.00448226 -0.00871923 -0.0238996 0.0168825 -0.0519809 -0.00185351 -0.0541645 0.0283184 0.154848 0.0412996 0.0308351 -0.0340166 -0.00840612 -0.0136982 0.0910662 0.12633 -0.0320548 -0.0173653 0.0358964 0.0161486 0.015516 0.0514596 -0.0654118 0.0206982 0.13694 -0.00852021 0.0628708
internal_weight=0 696.122 434.552 515.405 379.374 269.086 99.8617 334.69 85.2654 331.941 110.288 9.67703 136.031 124.425 238.421 65.4921 80.1954 11.9567 14.5963 68.2387 63.3686 27.9064 100.611 107.899 52.7775 266.449 16.5275 6.14026 69.8532 18.7434
internal_count=18938 8555 10383 7126 5580 4021 1896 8487 1677 8464 1559 121 1546 1459 3690 1409 1626 178 219 1448 1386 579 1438 1347 517 7055 390 119 1087 218
is_linear=0
shrinkage=0.1


Tree=12
num_leaves=31
num_cat=0
split_feature=20 66 28 22 44 1 1 13 71 17 48 35 65 13 9 59 15 8 42 42 12 37 1 46 1 43 9 59 37 12
split_gain=66.1197 31.4218 29.8689 18.6339 19.8899 17.8251 16.8562 17.1601 16.1159 21.6593 15.7442 15.7164 16.7936 15.4232 16.7127 15.5246 17.0848 15.4019 14.6808 14.4548 14.3612 13.4506 13.1281 13.0579 12.8257 12.8008 20.0714 18.711 16.3982 17.4622
threshold=3.1499999761581425 142.50000000000003 56.166666030883796 2.3999999761581425 274.50000000000006 45.500000000000007 78.500000000000014 95.605556488037124 17.365000724792484 93.850002288818374 15.34999990463257 0.55000001192092907 136.50000000000003 92.651512145996108 120.50000000000001 53.500000000000007 97.500000000000014 38.500000000000007 117.50000000000001 104.50000000000001 181.50000000000003 27.666666030883793 56.500000000000007 170.09999847412112 65.500000000000014 99.099998474121108 123.50000000000001 157.50000000000003 0.79999998211860668 102.50000000000001
decision_type=8 8 10 10 10 2 2 8 10 10 10 10 8 8 10 10 8 10 10 8 10 8 2 10 2 8 8 10 10 10
left_child=2 6 3 10 25 -4 8 -8 -2 -10 -1 13 -13 -3 -15 16 -16 -7 -17 22 24 -19 -11 -9 -6 26 -5 -28 -27 -30
right_child=1 11 5 4 20 17 7 23 9 19 -12 12 -14 14 15 18 -18 21 -20 -21 -22 -23 -24 -25 -26 28 27 -29 29 -31
leaf_value=0.019911566149621439 -0.065581519325336665 0.21309760418256044 -0.0067970705220053553 -0.0083974202777092211 -0.10919643732267491 0.15974787611859331 0.2942572590804664 -0.033441344035283233 0.44910641623058578 -0.06485744119590775 0.29194635181817657 0.3170791838920512 0.052653788260542372 -0.048182309437992982 0.42869140095076574 -0.048146606106629984 0.019926285658054075 0.04394517180920765 0.21150464333616312 -0.074345189093507291 0.36394125750632189 0.23298166466011103 0.2289436489842947 0.098971524987691906 0.24341857218512658 -0.056075941733715988 0.41649077633691101 0.072143977203070919 0.27586271293916947 -0.0042890747064816288
leaf_weight=176.16260238550603 252.3946530725807 2.9547501485794774 61.987045884132385 27.94623563811183 2.3340560868382445 12.914014112204312 1.9603146538138378 38.242966819554567 1.1738196052610899 2.4289782457053688 2.1535165831446639 2.6403112374246147 26.588790880516171 51.70234308950603 2.170024951919916 9.4814916606992465 1.9335816483944652 211.40517889335752 2.8267543055117121 9.526319604367016 2.1646669395267963 3.8322361707687369 4.0680183842778206 9.2486821897327882 1.8484334722161291 125.44892216287553 2.2582709528505793 5.2383722178637981 2.3054019361734381 63.72319913841784
leaf_count=1901 7053 24 571 521 40 64 30 893 8 59 16 23 378 1221 27 170 29 1796 24 219 19 20 73 152 21 2421 25 68 32 1040
internal_value=0 -0.0340069 0.0161827 -0.00113937 -0.0197427 0.0407555 -0.0493549 0.00431321 -0.0591994 0.0344676 0.0231969 0.0148145 0.0765398 -0.0105717 -0.0202743 0.0676444 0.236085 0.0536752 0.0114858 0.00409239 0.154854 0.0473109 0.119103 -0.00765482 0.0466403 -0.0246263 0.0305785 0.175874 -0.0348449 0.00549248
internal_weight=0 419.342 701.722 411.584 233.268 290.138 319.044 49.452 269.592 17.1971 178.316 100.298 29.2291 71.0689 68.1142 16.4119 4.10361 228.151 12.3082 16.0233 6.34716 215.237 6.497 47.4916 4.18249 226.92 35.4429 7.49664 191.478 66.0286
internal_count=18938 10383 8555 6104 4187 2451 8487 1075 7412 359 1917 1896 401 1495 1471 250 56 1880 194 351 80 1816 132 1045 61 4107 614 93 3493 1072
is_linear=0
shrinkage=0.1


Tree=13
num_leaves=31
num_cat=0
split_feature=28 51 8 22 3 44 66 59 59 18 26 39 48 11 17 1 42 19 44 17 14 29 15 44 12 17 5 1 22 15
split_gain=55.3586 23.6564 22.7682 22.425 21.2041 18.938 18.7291 18.3953 18.2321 17.4182 15.7244 15.2847 15.0298 14.7009 14.3775 15.5548 15.2829 14.2176 14.1508 14.256 12.6963 13.4333 12.5781 12.0688 13.7917 14.5819 13.0766 12.0394 13.1055 12.7038
threshold=26.10000038146973 10.050000190734865 35.500000000000007 2.169047594070435 27.421475410461429 182.50000000000003 142.50000000000003 45.500000000000007 157.50000000000003 100.75000000000001 97.500000000000014 9.1500000953674334 15.050000190734865 67.500000000000014 96.450000762939467 80.500000000000014 102.50000000000001 95.403331756591811 62.500000000000007 99.049999237060561 63.500000000000007 1.0000000180025095e-35 101.50000000000001 145.50000000000003 160.50000000000003 98.450000762939467 70.849250793457045 68.500000000000014 1.7535714507102969 175.50000000000003
decision_type=10 8 10 8 10 10 10 8 8 8 10 10 10 8 10 2 10 8 10 10 10 8 8 10 10 8 8 2 8 10
left_child=1 14 -2 8 10 6 18 -3 -4 27 23 -7 13 -11 15 -1 -17 -12 -6 -20 21 -19 -21 -5 -25 26 -26 29 -29 -9
right_child=2 7 3 4 5 11 -8 9 -10 12 17 -13 -14 -15 -16 16 -18 20 19 22 -22 -23 -24 24 25 -27 -28 28 -30 -31
leaf_value=0.027822549211740145 0.12475981687054104 0.080469062042396178 0.077659195525148064 -0.040571663049791928 0.26930869786760581 0.18238420061719485 0.095106159265692977 -0.06958618773315571 0.011412533655251808 0.26402926438275071 0.20860157287795389 -0.013249284524030267 0.36728717481267248 -0.0068210423923576284 -0.017868897295636087 0.41969874502117421 0.096470172124967932 0.23179374403297298 -0.016564368887518038 0.31074777277113086 -0.064585954530176473 0.023492728718390917 -0.0071891870218135125 -0.026892768300081107 0.1787017387054548 0.34964445546331974 -0.014039456933044321 0.13600835944636611 -0.034208016818516582 0.22892977401169243
leaf_weight=44.562050249427557 19.184922941029072 12.184994898736475 84.951097952201962 163.55717330239713 1.8906485103070725 13.804350063204767 25.572903417050838 188.68941083550453 81.305086635053158 2.1750397812575164 3.9386564455926409 5.6193713173270217 1.2626597136259068 25.474360136315227 77.718769859522581 2.0111145339906207 5.3652812838554382 3.2624431513249865 86.467407155781984 2.5794578753411761 16.366720654070377 60.679991994053125 2.4040005169808865 26.117533046752214 5.5276848301291475 1.9019777327775944 9.6917638629674911 4.6852032691240302 130.84563446417451 1.4364509806036938
leaf_count=733 113 139 620 2499 16 115 271 5784 662 25 26 60 25 526 1477 26 62 30 1244 28 228 563 20 331 55 17 116 47 3044 36
internal_value=0 -0.0273615 0.0175336 0.01408 0.00200626 0.0342389 0.0192854 -0.0403412 0.0452623 -0.0444929 -0.0133145 0.125787 0.0298931 0.0144854 0.00935338 0.0500878 0.184596 0.0231021 -0.00148735 -0.00708577 0.0140045 0.0341206 0.157376 -0.0281504 0.0188345 0.0885882 0.0559639 -0.051097 -0.0283238 -0.0673308
internal_weight=0 496.411 614.823 595.638 429.382 138.338 118.914 366.754 166.256 354.569 291.044 19.4237 28.9121 27.6494 129.657 51.9384 7.3764 84.2478 93.3415 91.4509 80.3092 63.9424 4.98346 206.796 43.239 17.1214 15.2194 325.657 135.531 190.126
internal_count=18938 11924 7014 6901 5619 1754 1579 9626 1282 9487 3865 175 576 551 2298 821 88 847 1308 1292 821 593 48 3018 519 188 171 8911 3091 5820
is_linear=0
shrinkage=0.1


Tree=14
num_leaves=31
num_cat=0
split_feature=20 66 63 51 8 51 12 47 20 36 1 3 20 11 30 44 26 23 66 43 9 9 23 5 46 39 35 30 40 15
split_gain=48.2391 26.4945 21.878 16.8846 16.61 14.9882 14.3099 14.0552 15.1657 16.9488 13.221 12.9609 12.8829 12.9965 13.8011 13.5605 21.4246 12.4805 12.0948 19.1757 14.527 12.5048 11.9976 13.2865 12.053 15.2932 15.0069 14.8767 11.7862 11.6298
threshold=3.1499999761581425 142.50000000000003 4.7500000000000009 1.1500000357627871 12.000000000000002 9.9499998092651385 197.50000000000003 11.449999809265138 1.5500000119209292 12.799999713897707 30.500000000000004 13.924926757812502 2.2500000000000004 90.500000000000014 0.25000000745058065 79.500000000000014 49.500000000000007 102.50000000000001 143.50000000000003 104.2678565979004 109.50000000000001 175.50000000000003 199.50000000000003 79.749202728271499 162.12500000000003 10.150000095367433 0.75000000000000011 0.15000000223517421 10.058333396911623 63.500000000000007
decision_type=8 8 10 8 10 8 10 10 10 10 2 10 10 10 10 10 10 10 10 8 10 10 10 8 10 8 8 8 10 8
left_child=2 5 4 -4 -1 11 17 8 -6 18 -9 -2 -5 14 15 16 -14 29 19 20 -10 -21 23 -20 25 27 -26 -25 -13 -3
right_child=1 6 3 12 7 -7 -8 10 9 -11 -12 28 13 -15 -16 -17 -18 -19 22 21 -22 -23 -24 24 26 -27 -28 -29 -30 -31
leaf_value=0.16230664640057213 -0.060625739058136063 0.21874526017104401 -0.093331677172094507 0.06994842359933208 0.044691036621766239 -0.057175340511688932 0.12639139310603356 -0.11285648248667168 -0.040709000025269386 0.079589023943742523 0.039715238585838253 0.018658693007006417 0.44380424283538727 -0.018185227462668214 -0.0089577505708656954 0.065442356649186365 0.04079834970237492 0.10131840619977368 -0.047629001398821535 -0.064643989907899171 0.027203121292434775 0.17294701309968144 0.15637726751420067 0.21628268605094803 0.25046010244996841 0.23662045934004841 0.00090410869968504432 -0.067183033412468368 0.24910683559148433 -0.01909966039559394
leaf_weight=6.3316147271543732 24.06024213321507 2.1133802998810998 9.1794497910886985 105.23619350418448 44.796622401103377 232.35646115429699 10.234037043526767 6.0167804807424536 59.853254487738013 17.103336453437805 101.3394467998296 37.785114018246531 2.6003460492938748 47.612557433545589 22.330908248201013 29.777324970811605 2.6773243695497513 10.973296474665402 26.737345434725285 121.77553761005402 66.486250288784504 2.2562571745365849 5.6257550381124011 2.1244274359196522 5.468910384923217 2.457178156822919 4.3076418042182931 14.407156297937034 2.3578428830951443 75.471948776394129
leaf_count=30 598 23 124 725 364 7070 132 91 961 109 1447 782 27 759 239 288 19 135 300 1948 751 17 44 26 41 26 30 189 37 1606
internal_value=0 -0.0304166 0.0132062 0.0394253 0.00139545 -0.045358 0.0144352 -0.000723774 -0.00989194 -0.0173329 0.0311644 -0.00259013 0.0452218 0.0204393 0.0524857 0.0916267 0.239362 0.00149732 -0.0226546 -0.032391 -0.0049702 -0.060322 0.0172241 0.00311957 0.0502903 0.00384327 0.140503 -0.0307556 0.0321943 -0.0126209
internal_weight=0 395.352 706.502 219.414 487.088 296.56 98.7927 480.756 373.4 328.603 107.356 64.2032 210.235 104.998 57.3859 35.055 5.27767 88.5586 311.5 250.371 126.34 124.032 61.1284 55.5027 28.7653 18.9888 9.77655 16.5316 40.143 77.5853
internal_count=18938 10383 8555 2181 6374 8487 1896 6344 4806 4442 1538 1417 2057 1332 573 334 46 1764 4333 3677 1712 1965 656 612 312 241 71 215 819 1629
is_linear=0
shrinkage=0.1


Tree=15
num_leaves=31
num_cat=0
split_feature=11 71 59 22 63 66 52 1 25 54 40 25 12 71 18 48 40 46 72 23 41 8 43 44 43 51 67 40 8 43
split_gain=42.5566 32.5994 20.6386 19.1455 17.7709 17.6151 19.532 16.8124 16.9362 16.6918 19.7956 16.311 17.0031 14.902 14.209 14.2028 12.9708 18.3901 12.4492 12.3603 11.9057 11.4503 11.4214 12.79 11.2084 10.8319 10.7705 10.6633 10.3383 10.2931
threshold=87.500000000000014 11.614999771118166 53.500000000000007 2.9499999284744267 4.6499998569488534 142.50000000000003 9.2000002861022967 50.500000000000007 61.708333969116218 5.6499998569488534 8.3928570747375506 769.75000000000011 171.50000000000003 1.0199999809265139 101.85000228881837 13.650000095367433 7.5366666316986093 188.09999847412112 12.234999656677248 55.500000000000007 102.50000000000001 105.50000000000001 103.6904754638672 168.50000000000003 105.08333206176759 8.1500000953674334 138.22499847412112 10.158333301544191 101.50000000000001 99.099998474121108
decision_type=10 10 8 8 8 10 10 2 10 8 10 10 8 8 10 8 8 10 8 10 10 8 10 10 8 8 10 10 8 10
left_child=2 3 14 9 11 7 -7 -3 -9 10 -2 12 13 -4 -1 19 17 -11 -6 -12 21 22 -5 -24 -15 -21 -14 -20 -10 -27
right_child=1 5 4 20 18 6 -8 8 28 16 15 -13 26 24 -16 -17 -18 -19 27 25 -22 -23 23 -25 -26 29 -28 -29 -30 -31
leaf_value=0.10114644119513605 -0.021612424657926222 -0.054044305323041192 0.35605491303500569 -0.037797104394198797 -0.0017141415055074664 0.084228208548655648 -0.076632470784953888 -0.042752813651992939 0.028241563824466073 0.0060580367984796766 0.28964032500932374 0.27013495287649797 -0.014521530709200073 0.0035759338155025092 -0.061303593547332662 0.3283198879419526 -0.038008989115238569 0.28462322257973643 0.055592844519883201 -0.030599622857713761 -0.069247699893457401 0.23049983203957872 0.045435018412082355 0.4674799456547577 -0.044703711567089695 0.37703301442109499 0.096334833719556423 0.25276155369102321 0.15084823790045787 0.080112246279683108
leaf_weight=45.026385361328721 22.3480164706707 48.508852824568748 1.0615797229111184 85.371526062488556 45.946647429838777 49.191077163442969 8.9164502415806037 35.927763549610972 82.22094975784421 12.178901493549345 2.4866041764617028 2.1651814579963675 13.823521329089997 99.984847664833069 6.115509118884801 2.6811759769916526 120.11533342115581 2.9424841627478591 97.46298055164516 8.1835559867322463 157.47348865121603 1.7341098561882962 4.5067404247820368 0.85413613356649865 92.637440916150808 1.4229994695633639 23.946394525468349 2.8223570901900521 7.5050967615097752 6.5029120203107595
leaf_count=304 249 937 13 2492 643 504 113 887 1000 169 33 15 176 1422 55 28 2027 31 813 93 4814 27 105 13 1519 17 279 18 59 83
internal_value=0 -0.0183048 0.0220828 -0.0346484 0.0140533 0.0118678 0.0595446 -0.00403911 0.0152655 -0.00967006 0.0441161 -0.00305923 -0.00561488 -0.0175839 0.0817208 0.113152 -0.0270206 0.0602643 0.0413922 0.0821296 -0.0525234 -0.0240415 -0.0289063 0.112678 -0.0196431 0.0500989 0.0557622 0.0611418 0.0384969 0.133421
internal_weight=0 661.072 430.993 428.802 379.851 232.27 58.1075 174.163 125.654 178.862 43.6253 233.619 231.454 193.684 51.1419 21.2772 135.237 15.1214 146.232 18.5961 249.94 92.4665 90.7324 5.36088 192.622 16.1095 37.7699 100.285 89.726 7.92591
internal_count=18938 13681 5257 10181 4898 3500 617 2883 1946 2730 503 3424 3409 2954 359 254 2227 200 1474 226 7451 2637 2610 118 2941 193 455 831 1059 100
is_linear=0
shrinkage=0.1


Tree=16
num_leaves=31
num_cat=0
split_feature=37 11 43 71 67 8 46 1 16 19 71 39 55 40 22 6 26 61 18 1 10 46 21 6 70 70 59 44 26 12
split_gain=37.5279 22.0669 20.3069 18.4171 15.6973 14.7605 14 13.1875 13.1663 13.0831 12.925 12.5761 11.8889 12.7112 16.2401 14.9184 12.3794 11.1482 10.7027 17.3665 17.6586 13.8977 12.1535 12.9912 10.5346 15.1742 10.2827 9.97678 9.86773 9.58578
threshold=0.40999999642372137 82.500000000000014 100.07143020629884 11.944999694824221 143.07142639160159 91.500000000000014 142.79166412353518 58.500000000000007 52.163194656372077 98.017421722412124 21.964999198913578 9.4499998092651385 5.7549998760223398 8.3690476417541522 2.8999999761581425 142.04899597167972 232.50000000000003 75.083332061767592 100.04999923706056 74.500000000000014 95.775920867919936 302.58332824707037 1.5500000119209292 69.999248504638686 6.0803568363189706 5.4928572177886972 199.50000000000003 322.50000000000006 36.500000000000007 200.50000000000003
decision_type=10 10 10 10 10 10 10 2 8 8 10 10 8 10 8 8 8 8 8 2 10 8 8 10 10 10 10 10 10 10
left_child=2 8 5 12 10 7 -5 -1 9 -2 18 17 13 16 15 -15 -3 -6 22 21 26 -20 23 -4 25 -7 -21 -14 -19 -10
right_child=1 3 4 6 11 24 -8 -9 29 -11 -12 -13 27 14 -16 -17 -18 28 19 20 -22 -23 -24 -25 -26 -27 -28 -29 -30 -31
leaf_value=-0.05747801551454295 0.15789807510131496 -0.068943134343062665 -0.028575261763887638 -0.0050696780829357071 0.25926555499779036 0.12838615302946643 0.05245476377988452 0.030169242655499775 0.024288225098670208 -0.023135864884193481 0.055350548745293306 -0.078690755120700576 -0.031390935036082555 0.075750716735818374 -0.012123731375579922 0.29893230098298573 0.1069313029021831 -0.0033927563182492779 -0.051520412055303971 -0.10583386732090094 0.34612930086220406 0.25519899010140074 -0.06745683132530865 0.25691002284478254 -0.0093579621448779543 0.51164208079922469 0.22135431953067083 0.18316800751827259 0.12642852052673889 0.12848549673700291
leaf_weight=26.333448000252247 15.551247941330077 21.346319951117042 4.9045758247375479 82.652905389666557 2.3020586147904387 5.8193507473915798 86.674566760659218 49.315176520496607 217.50133562646806 5.3706501610577098 11.340829998254774 10.516525998711584 208.96128314174712 18.62241444550455 20.298487892374396 3.5690853968262664 4.9256560131907454 22.13700778409839 29.956387383863333 2.6457240488380185 2.578088341280818 1.5539059862494458 199.59816866740584 2.3614504784345627 3.8368248604238033 1.2560434639453886 1.5080184563994405 2.1899037063121787 7.9604172483086577 9.2026262786239368
leaf_count=752 98 294 43 1059 21 119 803 1043 2012 44 151 169 4419 181 463 34 35 389 696 63 31 16 5738 20 50 10 32 22 64 67
internal_value=0 0.0115546 -0.0273162 -0.001657 -0.039651 0.0153426 0.0243757 -0.000340955 0.0355229 0.111427 -0.0490185 0.0163251 -0.0174049 0.0187096 0.0525178 0.111645 -0.0359689 0.0471663 -0.0538476 -0.00524707 0.140549 -0.0363948 -0.0628322 0.0642071 0.124069 0.196423 0.012952 -0.0291657 0.0309435 0.0285179
internal_weight=0 696.866 385.924 449.241 299.363 86.5608 169.327 75.6486 247.626 20.9219 256.447 42.916 279.913 68.762 42.49 22.1915 26.272 32.3995 245.106 38.2421 6.73183 31.5103 206.864 7.26603 10.9122 7.07539 4.15374 211.151 30.0974 226.704
internal_count=18938 9531 9407 7310 7433 1974 1862 1795 2221 142 6790 643 5448 1007 678 215 329 474 6639 838 126 712 5801 63 179 129 95 4441 453 2079
is_linear=0
shrinkage=0.1


Tree=17
num_leaves=31
num_cat=0
split_feature=9 24 1 45 58 21 19 1 35 59 11 17 15 1 12 38 58 73 31 67 57 26 63 54 0 64 70 38 63 52
split_gain=31.352 25.8241 22.3002 17.3783 17.9539 16.277 15.4885 13.4065 16.5076 15.244 13.1196 12.1191 11.3806 11.3558 18.7265 12.7487 10.8308 10.819 10.7926 9.93666 9.53296 18.7115 14.4345 14.3156 13.8337 13.6799 16.4157 11.7913 12.1929 16.799
threshold=115.50000000000001 44.500000000000007 58.500000000000007 135.50000000000003 72.116664886474624 0.94999998807907116 97.228992462158217 44.500000000000007 13.450000286102297 41.500000000000007 152.50000000000003 99.649997711181655 71.500000000000014 72.500000000000014 116.50000000000001 10.650000095367433 72.316669464111342 11.387777328491213 0.78333330154418956 136.46428680419925 83.450000762939467 122.50000000000001 5.2500000000000009 4.6499998569488534 1.0000000180025095e-35 3.5354167222976689 6.370833396911622 9.1500000953674334 4.6499998569488534 8.8166666030883807
decision_type=10 10 2 10 8 8 10 2 10 10 8 10 10 2 8 10 8 10 10 10 8 8 10 10 2 10 10 8 10 10
left_child=1 13 5 4 -4 -3 18 8 -8 -9 -5 16 17 15 19 -1 -11 -7 -2 -15 21 25 -22 24 -24 26 -6 -27 29 -29
right_child=6 2 3 10 20 12 7 9 -10 11 -12 -13 -14 14 -16 -17 -18 -19 -20 -21 22 -23 23 -25 -26 27 -28 28 -30 -31
leaf_value=-0.071630688307211463 0.054735663936400683 0.36486375816250705 -0.086188919386864848 0.026415999347054128 0.43957175354983513 -0.052914484927614441 -0.038479569438533708 0.097970598463760439 0.20670485453181164 -0.063532824162500473 0.23896776686727381 0.18243650589758753 -0.04574514386355405 0.42168741831885748 -0.027440867142152922 0.38714675640109264 0.015100201323826244 0.095873663805777998 -0.10419454550356305 0.061482764936344338 -0.030188386387207729 0.29613641659113749 0.054495680410752638 -0.1248426643934622 0.39047887002309095 -0.049428455578196279 -0.031706921229402427 0.45705999279615644 -0.10836417151791469 0.069416597755212237
leaf_weight=107.46777393110096 119.46322793886065 1.0179412588477124 29.358969600871205 194.23806240037084 1.6339668408036296 8.3348701801151055 73.128273081034422 22.268722403794527 2.8531121164560309 19.604854723438621 2.9480329118669024 4.0107952021062365 149.11523000709713 1.4107079226523631 51.6975072119385 0.60914009623229404 164.45547231845558 11.814251534640787 4.431297753006219 1.6753780096769331 68.492096748203039 2.8086169473826876 2.6335115134716025 1.7119914181530473 2.2920367699116468 15.999572750180961 1.3495505414903162 1.5615531355142582 2.0085049960762262 3.9352830331772566
leaf_count=3802 1240 7 740 2678 24 100 1235 199 17 338 29 30 2986 15 1346 17 2107 91 58 30 1267 25 34 17 27 301 32 19 40 87
internal_value=0 -0.01565 -0.00440989 0.0107193 -0.0170998 -0.0338159 0.019512 0.00673007 -0.0292729 0.0197355 0.0295938 0.010472 -0.0362135 -0.0502449 -0.0131561 -0.0690449 0.00672475 0.0343261 0.0490513 0.226139 0.00232425 0.0507083 -0.0165433 0.124259 0.210841 0.0246851 0.226396 -0.000918392 0.102493 0.179539
internal_weight=0 664.115 501.254 330.972 133.786 170.282 410.216 286.321 75.9814 210.34 197.186 188.071 169.264 162.861 54.7836 108.077 184.06 20.1491 123.895 3.08609 104.427 29.297 75.1296 6.63754 4.92555 26.4884 2.98352 23.5049 7.50534 5.49684
internal_count=18938 13714 8504 5320 2613 3184 5224 3926 1252 2674 2707 2475 3177 5210 1391 3819 2445 191 1298 45 1873 528 1345 78 61 503 56 447 146 106
is_linear=0
shrinkage=0.1


Tree=18
num_leaves=31
num_cat=0
split_feature=19 27 1 45 58 24 10 42 2 14 67 53 12 10 66 62 1 6 49 32 66 11 43 23 12 10 55 6 31 59
split_gain=28.1615 26.8539 19.585 17.7464 17.6904 16.8727 14.4968 19.4705 16.0066 14.3885 13.7994 13.661 12.9255 14.3413 12.8622 19.0647 12.7105 11.5957 11.5326 11.1871 10.6906 10.5974 10.475 12.7424 10.4477 15.4185 11.2886 10.3544 10.2957 11.4212
threshold=96.28397369384767 12.500000000000002 57.500000000000007 135.50000000000003 72.316669464111342 487.00000000000006 95.270980834960952 98.500000000000014 28.222519874572757 38.500000000000007 144.07142639160159 6.7500000000000009 206.50000000000003 73.408248901367202 144.50000000000003 4.4500000476837167 75.500000000000014 124.29150009155275 8.7000002861022967 0.83499997854232799 147.50000000000003 138.50000000000003 105.08333206176759 362.50000000000006 175.50000000000003 101.56571197509767 7.2583332061767587 64.50009918212892 0.59999999403953563 183.50000000000003
decision_type=10 10 2 10 8 10 10 10 10 8 10 10 8 8 10 10 2 8 10 8 8 10 8 8 10 10 8 10 10 10
left_child=9 6 5 4 -4 10 -2 8 11 -1 -3 18 19 -14 15 -11 -17 -12 -8 20 -5 -21 -6 28 -9 26 -26 -15 -24 -30
right_child=1 2 3 12 22 -7 7 24 -10 14 17 -13 13 27 -16 16 -18 -19 -20 21 -22 -23 23 -25 25 -27 -28 -29 29 -31
leaf_value=0.10806658458352436 -0.057346023973594951 -0.032981958318860714 -0.07339521991855312 -0.066836445897059601 0.027902747602032742 0.11787092283377301 0.24871339970056294 -0.048717934385393485 -0.10825812200972305 -0.018662321041290932 0.0066259565003490978 0.58043929941518468 0.30159440323715425 -0.072782909877357846 0.098537543366054095 0.054027961667701165 0.27092653251762205 0.1624291079061726 -0.050785110549203455 0.02690327162421385 0.20798841738082505 0.20713565394878986 -0.04423369890955052 0.18002511674641911 0.55416975343320762 -0.029483469092932348 0.13063120477715137 0.14582886172281836 0.25799079046227036 -0.10601509907539891
leaf_weight=26.873064737766981 143.32428248040378 237.24831450730562 36.942962344735861 19.406655872240666 82.031414963304996 8.4980693235993368 4.225717179477213 33.059247709810734 2.032648703083396 59.454782487824559 20.70003437995911 0.87397428043186653 3.428151132538912 3.5190579108893871 18.869846202433109 10.184213917702435 3.6773381363600484 6.2099432330578557 1.8479298353195188 258.55123056471348 1.5267894938588131 3.3040512297302476 61.143439641222358 2.8955128602683535 0.90157103724777643 4.9244242757558823 2.0837573166936636 5.6373337041586637 2.3901837095618244 1.3481750618666408
leaf_count=172 5107 4109 892 259 1211 73 71 914 48 775 183 20 34 36 131 120 37 53 52 3159 8 38 1113 22 16 112 55 51 34 33
internal_value=0 -0.00791893 0.000597598 0.0127114 -0.011417 -0.0208226 -0.0411781 0.00521415 0.138569 0.0436793 -0.0252844 0.210782 0.0279667 0.12713 0.0249099 0.00595988 0.111569 0.0425802 0.15759 0.0235538 -0.046792 0.0291774 0.00386683 -0.025224 -0.0240167 0.0792235 0.25854 0.0618102 -0.0343838 0.126718
internal_weight=0 948.055 754.781 482.125 186.752 272.656 193.274 49.9493 8.98027 119.059 264.158 6.94762 295.373 12.5845 92.1862 73.3163 13.8616 26.91 6.07365 282.789 20.9334 261.855 149.809 67.7773 40.969 7.90975 2.98533 9.15639 64.8818 3.73836
internal_count=18938 17703 11308 6890 3305 4418 6395 1288 191 1235 4345 143 3585 121 1063 932 157 236 123 3464 267 3197 2413 1202 1097 183 71 87 1180 67
is_linear=0
shrinkage=0.1


Tree=19
num_leaves=31
num_cat=0
split_feature=8 37 43 9 30 50 58 47 24 66 70 1 2 17 10 19 64 12 23 13 23 58 60 6 8 38 25 64 71 66
split_gain=25.4717 24.839 16.0166 15.1544 12.4165 11.7388 12.0506 16.4524 11.1508 12.3134 11.7434 11.4029 11.3093 15.454 10.7914 10.7577 10.2794 10.1785 9.93476 9.91408 9.88523 10.6766 10.7147 16.4486 17.3684 11.7754 9.61469 9.55804 9.48608 10.1401
threshold=17.500000000000004 0.40999999642372137 100.07143020629884 107.50000000000001 0.15000000223517421 6.9500000476837167 90.27500152587892 14.34999990463257 49.500000000000007 142.50000000000003 3.6000000238418584 57.500000000000007 23.481541633605961 97.049999237060561 70.560485839843764 95.129234313964858 4.7464287281036386 196.50000000000003 387.50000000000006 92.651512145996108 49.500000000000007 92.81250381469728 240.50000000000003 89.165050506591811 59.500000000000007 8.1500000953674334 217.41666412353518 3.5666667222976689 21.564999580383304 140.50000000000003
decision_type=8 10 8 10 8 8 10 8 10 10 8 2 10 8 8 10 10 8 8 8 10 10 10 10 10 10 10 8 10 8
left_child=-1 2 -2 8 20 6 16 18 -3 10 -10 19 -11 17 -13 27 -5 -14 -8 26 -4 22 23 24 -22 -26 -12 -6 29 -17
right_child=1 3 4 5 15 -7 7 -9 9 12 11 14 13 -15 -16 28 -18 -19 -20 -21 21 -23 -24 -25 25 -27 -28 -29 -30 -31
leaf_value=0.11342288755056712 0.020983617835843387 -0.082364999158107799 -0.042062309335060402 0.043737280704784845 0.2548529664987999 0.0062320888838751434 -0.034398313581138679 0.21856602667793462 0.37933532320531471 -0.0079230888503934779 -0.029853585710521519 -0.0437639700625191 0.10705911803578956 -0.029666812185523236 0.014474393522187812 -0.071396647028905538 0.11901645455078057 0.35454377241595247 0.15969743196658281 -0.062102324333639616 0.46269595351093501 -0.11064959174602217 0.017789890968622716 -0.071662646592263762 0.27204864105773136 -0.059210974148994171 0.24529462181141048 0.010100628152767112 0.035971881016648249 -0.02977916171110816
leaf_weight=18.748928409069777 61.135113291442394 19.757938601076603 15.414317293092607 82.699778651818633 1.9816260281950207 233.14845035411417 36.45249449647963 3.1102486979216328 0.7521944846957912 28.348608024418354 3.1647820901125661 44.128106908872724 18.096951531246312 8.7461041733622533 114.04442307166755 124.01092813536525 23.235518723726273 1.8298661932349194 2.8427465409040442 62.064915569499135 2.4025511574000173 3.0417139194905749 9.5120898354798538 2.1337572131305933 2.4664217047393322 1.8995571024715898 2.1212193742394447 8.1900055985897779 13.010371103882788 110.90128945559263
leaf_count=96 1389 439 450 739 15 2995 319 25 4 371 36 919 201 120 1794 4082 154 16 16 1307 30 61 137 36 21 41 12 84 174 2855
internal_value=0 -0.00418006 -0.0256006 0.00696291 -0.0352558 0.0202243 0.0422159 -0.0028329 -0.00973065 -0.00466493 -0.0151306 -0.0164463 0.0368656 0.0811477 -0.00177336 -0.0430105 0.0602488 0.129785 -0.0203568 -0.0509055 0.0190273 0.0629148 0.0915845 0.170434 0.246754 0.127924 0.0805606 0.057783 -0.0471458 -0.0517492
internal_weight=0 1040.64 356.1 684.544 294.965 381.489 148.341 42.4055 303.055 283.297 226.276 225.523 57.0215 28.6729 158.173 258.094 105.935 19.9268 39.2952 67.3509 36.8704 21.4561 18.4144 8.90229 6.76853 4.36598 5.286 10.1716 247.923 234.912
internal_count=18938 18842 9375 9467 7986 4248 1253 360 5219 4780 4072 4068 708 337 2713 7210 893 217 335 1355 776 326 265 128 92 62 48 99 7111 6937
is_linear=0
shrinkage=0.1


Tree=20
num_leaves=31
num_cat=0
split_feature=11 21 59 46 69 17 2 38 31 16 69 10 8 15 18 1 15 5 8 19 9 1 40 45 46 17 48 46 35 72
split_gain=23.1323 20.2994 15.0927 13.6108 17.2202 13.4404 13.4278 15.4621 12.4725 16.9018 14.9042 14.5818 12.5023 12.3158 12.2523 11.8586 10.6451 10.9003 10.1975 10.8059 10.1939 10.0663 16.0432 17.723 10.7153 10.5485 11.9372 10.4659 9.95878 9.90155
threshold=88.500000000000014 2.8500000238418584 53.500000000000007 127.08333206176759 6.2500000000000009 93.549999237060561 22.525729179382328 10.34999990463257 0.22678571939468387 77.418010711669936 6.5499999523162851 102.51893234252931 38.500000000000007 69.500000000000014 101.85000228881837 63.500000000000007 169.50000000000003 43.799499511718757 70.500000000000014 97.544952392578139 88.500000000000014 69.500000000000014 8.7309517860412615 162.50000000000003 206.58333587646487 98.250000000000014 14.250000000000002 140.90000152587893 2.3500000238418584 15.065000057220461
decision_type=10 8 8 10 10 8 10 8 8 10 10 10 8 8 10 2 8 8 10 10 10 2 10 8 10 10 10 10 10 10
left_child=2 -2 14 -3 16 -6 7 8 9 10 -4 15 -10 28 -1 -11 17 -5 19 -12 -9 25 23 27 -25 -7 -27 -23 29 -8
right_child=1 3 6 4 5 21 13 20 12 11 18 -13 -14 -15 -16 -17 -18 -19 -20 -21 -22 22 -24 24 -26 26 -28 -29 -30 -31
leaf_value=0.081285252318588158 0.0065696025289661078 -0.051407248435956357 -0.024570911376201782 0.36309416616969126 0.22113034164886974 -0.031692627854623262 0.14658149960353603 -0.058404479966120908 0.10265564403344046 -0.082672302406595066 0.040475685050031629 0.43308055327986167 -0.037835998160382342 0.020452517926574647 -0.066452492144488826 0.23838942509407335 0.36093333708934977 -0.050413333654211995 0.011990504974588234 0.2666619871487676 0.1826494529223571 0.18788253563676185 0.011737424371398974 -0.022512425660389274 0.22976935509582039 -0.019843741730998607 0.26222763345412858 0.58790382183058687 0.26953748053747695 -0.033000235777930632
leaf_weight=48.537058658897877 253.36278731375933 165.37323300540447 47.039614221081138 0.64236635901033778 3.1437447741627684 48.724416149780154 7.4687767140567285 2.3764717895537597 6.651125853881239 2.1880528833717099 3.9312898200005311 1.6426751390099523 132.92052020691335 161.78657239861786 6.3476499542593947 2.4258894771337509 0.64369085244834323 83.978356972336769 9.7123625483363849 4.5645610932260752 6.7013934161514044 1.3309079818427538 26.624396748840809 4.1680226493626842 2.8244414310902357 3.3028213679790488 2.7491409089416265 1.2860461249947546 3.2260975763201705 5.2134455926716328
leaf_count=315 3181 5635 564 20 26 1163 86 31 54 31 36 19 2041 2090 58 21 16 2606 89 38 74 25 447 72 31 63 30 20 16 40
internal_value=0 -0.0149206 0.0150406 -0.0307123 -0.0116374 0.0178442 0.008259 -0.00824606 -0.013742 0.0202196 0.00516441 0.177224 -0.031141 0.0287078 0.0641988 0.0861335 -0.0441926 -0.0472743 0.0819835 0.161999 0.119545 0.0108221 0.0517132 0.162472 0.0793909 -0.0162268 0.108289 0.384464 0.112664 0.0727585
internal_weight=0 598.154 452.734 344.792 179.418 94.1539 397.849 220.154 211.076 71.5044 65.2478 6.25662 139.572 177.695 54.8847 4.61394 85.2644 84.6207 18.2082 8.49585 9.07787 91.0102 36.2338 9.60942 6.99246 54.7764 6.05196 2.61695 15.9083 12.6822
internal_count=18938 13335 5603 10154 4519 1877 5230 2998 2893 798 727 71 2095 2232 373 52 2642 2626 163 74 105 1851 595 148 103 1256 93 45 142 126
is_linear=0
shrinkage=0.1


Tree=21
num_leaves=31
num_cat=0
split_feature=14 3 73 66 51 10 15 43 10 19 28 15 16 14 64 47 4 60 24 10 48 58 44 19 73 73 47 72 5 60
split_gain=20.5835 20.5056 15.1817 19.461 14.5956 15.3387 18.3623 15.7993 16.7694 13.9534 13.5175 13.1324 12.7577 12.5469 11.0178 10.9649 10.7346 10.7229 12.6921 10.7039 10.3115 10.2984 10.2846 10.2561 9.69154 9.65849 9.62258 21.7649 14.458 14.8023
threshold=39.500000000000007 27.168038368225101 10.440000057220461 139.50000000000003 7.1499998569488534 109.06190490722658 185.50000000000003 99.099998474121108 112.80625152587892 96.88452529907228 28.166666984558109 90.500000000000014 82.561248779296889 96.500000000000014 3.4690474271774296 13.150000095367433 27.799784660339359 286.50000000000006 77.500000000000014 112.08395385742189 11.150000095367433 90.474998474121108 148.50000000000003 98.825836181640639 6.3224999904632577 9.6100001335144061 9.9499998092651385 4.1749999523162851 40.449550628662116 177.50000000000003
decision_type=10 10 10 8 8 10 10 10 8 10 10 10 10 8 8 10 10 10 10 10 8 10 10 8 10 8 8 8 8 8
left_child=9 4 10 19 15 6 13 8 -7 14 -3 16 25 22 -1 -2 -5 18 -17 -4 -21 -13 -6 -20 -10 -12 -24 -28 -29 -30
right_child=1 2 3 11 5 7 -8 -9 24 -11 12 21 -14 -15 -16 17 -18 -19 23 20 -22 -23 26 -25 -26 -27 27 28 29 -31
leaf_value=0.22743559249677947 -0.001616088300922982 -0.040774609814737045 -0.014060430243061396 0.34679712644523275 -0.044639471747817155 0.31109611049073738 0.29462524490676312 -0.006379006212461619 0.22019925302647581 0.0097318501228225371 0.056743113514665905 0.05510666567623565 -0.075155636236483941 0.34224987242332844 0.058789895121560187 -0.0067359792093046392 0.10923857462448659 -0.081305599502176057 0.26156181240163368 0.16615455866108664 -0.032121012739572595 -0.10487067514280471 -0.046801814648603585 0.031248338064975612 -0.021574156053912715 -0.079000429093286501 0.44257336962770188 0.8414579303695936 0.1124574690866243 -0.026227300891135081
leaf_weight=4.1919887978583565 134.85788402333856 70.813384376466274 67.973493155092001 2.0561722256243256 316.55728416703641 3.4438015278428766 1.6850664373487223 40.437309989705682 2.3239129688590765 107.31972483545542 48.690367095172405 42.529792400076985 11.173489049077032 0.87403012998402019 51.045871781185269 5.0521704275161055 25.391851948574185 3.2411010935902587 6.30601083487272 6.9704188834875795 4.2053421903401622 4.4444427303969851 27.925145737826824 2.7884591035544881 5.7857076171785593 5.8740438707172862 1.2372660972177971 0.21129404380917449 10.624031737446783 27.925853081047535
leaf_count=28 1707 2381 1072 17 7756 35 30 553 26 1244 638 629 229 16 414 87 264 52 58 62 48 52 479 23 72 83 17 5 200 661
internal_value=0 -0.00797573 0.0137991 0.0353697 -0.01866 -0.0279121 -0.0347628 0.0230869 0.126218 0.030751 -0.0104602 0.072081 0.0221948 -0.0362031 0.0715884 0.00802028 0.127034 0.0827592 0.120348 0.00085093 0.0915452 0.0399705 -0.0370635 0.190945 0.047709 0.0421299 -0.00175549 0.0296939 0.0165146 0.0119931
internal_weight=0 881.399 290.123 153.572 591.276 439.031 387.04 51.9907 11.5534 162.558 136.551 74.4223 65.7379 385.355 55.2379 152.246 27.448 17.3877 14.1466 79.1493 11.1758 46.9742 384.481 9.09447 8.10962 54.5644 67.9236 39.9984 38.7612 38.5499
internal_count=18938 17252 5475 2144 11777 9850 9164 686 133 1686 3331 962 950 9134 442 1927 281 220 168 1182 110 681 9118 81 98 721 1362 883 866 861
is_linear=0
shrinkage=0.1


Tree=22
num_leaves=31
num_cat=0
split_feature=1 8 9 9 66 43 64 41 2 40 23 64 58 39 38 67 15 22 10 65 51 8 29 9 61 27 54 12 47 16
split_gain=19.4162 18.0617 17.6336 16.5956 11.9699 11.8213 11.4596 13.5514 11.6969 12.2366 14.8395 12.8898 14.4266 15.2871 22.6596 19.7891 12.0594 11.419 11.9452 11.1408 13.633 11.8407 10.9006 10.7971 13.3572 10.6884 12.7338 10.3875 10.5488 13.5925
threshold=57.500000000000007 34.500000000000007 122.50000000000001 96.500000000000014 146.50000000000003 98.708332061767592 4.7071430683135995 104.50000000000001 27.337544441223148 9.0535717010498065 171.50000000000003 4.0535714626312265 70.100002288818374 8.7500000000000018 7.8500001430511483 136.92857360839847 94.500000000000014 2.3354166746139531 88.970142364501967 133.50000000000003 9.9499998092651385 100.50000000000001 1.5500000119209292 119.50000000000001 210.09999847412112 323.00000000000006 6.3500001430511483 198.50000000000003 11.449999809265138 80.042572021484389
decision_type=2 8 10 8 10 8 8 8 10 10 10 10 10 10 10 10 8 8 10 10 10 10 10 8 10 10 8 10 10 10
left_child=2 -2 17 -3 5 19 7 8 25 10 11 12 13 14 -10 -15 -13 18 -1 20 -4 -21 -19 24 -14 26 -5 -9 -29 -30
right_child=1 3 4 6 -6 -7 -8 27 9 -11 -12 16 23 15 -16 -17 -18 22 -20 21 -22 -23 -24 -25 -26 -27 -28 28 29 -31
leaf_value=-0.046291691790643755 0.097657524444336216 -0.01783515289003313 -0.05350132752640633 0.049163669987052752 0.089684948443078005 -0.018851929095157392 0.046937474841959932 -0.019218170695533401 0.38265521719703627 -0.0045402646820446695 -0.055170628038180042 -0.070475633577266952 0.062549944623465664 0.18326640692927351 -0.032982386022921049 0.80143577890882833 0.11679741222782968 -0.053475010061349852 0.039320401326971531 0.072244205038270087 0.15585770825886569 0.33164211096993806 0.35713220280885638 -0.012978567856134283 0.31553553745844654 0.085829687745938937 -0.024893930149210611 -0.003234826316079738 0.38879932267688649 0.02314559273734491
leaf_weight=31.695325095206499 21.760382983833551 213.82269452512264 10.244105314835908 33.498449331149459 15.972911715507506 91.109427263960242 94.652257231995463 156.06538561917841 2.8354410007596043 18.575821217149496 5.7842180766165248 5.5408245753496859 4.7198271639645064 0.97807947359979186 2.4407416190952063 1.1005757115781305 9.0628192462027073 161.16270645707846 33.547392956912518 5.4131441097706539 4.4664633758366099 2.6073260568082333 0.64914812333881755 4.8297229316085586 3.7413703687489033 15.80204953253269 75.651785977184772 5.3666349612176401 2.0821467638015747 1.9865851085633037
leaf_count=345 165 4924 97 384 106 1391 1081 2649 23 327 53 76 48 17 39 26 102 4940 321 78 37 24 20 45 36 106 1352 67 21 38
internal_value=0 0.00802069 -0.02078 0.00505877 0.00861828 -0.00275615 0.0160664 0.00771923 0.0263508 0.0627992 0.0932836 0.117644 0.168503 0.280874 0.190383 0.510566 0.0457434 -0.0375878 -0.0022705 0.0617582 0.0100648 0.15657 -0.0518278 0.106319 0.174415 0.00896279 -0.00216549 -0.0130581 0.0888315 0.210266
internal_weight=0 680.298 356.868 658.537 129.813 113.84 444.715 350.062 184.562 59.6094 41.0336 35.2494 20.6458 7.35484 5.27618 2.07866 14.6036 227.055 65.2427 22.731 14.7106 8.02047 161.812 13.2909 8.4612 124.952 109.15 165.501 9.43537 4.06873
internal_count=18938 11579 7359 11414 1733 1627 6490 5409 2634 792 465 412 234 105 62 43 178 5626 666 236 134 102 4960 129 84 1842 1736 2775 126 59
is_linear=0
shrinkage=0.1


Tree=23
num_leaves=31
num_cat=0
split_feature=19 37 42 25 12 23 30 24 68 38 70 17 6 25 43 8 10 66 56 56 8 25 71 1 67 1 9 8 73 57
split_gain=17.1562 16.203 13.0252 11.4736 10.2879 10.2877 10.4107 9.62128 8.87965 9.09767 15.014 9.72704 17.9609 14.6776 9.7707 9.94421 8.74694 8.60447 8.54921 9.46475 9.46418 8.48575 10.778 11.3139 10.6001 8.45397 13.5448 10.5208 9.74275 10.0818
threshold=96.28397369384767 0.43333333730697637 98.500000000000014 43.250000000000007 201.50000000000003 605.50000000000011 0.15000000223517421 60.500000000000007 3.6499999761581425 10.34999990463257 7.4874999523162851 99.049999237060561 87.711898803710952 64.083332061767592 105.63333129882814 17.500000000000004 97.13068008422853 142.50000000000003 73.350002288818374 75.850002288818374 101.50000000000001 76.099998474121108 18.585000038146976 78.500000000000014 134.84523773193362 67.500000000000014 91.500000000000014 45.500000000000007 20.113333702087406 82.350002288818374
decision_type=10 10 8 10 8 10 8 8 8 10 10 10 10 8 8 10 10 10 8 8 8 8 10 2 10 2 10 10 10 8
left_child=7 2 18 -3 8 6 -4 -1 -5 11 16 14 -13 -14 -10 -16 -11 -17 -2 -20 21 -21 23 -23 -25 28 -27 -28 -8 -30
right_child=1 3 5 4 -6 -7 25 -9 9 10 -12 12 13 -15 15 17 -18 -19 19 20 -22 22 -24 24 -26 26 27 -29 29 -31
leaf_value=-0.038104636330118472 -0.10693382493860554 -0.064164972033201567 0.016199558128592383 0.084707135569358105 0.062338661650294627 0.24552089193680404 -0.064872578884994009 0.045285726791791873 0.0081207165538090941 0.34716238106310693 -0.11153494326853684 -0.021211747135754636 0.37024132241938185 0.086086831462469357 0.18614246336730325 -0.039144988359382384 0.065621311484921202 0.0027361333801262317 0.31102211651124323 0.17584368670715336 0.23019798916483489 -0.069543613362719456 0.21246293857781501 -0.03468483534011247 0.36694518582777458 -0.075196017539904875 0.15606826999970436 -0.0041855436622573365 0.19137466646298329 -0.01993214709035945
leaf_weight=16.001329002901912 3.4938938096165684 24.396780572831631 37.173538997769356 12.894722253084181 30.533117972314358 1.332022301852702 128.27015787921846 102.2288432829082 306.34374741092324 2.4525208733975878 1.960992833599448 9.5119306351989525 2.7281208131462309 5.447704518213869 2.313425773754715 122.37256406247616 2.0061653461307287 81.87789710611105 1.4178768713027263 3.0964402519166532 2.4661592599004498 13.116735918447377 2.0448417849838725 1.3726615905761712 1.2606698814779518 29.277604345232248 4.3724099658429614 64.960395025089383 2.8408384844660732 11.004368908703327
leaf_count=218 105 413 813 80 388 12 4676 1017 4365 35 41 105 22 52 12 2335 16 907 27 50 26 384 29 34 29 972 49 1521 28 177
internal_value=0 -0.00648651 -0.0251768 0.00301566 0.00583935 -0.0317254 -0.0330543 0.0339996 0.00270229 0.000733199 0.119064 -0.000698484 0.0722123 0.180904 -0.00321283 -0.020021 0.220484 -0.0223561 0.0395066 0.0601581 0.0449298 0.0230595 -0.00352606 -0.0315681 0.15759 -0.0406602 -0.018163 0.00592072 -0.0562704 0.023425
internal_weight=0 912.34 307.501 604.84 580.443 279.231 277.899 118.23 549.91 537.015 6.41968 530.595 17.6878 8.17583 512.908 206.564 4.45869 204.25 28.2693 24.7754 23.3575 20.8913 17.7949 15.7501 2.63333 240.726 98.6104 69.3328 142.115 13.8452
internal_count=18938 17703 8932 8771 8358 8248 8236 1235 7970 7890 92 7798 179 74 7619 3254 51 3242 684 579 552 526 476 447 63 7423 2542 1570 4881 205
is_linear=0
shrinkage=0.1


Tree=24
num_leaves=31
num_cat=0
split_feature=59 1 14 9 22 22 5 27 48 8 57 54 43 44 25 54 15 9 43 8 45 19 66 32 60 36 16 16 26 66
split_gain=16.0527 17.3708 15.8191 15.6863 12.4013 14.2857 12.2737 14.9064 14.7872 11.9991 11.544 13.2869 11.9128 10.7787 9.29531 9.14408 9.26077 8.84206 8.83406 10.0179 8.76292 9.63078 10.4871 8.52016 8.73663 10.8774 20.901 14.7425 11.3805 8.47463
threshold=80.500000000000014 56.500000000000007 96.500000000000014 125.50000000000001 2.0500000715255742 3.8000000715255742 97.510749816894545 38.500000000000007 8.0500001907348651 35.500000000000007 72.549999237060561 2.4500000476837163 102.36666870117189 58.500000000000007 71.166667938232436 19.849999427795414 170.50000000000003 166.50000000000003 97.071430206298842 99.500000000000014 194.50000000000003 99.721111297607436 140.50000000000003 0.21499999612569812 488.50000000000006 1.1500000357627871 52.763925552368171 57.322006225585945 3781.5000000000005 149.50000000000003
decision_type=8 2 10 10 10 10 10 10 8 8 8 10 8 8 10 10 10 8 10 10 8 10 8 8 8 8 8 8 10 10
left_child=4 3 9 15 -1 6 17 -8 -9 -3 11 -11 23 -14 20 16 29 -6 19 -5 21 -15 -23 -12 25 27 -27 -25 -28 -2
right_child=1 2 -4 18 5 -7 7 8 -10 10 12 -13 13 14 -16 -17 -18 -19 -20 -21 -22 22 -24 24 -26 26 28 -29 -30 -31
leaf_value=0.066392017281599866 -0.052014156481952394 0.079398433733517917 0.36897099748753703 -0.0017022792713333346 -0.023254079853105625 0.26903929836328794 0.22843193363890354 0.18935742391907762 -0.039992790357057814 0.29967927273212641 -0.1122905303229165 -0.04790818974135716 0.14320612383432083 -0.048465541821700993 0.006930232908784157 0.31420990701088652 0.16721273141113505 0.16595092498896735 -0.0062156264902322941 0.17245633293501172 0.0081551575448092963 -0.065549353550248476 0.21506321173125909 -0.040721615069101331 -0.076927298555790141 0.19227574555507562 -0.021454459790951119 0.072011538285349161 0.27653903019944609 0.065162773570452734
leaf_weight=54.61859542131424 177.25077281054109 19.27223245613277 1.1754987444728602 6.8113384647294861 73.110592644661665 2.0331271123141041 4.6627406179904964 3.8607831764966223 10.340264556929469 1.120018946006893 4.3565270435065031 60.793303359299898 4.7431530868634573 105.46421648282558 182.12063017114997 0.70904439873993297 2.0227180924266568 2.5563135165721169 71.59636340662837 6.4120778143405914 51.373129551298916 2.4229199159890404 2.9574202485382557 13.538517428562043 7.3860987722873679 5.3177948370575896 57.243669813498855 81.025851021520793 1.3109329789876927 6.3948266655206671
leaf_count=462 5075 158 10 82 805 26 57 26 86 8 67 1665 46 3098 2467 17 35 17 1131 50 927 60 40 161 116 57 1066 1055 7 61
internal_value=0 -0.00698476 0.00248695 -0.0279968 0.0283101 0.00677008 0.0011293 0.0732966 0.0223598 0.00176948 -0.000804759 -0.0416203 0.00406182 -0.00651374 -0.00857608 -0.0442212 -0.04559 -0.016862 0.00765379 0.0827478 -0.0259849 -0.0418078 0.0886954 0.025755 0.0293818 0.0343377 0.00245607 0.0558718 -0.0147829 -0.0479339
internal_weight=0 872.819 601.622 271.197 151.182 96.5638 94.5307 18.8638 14.201 600.446 581.174 61.9133 519.261 349.081 344.338 186.377 185.668 75.6669 84.8198 13.2234 162.218 110.845 5.38034 170.179 165.823 158.437 63.8724 94.5644 58.5546 183.646
internal_count=18938 17459 11008 6451 1479 1017 991 169 112 10998 10840 1673 9167 6638 6592 5188 5171 822 1263 132 4125 3198 100 2529 2462 2346 1130 1216 1073 5136
is_linear=0
shrinkage=0.1


Tree=25
num_leaves=31
num_cat=0
split_feature=8 9 17 1 40 15 9 26 8 47 58 17 14 27 61 68 42 22 20 7 59 31 12 61 7 16 44 50 19 72
split_gain=13.6345 13.5622 14.2851 11.4686 16.2413 13.0063 10.0923 9.68363 9.67502 9.5819 10.0029 9.17896 9.29828 9.15701 8.96107 12.0725 14.9384 10.3301 9.21635 9.18506 14.6286 8.97562 8.76507 10.4269 8.14448 8.06193 7.97425 8.06925 7.94672 9.56158
threshold=17.500000000000004 96.500000000000014 94.750000000000014 50.500000000000007 11.22499990463257 169.50000000000003 123.50000000000001 33.500000000000007 52.500000000000007 13.150000095367433 82.51666641235353 99.450000762939467 95.500000000000014 23.500000000000004 179.08333587646487 7.1499998569488534 105.50000000000001 3.8250000476837163 2.0499999523162846 68.672897338867202 166.50000000000003 0.29999999701976782 137.50000000000003 325.75000000000006 91.199016571044936 69.509998321533217 49.500000000000007 24.150000572204593 98.850002288818374 8.1750001907348651
decision_type=8 10 10 2 10 10 10 10 10 10 10 10 10 8 8 10 10 8 10 10 10 10 10 10 10 8 8 10 10 10
left_child=-1 7 9 4 5 6 -4 13 -5 -3 -11 12 26 14 15 17 21 19 22 -2 -21 -17 -16 -24 -13 -22 -10 -28 -15 -30
right_child=1 2 3 8 -6 -7 -8 -9 11 10 -12 24 -14 28 18 16 -18 -19 -20 20 25 -23 23 -25 -26 -27 27 -29 29 -31
leaf_value=0.085854677726040718 -0.06505960468485962 0.032956536154814725 -0.051964337385084373 0.068857010585037917 0.38332291481555203 0.19663732077497115 -0.0030029735235630149 0.0018676717469712401 0.12409132197754535 0.026700015431060403 0.26338048201493208 0.025165681837583848 0.28718146861345589 -0.063354020203727296 -0.070425137556426307 0.15378780641219378 -0.10297531851976703 0.37021675797703779 -0.057306644981714519 0.02553182584829973 0.61047768514775302 0.61203467802367417 0.36256248097628763 0.0076559515361389469 0.23129396483768697 0.089322091071014686 0.002300237002506081 -0.070620648762430169 0.17333602019865207 -0.042362598528822071
leaf_weight=17.474955483339727 10.945911388844261 72.998696226626635 88.802838118746877 24.103579232469201 0.97807550057768722 2.5996899604797354 80.051637131720781 106.01701317168772 5.2097402988001695 3.3200484756380311 3.8637642301619053 4.6222188062965861 1.1392273837700475 96.324630558490753 2.2640815880149594 0.76517171412706309 0.84525231458246697 0.79136020317673583 34.709314359351993 12.402228000573812 0.69889435824006674 0.96836791560053825 1.6535338163375857 1.6576740741729734 3.2750085070729256 0.51596176438033592 413.40298408642411 15.753295185044406 3.2116930326446873 5.7067904258146882
leaf_count=96 276 673 2412 345 10 31 1199 1461 41 49 24 50 12 3346 29 22 35 15 1193 324 20 22 23 21 25 20 6518 371 110 165
internal_value=0 -0.00324489 0.00401153 -0.000973972 -0.0230169 -0.0253349 -0.0287524 -0.0219423 0.00715622 0.0438009 0.153997 0.00380214 0.00186465 -0.0364946 -0.00795655 0.0355687 0.241706 0.0146025 -0.0381367 0.00314542 0.0579711 0.409768 0.0812069 0.184887 0.110648 0.389138 0.00111634 -0.000376513 -0.0549927 0.035314
internal_weight=0 999.599 720.121 639.938 172.432 171.454 168.854 279.478 467.506 80.1825 7.18381 443.402 435.505 173.461 68.2178 27.9331 2.57879 25.3544 40.2846 24.563 13.6171 1.73354 5.57529 3.31121 7.89723 1.21486 434.366 429.156 105.243 8.91848
internal_count=18938 18842 11760 11014 3652 3642 3611 7082 7362 746 73 7017 6942 5621 2000 734 79 655 1266 640 364 44 73 44 75 40 6930 6889 3621 275
is_linear=0
shrinkage=0.1


Tree=26
num_leaves=31
num_cat=0
split_feature=11 71 44 59 22 18 64 12 14 67 17 71 25 46 1 8 61 15 10 18 1 24 8 53 52 44 5 69 58 44
split_gain=12.6066 13.982 10.1881 10.044 9.70235 9.31313 8.92455 10.3479 8.93068 8.84813 17.2965 10.7468 10.8098 14.6223 10.6749 10.3123 9.17217 8.76094 9.64907 8.74871 8.69974 11.6528 11.4809 8.91677 9.72324 8.32835 7.98933 11.5327 10.5907 7.83132
threshold=88.500000000000014 11.614999771118166 246.50000000000003 53.500000000000007 2.3354166746139531 101.85000228881837 4.2690477371215829 170.50000000000003 13.500000000000002 139.06250000000003 98.950000762939467 12.515000343322756 86.833332061767592 148.07142639160159 41.500000000000007 93.500000000000014 163.09999847412112 133.50000000000003 101.56571197509767 98.549999237060561 67.500000000000014 659.50000000000011 120.50000000000001 17.250000000000004 10.900000095367433 67.500000000000014 119.84900283813478 6.8500001430511483 84.100002288818374 104.50000000000001
decision_type=10 10 10 8 8 10 8 10 8 10 8 10 10 10 2 10 10 10 8 8 2 10 10 10 8 8 8 10 10 8
left_child=3 2 4 5 26 -1 7 8 -5 14 11 12 17 -14 -3 25 -12 18 -11 -4 21 22 23 -6 -25 -16 28 -28 -2 -22
right_child=1 9 19 6 20 -7 -8 -9 -10 10 16 -13 13 -15 15 -17 -18 -19 -20 -21 29 -23 -24 24 -26 -27 27 -29 -30 -31
leaf_value=0.065107103608808906 -0.042342409171426149 -0.080921134472666661 0.14923353708241238 0.27078052241279876 -0.057443967861200977 -0.065559942366310395 0.021872069976046075 0.042987125245743107 -0.019558393945359562 -0.07948366361243514 0.3363275017259087 0.0056821644918903375 0.03739894126091594 0.36263194196604132 0.13865261363434042 0.077359097261767609 0.088514188106700309 0.2687542425857547 0.26545570581994482 -0.016701721607327896 -0.050519722739016275 0.40799990278099502 0.3783393528285604 0.46101906606999776 -0.0161161973697465 -0.016772213972343228 0.03516483763398643 0.28240386083512165 0.060281232468537296 0.0031906485294809269
leaf_weight=49.414863273501396 34.426374602131546 17.77364388294518 6.180153965018687 1.0656969379633654 149.45276685990393 6.1314145978540173 176.84443787112832 33.051138438284397 180.29538399539888 5.0976194050163013 2.6070911027491084 74.506004365161061 2.6063543185591698 2.9436408113688231 3.5946825891733161 15.791660873219369 3.4968455862253904 1.2234323881566522 0.96437999606132496 6.5394417699426421 41.474149836227298 0.5502542294561853 0.61452382616698642 0.69034406077116606 1.1200360609218478 84.264871660619974 13.537149399518965 2.1922045573592177 14.205627873539923 78.583281498402357
leaf_count=315 470 412 120 10 5602 58 2044 383 2793 132 17 1063 43 22 29 158 30 14 10 116 1312 8 10 8 37 1466 161 20 118 1957
internal_value=0 -0.0115919 -0.0239315 0.0108914 -0.027249 0.0506836 0.00524211 -0.00847407 -0.0178523 0.00848298 0.031615 0.0202414 0.104754 0.209898 -0.00931878 0.00295927 0.194359 0.0246554 -0.0246086 0.0639223 -0.0354972 -0.0513551 -0.0530193 -0.0547718 0.165828 -0.0104132 0.00767162 0.0696226 -0.0123656 -0.0153637
internal_weight=0 564.437 349.566 446.803 336.847 55.5463 391.257 214.412 181.361 214.87 93.4454 87.3414 12.8354 5.55 121.425 103.651 6.10394 7.28543 6.062 12.7196 272.485 152.428 151.878 151.263 1.81038 87.8596 64.3614 15.7294 48.632 120.057
internal_count=18938 13335 9939 5603 9703 373 5230 3186 2803 3396 1331 1284 221 65 2065 1653 47 156 142 236 8934 5665 5657 5647 45 1495 769 181 588 3269
is_linear=0
shrinkage=0.1


Tree=27
num_leaves=31
num_cat=0
split_feature=1 66 22 66 45 5 13 36 2 31 43 46 24 50 60 6 23 5 19 53 40 40 40 23 37 15 19 39 52 10
split_gain=11.3765 15.6954 18.0467 15.1952 13.3186 11.9593 10.5989 11.6019 10.9266 10.5624 10.165 9.67081 9.43664 9.33667 10.0168 11.425 12.7963 16.0562 18.7123 9.18813 8.76409 8.57694 9.22019 8.50284 8.72813 9.2957 8.48847 10.9767 10.1664 10.3123
threshold=68.500000000000014 143.50000000000003 2.6899998188018803 134.50000000000003 534.50000000000011 143.89849853515628 98.573593139648452 1.3499999642372134 29.165164947509769 0.22111111134290698 109.93750000000001 76.250000000000014 46.500000000000007 23.94999980926514 301.50000000000006 89.165050506591811 84.500000000000014 85.309951782226577 97.458572387695327 8.8499999046325701 9.741666793823244 9.4000000953674334 8.5250000953674334 56.500000000000007 0.63666668534278881 108.50000000000001 97.228992462158217 7.8500001430511483 10.524999618530275 76.06781387329103
decision_type=2 10 8 8 10 10 8 8 10 8 10 8 8 10 10 10 8 10 10 8 10 8 10 8 10 10 10 10 8 10
left_child=1 2 9 11 -5 12 7 -2 -8 -1 21 -4 -3 14 15 16 17 18 19 -10 23 22 -9 24 -11 -26 27 -14 29 -29
right_child=6 5 3 4 -6 -7 8 10 13 20 -12 -13 26 -15 -16 -17 -18 -19 -20 -21 -22 -23 -24 -25 25 -27 -28 28 -30 -31
leaf_value=0.028870102592805192 0.0065275699424334303 -0.12442570602894638 0.32288255103007274 -0.048101479253270775 0.21773817063651357 0.23926196236279434 -0.0041914465090991627 0.10444109110047278 0.1281183587115165 -0.061378234887918805 0.27980743813175457 0.01662903061811323 0.17765329426613813 -0.10689807601422817 -0.043073264683723626 0.02709821107442861 0.050316885840062012 0.37866013452378916 -0.027204756977284691 0.44291728723687246 0.089875860722839249 0.23176565297668211 -0.050943303755756814 -0.026881178155436159 0.043496089045286505 0.24602389210134212 0.0048909270413066211 -0.089429544901602542 -0.03183964987221357 0.12950719947811179
leaf_weight=90.496564372442663 23.334952557459474 4.3534939419478169 1.0647438755258907 218.15969408676028 1.9010284133255471 2.5410870276391497 261.62317872047424 11.622904654592285 1.9212750848382731 5.1847363859415081 2.9463270362466565 32.631121470592916 7.0445456188172093 4.2098931167274705 10.798896372318266 39.335810141637921 14.348230814561246 3.2883472889661789 4.2526143658906221 1.7919227983802555 7.7982324399054042 3.1927733980119219 5.6874215546995393 140.51735126972198 9.1719688046723586 3.0100091639906159 65.283724246546626 2.5981581471860435 11.85826353728771 12.511490443721412
leaf_count=846 219 54 18 7838 31 27 4661 97 20 90 29 797 46 111 141 607 248 32 71 27 75 26 67 1565 98 26 795 27 167 82
internal_value=0 -0.0100442 -0.0173276 -0.0362295 -0.045805 0.0249315 0.0118096 0.0564477 0.00569556 0.00139549 0.106124 0.0263062 0.019677 0.0380504 0.0461074 0.0609377 0.112929 0.192755 0.116012 0.280035 -0.0136113 0.0811657 0.0533885 -0.0187227 0.0472887 0.0935381 0.0259949 0.0665021 0.0374672 0.0918602
internal_weight=0 616.126 509.935 253.757 220.061 106.191 388.355 46.7844 341.57 256.179 23.4494 33.6959 103.65 79.947 75.7371 64.9382 25.6024 11.2542 7.96581 3.7132 165.682 20.5031 17.3103 157.884 17.3667 12.182 99.2962 34.0125 26.9679 15.1096
internal_count=18938 12582 11384 8684 7869 1198 6356 438 5918 2700 219 815 1171 1257 1146 1005 398 150 118 47 1854 190 164 1779 214 124 1117 322 276 109
is_linear=0
shrinkage=0.1


Tree=28
num_leaves=31
num_cat=0
split_feature=8 59 71 25 1 30 44 18 69 11 4 71 24 38 44 17 11 45 27 54 59 54 54 50 17 66 47 42 27 1
split_gain=10.5827 10.3803 16.4526 11.0153 12.2803 10.6331 9.78971 9.47396 15.8592 8.97276 9.21583 9.74323 8.7955 8.734 9.16132 13.0918 9.0586 10.6962 9.93273 8.63164 8.60278 8.40609 9.86949 8.32187 8.29658 8.00645 8.03809 7.84443 11.2866 11.4155
threshold=12.000000000000002 118.50000000000001 9.3550000190734881 60.708333969116218 39.500000000000007 0.65000000596046459 245.50000000000003 97.750000000000014 4.7500000000000009 56.500000000000007 42.740873336791999 9.5050001144409197 150.50000000000003 10.050000190734865 97.500000000000014 97.850002288818374 90.500000000000014 91.500000000000014 70.500000000000014 7.2500000000000009 259.50000000000006 15.449999809265138 10.250000000000002 7.7500000000000009 100.14999771118165 149.50000000000003 9.0500001907348651 100.50000000000001 23.500000000000004 68.500000000000014
decision_type=8 8 10 8 2 10 10 10 8 10 8 10 8 10 8 8 10 10 10 8 10 8 10 8 10 10 8 10 10 2
left_child=-1 13 6 5 -5 -4 20 8 -6 12 11 -11 -9 14 15 16 17 -2 21 -8 25 22 -19 -20 -16 -3 -27 28 29 -10
right_child=1 2 3 4 7 -7 19 9 27 10 -12 -13 -14 -15 24 -17 -18 18 23 -21 -22 -23 -24 -25 -26 26 -28 -29 -30 -31
